#define SIZE_INPUT 210
#define SIZE_LAYER_1 150
#define SIZE_LAYER_2 60
#define SIZE_OUTPUT 9
#include "ap_fixed.h"

//ap_fixed<32,16>

float weights_layer_1[SIZE_LAYER_1][SIZE_INPUT] = {{-1.5793808698654175, -0.07739266008138657, -0.8337725400924683, -1.4721862077713013, -1.6227129697799683, -0.9866975545883179, -2.3785133361816406, -3.500398874282837, -3.4993884563446045, -3.8816521167755127, -4.06467866897583, -2.9543874263763428, -2.341149091720581, -3.690561056137085, -3.386462688446045, -4.344923496246338, -5.3133978843688965, -6.0964250564575195, -5.472013473510742, -5.220980167388916, -5.454019546508789, -5.335892677307129, -3.892345905303955, -2.3526804447174072, -2.5651779174804688, -2.6054859161376953, -2.036412477493286, -1.4193357229232788, -1.5947761535644531, -2.2110066413879395, 1.6447367668151855, 0.5882495641708374, 1.716597080230713, 2.383801221847534, 2.393498420715332, 2.8257339000701904, 0.9695473313331604, -0.7330302596092224, 0.7753663063049316, 0.7939210534095764, 0.07351081818342209, -1.1004705429077148, -7.1363935470581055, -8.10480785369873, -8.220991134643555, -7.863987922668457, -9.55519962310791, -8.607542037963867, -7.4798479080200195, -5.896780014038086, -5.321940898895264, -6.696904182434082, -7.8543853759765625, -8.15941047668457, -8.28298282623291, -7.4364848136901855, -5.18463134765625, -5.298574447631836, -5.729139804840088, -6.225149631500244, -8.032204627990723, -7.986271858215332, -8.941838264465332, -8.64409065246582, -9.001338958740234, -7.903802394866943, -5.440478801727295, -4.252193450927734, -4.928128242492676, -5.339931964874268, -7.094520568847656, -8.383442878723145, 2.871330976486206, 1.2952513694763184, -0.22619834542274475, -0.7298717498779297, -0.25420185923576355, -0.2798895835876465, 0.9128071069717407, 1.8396859169006348, 3.103846788406372, 2.864208459854126, 2.7202601432800293, 2.69586443901062, 4.75266170501709, 3.370911121368408, 3.095364570617676, 3.7265214920043945, 5.417697429656982, 4.188869953155518, 4.177292346954346, 3.9747073650360107, 4.063648700714111, 2.4495608806610107, 0.5315701961517334, 0.4541211426258087, -0.05979018285870552, -2.009676933288574, -0.3626682162284851, -0.6236552596092224, -1.7499650716781616, -1.3083034753799438, -1.6481000185012817, 0.574173629283905, 0.9562221169471741, 1.8843085765838623, 1.2122502326965332, 1.570255994796753, 1.0742340087890625, 0.8771346211433411, 1.003250241279602, 1.4967703819274902, -0.00883806124329567, -1.3888753652572632, 1.5938042402267456, 1.9861273765563965, 3.4646315574645996, 3.615849256515503, 3.737565755844116, 3.304145574569702, 1.6905443668365479, -0.23625721037387848, -1.377914547920227, -1.691760778427124, -3.256380081176758, -5.0009307861328125, 2.3304591178894043, -0.3485715091228485, 0.09821008145809174, 0.6299671530723572, 1.4332473278045654, 0.5616154670715332, 1.4198389053344727, 1.3799262046813965, 0.7725009918212891, -0.2967939078807831, 0.94267338514328, 0.8941090703010559, -0.6955300569534302, 0.25390973687171936, 0.8030858039855957, 3.6915605068206787, 3.738832473754883, 3.784210205078125, 3.2005083560943604, 2.8244874477386475, 2.357116937637329, 2.8690555095672607, 2.2254438400268555, 0.42651358246803284, 0.3914748728275299, 0.3995392620563507, -0.09348228573799133, -0.7533612251281738, -0.4574696719646454, 1.1278033256530762, -3.245298385620117, -1.462666392326355, -2.627324104309082, -1.9608834981918335, -0.8932437896728516, -1.5192075967788696, -0.4107186794281006, -1.016621470451355, -1.4798505306243896, -1.4003700017929077, -0.6961048245429993, 1.3083313703536987, -3.120068311691284, -2.795314073562622, -2.505174398422241, -2.8510236740112305, -2.9493322372436523, -2.1315488815307617, -1.7889647483825684, -0.8435922265052795, -0.4365598261356354, -0.5463572144508362, -0.8851301670074463, -1.0046130418777466, -1.1462571620941162, -0.09173638373613358, 0.6664354801177979, 0.2762736976146698, -0.08940690010786057, -0.06564199924468994, -0.2604215145111084, 0.14263485372066498, -0.1044212058186531, -0.9677702784538269, -0.6082218289375305, -0.6664806008338928, 0.2042708396911621, 0.26158130168914795, 0.3851131498813629, 0.5509111881256104, -0.04043950140476227, -1.0582078695297241, 2.996246576309204, 2.2667410373687744, 2.3385064601898193, 1.4563016891479492, 1.2554993629455566, 1.199400544166565, 1.3852788209915161, 0.854033350944519, 0.6491490602493286, 0.9761262536048889, 0.9198724627494812, 1.02101469039917}, {-0.042660489678382874, -0.009879034012556076, 0.0343538299202919, -0.0036673620343208313, -0.05024007335305214, 0.015176065266132355, -0.05122186243534088, 0.06071393936872482, 0.02733790874481201, 0.005973398685455322, -0.053972113877534866, 0.06693845242261887, -0.06677484512329102, -0.0028774812817573547, -0.05683618783950806, -0.05707479640841484, 0.017695583403110504, 0.046626605093479156, 0.024728447198867798, 0.06512544304132462, -0.005560919642448425, -0.05009590834379196, 0.01586919277906418, -0.006002083420753479, 0.009307235479354858, -0.006423681974411011, -0.062383681535720825, -0.02461431175470352, 0.06517986208200455, 0.04019754379987717, 0.057426951825618744, 0.018658347427845, 0.05876649171113968, 0.012552596628665924, 0.0070287808775901794, -0.009054191410541534, -0.02840181440114975, 0.03967590630054474, -0.04730473458766937, -0.019114919006824493, 0.03368872404098511, -0.0058623626828193665, -0.04236404970288277, -0.012235108762979507, 0.028174370527267456, -0.023617107421159744, 0.04880484193563461, -0.05472709238529205, 0.056418485939502716, -0.0022796541452407837, 0.04612594097852707, -0.01715099811553955, 0.030888192355632782, -0.060901299118995667, -0.020410295575857162, 0.01621728390455246, 0.02780049294233322, -0.06485877931118011, 0.0546250119805336, 0.028932392597198486, 0.0319727286696434, -0.034944482147693634, 0.05868356674909592, -0.02767636999487877, 0.032067663967609406, -0.05535786971449852, -0.0036569610238075256, 0.02324008196592331, -0.06778384745121002, -0.020436476916074753, -0.031671442091464996, 0.001628383994102478, -0.03238469734787941, 0.010515645146369934, 0.03485303372144699, 0.01641913503408432, -0.05000259727239609, -0.028639651834964752, 0.006035283207893372, 0.04168340563774109, -0.060850758105516434, -0.06369974464178085, -0.05902884528040886, -0.02733173966407776, 0.028621070086956024, 0.04531703144311905, 0.047036632895469666, 0.0417255163192749, -0.0069144368171691895, -0.009144425392150879, 0.055572204291820526, -0.03194938972592354, 0.01860535889863968, 0.011802978813648224, -0.03292468935251236, -0.018051162362098694, -0.038451336324214935, 0.05824514478445053, 0.05402373522520065, 0.06357543915510178, 0.02573201060295105, -0.027737785130739212, 0.018483862280845642, -0.06367084383964539, 0.05200149118900299, 0.01634531468153, 0.05604230612516403, 0.042244188487529755, 0.051277950406074524, -0.011591818183660507, -0.004237934947013855, 0.005874261260032654, -0.03276565298438072, 0.034203819930553436, -0.05101291835308075, 0.03900641202926636, -0.06305413693189621, 0.03278379887342453, 0.058466486632823944, -0.03248465433716774, -0.03764382749795914, -0.06009963899850845, 0.005603790283203125, 0.01685667783021927, 0.04798334836959839, 0.010784640908241272, -0.05971276015043259, -0.06602772325277328, -0.06053915619850159, -0.05707470700144768, -0.041516125202178955, -0.06830045580863953, -0.05195560306310654, -0.03201449289917946, 0.0027362778782844543, 0.04608600586652756, 0.013565674424171448, 0.0156291201710701, -0.05403891205787659, 0.03302279859781265, 0.013533852994441986, -0.052120085805654526, -0.028447076678276062, -0.062015220522880554, -0.040167517960071564, 0.028746649622917175, 0.009454689919948578, -0.06602054089307785, 0.05012308061122894, -0.020789753645658493, 0.02040984481573105, 0.05904305726289749, -0.03793995454907417, 0.03980980068445206, -0.015152834355831146, 0.025937937200069427, 0.0525754913687706, -0.024016663432121277, -0.03168496489524841, -0.05548694729804993, -0.029992319643497467, -0.013170033693313599, -0.045955561101436615, -0.0028894394636154175, 0.00027683377265930176, 0.060805417597293854, -0.06402169167995453, 0.0020843446254730225, -0.04664058983325958, 0.0408715158700943, 0.014153912663459778, -0.02529098466038704, -0.021197617053985596, 0.056189991533756256, -0.0008393451571464539, 0.008528009057044983, 0.037648171186447144, 0.06507805734872818, -0.015500068664550781, 0.015120379626750946, -0.04297367110848427, -0.0593404620885849, 0.012668326497077942, 0.003202088177204132, 0.034253306686878204, -0.03996805474162102, 0.044195786118507385, 0.02505394071340561, -0.025252364575862885, 0.02041275054216385, 0.016129247844219208, 0.0224946066737175, -0.004741296172142029, 0.0034427866339683533, 0.011303842067718506, 0.00752720981836319, 0.06025446206331253, 0.007357656955718994, -0.02947232499718666, -0.04117422550916672, -0.015125777572393417, -0.029906827956438065, 0.058374397456645966, -0.0444820299744606, -0.0325675904750824, -0.0677996277809143, 0.012891799211502075, -0.005561791360378265, 0.016212277114391327, -0.05181353539228439}, {-4.8540239334106445, -2.752492666244507, -2.6621313095092773, -2.5935347080230713, -2.5945980548858643, -1.430243730545044, -1.8592392206192017, -2.1430060863494873, -2.0832314491271973, -1.3433122634887695, -2.0268850326538086, -1.8048768043518066, -4.270781993865967, -5.965672969818115, -5.884754180908203, -7.264021396636963, -7.717219352722168, -7.639581680297852, -7.252468585968018, -7.3719868659973145, -7.435397624969482, -6.155087947845459, -4.571828365325928, -3.2558321952819824, -3.3663454055786133, -2.145395517349243, -1.8125298023223877, -0.5780909657478333, -0.6859495639801025, -0.49598991870880127, 1.0160565376281738, 0.8564199805259705, -1.5059497356414795, -1.3687684535980225, -1.8236322402954102, -2.599249839782715, -3.07609224319458, -3.3987390995025635, -2.0590178966522217, -1.3684577941894531, -1.3292535543441772, -1.7267736196517944, -3.7273683547973633, -3.020059585571289, -1.3233811855316162, 1.193429708480835, 1.5937820672988892, 1.8947685956954956, 0.9250768423080444, 0.3104485869407654, 0.17773054540157318, -0.8199245929718018, -0.910667359828949, -1.1799025535583496, -1.3025864362716675, -1.088073968887329, -0.6847883462905884, -0.7479140162467957, -1.302512526512146, -0.5572681427001953, -1.4488987922668457, -1.7942123413085938, -2.8950891494750977, -2.2961912155151367, -1.7593636512756348, -0.7675267457962036, -0.9369128346443176, -0.44392508268356323, -0.6906010508537292, 0.1908900886774063, -0.19240336120128632, -1.5616647005081177, 1.0031217336654663, -0.08160082250833511, 0.37076035141944885, 0.8227852582931519, 0.38050445914268494, -0.6845698356628418, -0.7008245587348938, -0.27598363161087036, 0.2170598804950714, -0.3392534852027893, -0.6858981251716614, -2.5110301971435547, -4.724176406860352, -3.3562846183776855, -0.9593738317489624, 0.25367942452430725, 1.7506901025772095, 1.6004143953323364, 1.0391892194747925, 1.5192159414291382, 1.8368401527404785, 2.221327304840088, 0.7542466521263123, 0.3796166479587555, -2.572359561920166, -4.603365421295166, -5.868968963623047, -7.634848117828369, -9.04018497467041, -11.88565731048584, -13.468876838684082, -12.093286514282227, -9.666160583496094, -7.593033313751221, -3.7068042755126953, -1.1717838048934937, 0.07877747714519501, 1.6088135242462158, 3.7350289821624756, 3.4539613723754883, 3.4565396308898926, 1.930963397026062, 5.24265193939209, 4.877171516418457, 4.898687362670898, 1.8334484100341797, -0.45370927453041077, -1.6423165798187256, -1.6068522930145264, -2.0020956993103027, -1.09026038646698, -0.6293337345123291, -3.085054636001587, -6.840638637542725, 2.9952077865600586, 1.194793939590454, 0.935696005821228, 1.3095675706863403, 1.9214097261428833, 1.9363505840301514, 1.2198642492294312, 2.146758556365967, 0.8693255186080933, 0.443435937166214, 0.7325353622436523, 2.3491790294647217, 3.1803064346313477, 3.6487293243408203, 1.3757035732269287, 2.700382709503174, 5.157801628112793, 5.683876991271973, 6.979217052459717, 6.621039390563965, 6.206645488739014, 6.123928546905518, 4.4084086418151855, 2.7700088024139404, 1.3357329368591309, -1.9569847583770752, -2.9643657207489014, -4.899081707000732, -6.4690399169921875, -5.945755481719971, -8.060300827026367, -7.538298606872559, -3.3350772857666016, -1.3728227615356445, -0.2539152503013611, -0.20256401598453522, 0.3311121165752411, -0.08224625885486603, -0.36128559708595276, -2.0612661838531494, -4.183113098144531, -3.3838672637939453, -0.6917702555656433, 0.12971442937850952, 0.5938214659690857, 1.1449358463287354, 1.8316007852554321, 1.0379835367202759, 0.1528744101524353, -0.13020576536655426, -0.9407901167869568, -1.850965142250061, -1.6813340187072754, -1.6293967962265015, -0.904802143573761, -0.3988233804702759, -0.8420944809913635, -0.3150480091571808, 0.6847705841064453, 0.3118433952331543, 0.5840938091278076, 0.9789188504219055, 0.3257310390472412, -0.238852858543396, 0.42337074875831604, 1.1359866857528687, 1.8898041248321533, 2.455282211303711, 1.2891227006912231, 2.4681365489959717, 0.9547616839408875, -0.13082469999790192, 0.14873576164245605, -0.48299169540405273, 0.008629100397229195, 0.6251165270805359, -0.13340260088443756, -0.38423508405685425, -0.6298947334289551, -0.8233791589736938, 0.12271235138177872, 0.8760699033737183, 0.6703134775161743, -0.7896560430526733}, {-5.2946858406066895, -6.493117332458496, -5.402839183807373, -5.048216819763184, -5.955276966094971, -7.235705375671387, -6.951431751251221, -6.843521595001221, -6.5047993659973145, -5.994029521942139, -5.465642929077148, -7.103981018066406, -7.39434814453125, -8.09044361114502, -8.758535385131836, -8.95922565460205, -7.705578804016113, -7.4729838371276855, -7.143130302429199, -4.951127529144287, -4.951706409454346, -5.823954105377197, -6.750320911407471, -5.995913028717041, -5.709861755371094, -5.978504180908203, -6.938864231109619, -6.532917499542236, -5.981722354888916, -6.735176086425781, -4.480941295623779, -5.110599040985107, -4.595650672912598, -3.3727681636810303, -3.1788856983184814, -5.003917694091797, -5.625502109527588, -5.8417768478393555, -4.75270938873291, -4.030851364135742, -3.1328132152557373, -4.074819087982178, -3.4851038455963135, -3.4731056690216064, -3.2402381896972656, -3.44624662399292, -3.2345268726348877, -2.7831647396087646, -1.8095924854278564, -0.6756777167320251, -0.8571984767913818, -0.8569372892379761, -0.7484656572341919, 0.5354931950569153, 0.20202820003032684, -0.14050565659999847, 0.3842690587043762, -0.686285138130188, -1.0623782873153687, -1.9568402767181396, -1.5846298933029175, -1.8232942819595337, -2.8128676414489746, -4.675590991973877, -5.039490222930908, -4.137176990509033, -2.5821917057037354, -0.8840668201446533, -1.0873322486877441, -0.7336777448654175, 0.9709749221801758, 0.4004053473472595, 0.9593520164489746, 0.1188773438334465, -0.14874319732189178, -0.443238228559494, 0.24766069650650024, 0.1302046924829483, -0.6628947854042053, -0.6086143851280212, -1.8332515954971313, -3.715794324874878, -4.806323051452637, -4.599524021148682, 0.7932254672050476, 1.6287403106689453, 2.3727262020111084, 3.8210341930389404, 3.441901683807373, 2.7330985069274902, 2.449695587158203, 2.185391664505005, 1.8013540506362915, 1.3991738557815552, 0.6904469728469849, -1.2992814779281616, -1.2505143880844116, 0.04221642017364502, 2.307406425476074, 3.9901206493377686, 5.275541305541992, 6.129288196563721, 5.781955718994141, 5.314505577087402, 3.610527992248535, 3.6299149990081787, 2.3718080520629883, 2.939069986343384, 0.9253082871437073, 0.5585753917694092, -0.7387688755989075, -0.6640759110450745, 0.8655003309249878, 0.5879628658294678, -3.0611255168914795, -2.0377144813537598, 0.6989612579345703, 2.7536067962646484, 3.4629342555999756, 0.9279272556304932, -0.3742433488368988, 0.7796263694763184, 2.252586841583252, 2.4264535903930664, 1.861467719078064, 2.0251266956329346, -1.0469413995742798, -1.7045584917068481, -2.217332601547241, -0.8176789283752441, 1.4825711250305176, 1.5749166011810303, -0.1968359649181366, -0.8662583231925964, -1.7020126581192017, -2.7441909313201904, -3.6508936882019043, -2.268012046813965, -1.7906616926193237, 0.4398583173751831, 1.8348429203033447, 1.6130573749542236, 0.7569347023963928, 1.0129934549331665, -0.19839438796043396, -2.532846212387085, -2.038815975189209, -0.6217281818389893, -0.0994039922952652, -1.3490406274795532, -1.1174932718276978, -0.6709854006767273, -1.0157263278961182, -0.013414759188890457, 0.08971140533685684, -0.14846335351467133, 1.676807165145874, 0.5079478621482849, 0.25452470779418945, -1.4733164310455322, -1.7126561403274536, 0.0330149382352829, 0.9816466569900513, 0.8862742185592651, 0.9111747741699219, 1.536679744720459, 2.9686052799224854, 3.918531656265259, 0.5757299065589905, -0.7401083707809448, -1.0586817264556885, -0.2661416828632355, 0.5351006388664246, 0.7580739259719849, 1.642195224761963, 2.2317159175872803, 3.032824993133545, 2.274097442626953, 1.885609745979309, 1.635181188583374, 0.5745408535003662, 1.6387991905212402, 2.3293745517730713, 2.365400552749634, 1.8960860967636108, -0.2659023702144623, -1.088339924812317, -1.0487842559814453, -1.0657256841659546, -0.9182316064834595, 0.03820962458848953, 1.150964617729187, 2.8611886501312256, 2.6204402446746826, 1.643139123916626, 1.4860289096832275, 3.5190861225128174, 3.0137884616851807, 2.6597554683685303, 0.4928106963634491, 0.0833299309015274, 1.107269048690796, 1.8362590074539185, 2.6930181980133057, 2.475295066833496, 1.3821141719818115, -0.23254886269569397, -0.34516313672065735, -1.6450166702270508, -0.9093431234359741}, {-2.576234817504883, -3.405892848968506, -2.3774571418762207, -1.5629185438156128, -2.6369426250457764, -2.706437826156616, -2.1046764850616455, -1.7739238739013672, -1.204806923866272, -0.5876948237419128, -1.0231059789657593, -0.0563051700592041, -1.4100828170776367, -3.0572617053985596, -2.036726236343384, -3.132965326309204, -3.857387065887451, -3.5001280307769775, -2.3020293712615967, -2.287914514541626, -1.6205893754959106, -1.476034164428711, -2.1863436698913574, -2.2493484020233154, -3.681443214416504, -3.5058326721191406, -4.314379692077637, -3.446815252304077, -2.5575520992279053, -2.472930669784546, -1.339111089706421, -3.658303737640381, -4.202122688293457, -1.7757614850997925, -2.227438449859619, -1.7778618335723877, -0.22300559282302856, -0.5157446265220642, 1.1257895231246948, 0.07125895470380783, -0.7621521353721619, -1.1897135972976685, -1.1823334693908691, -2.440713405609131, -2.731989622116089, -1.9797449111938477, -1.7561466693878174, -1.6355148553848267, -1.5089730024337769, -1.675872564315796, -2.7154998779296875, -3.1834120750427246, -2.3949029445648193, -1.3510076999664307, -0.5507438778877258, 0.23241563141345978, -0.6207495927810669, -1.78974187374115, -2.0371131896972656, -1.4875454902648926, -0.40857547521591187, -1.4983835220336914, -2.307936668395996, -4.571410655975342, -5.709221363067627, -4.691020488739014, -3.6751151084899902, -2.432952642440796, -1.3660577535629272, -1.2821245193481445, -2.071600914001465, -4.098165035247803, -3.1326096057891846, -3.333052635192871, -2.4392149448394775, -1.906349539756775, -1.6686593294143677, -1.8151520490646362, -2.1141257286071777, -1.8068418502807617, -1.8944796323776245, -1.6107722520828247, -1.044413447380066, -0.9978313446044922, -2.27559232711792, -1.0399783849716187, -0.6329567432403564, -1.7720571756362915, -3.044544219970703, -3.7849466800689697, -3.361069440841675, -3.090071439743042, -3.3844738006591797, -3.2927446365356445, -4.470592975616455, -4.538581371307373, -5.553016662597656, -5.103546142578125, -4.630101680755615, -3.267979860305786, -3.366621732711792, -2.0638673305511475, -1.5674525499343872, -1.7170345783233643, -1.8592430353164673, -1.4819151163101196, -2.7944157123565674, -2.901958465576172, -3.6134462356567383, -3.3567097187042236, -3.8825149536132812, -4.304473876953125, -5.368660926818848, -7.727020740509033, -5.794065952301025, -5.536646842956543, -3.6134541034698486, -2.178457260131836, -0.08084125816822052, 0.2850129008293152, -0.21868537366390228, 0.006436855997890234, 0.9275531768798828, 1.0883173942565918, 0.16050294041633606, -1.7140599489212036, 1.0282355546951294, 0.4781704246997833, 0.1973995417356491, -0.2396918535232544, 2.093200922012329, 1.6364665031433105, 0.21919870376586914, 0.7110732793807983, 0.5317376852035522, 2.1155405044555664, 2.456850528717041, 2.3180296421051025, 1.9349254369735718, 2.189934492111206, 1.0828696489334106, 2.7201530933380127, 3.122835636138916, 1.9774945974349976, 1.389506220817566, 0.4951082170009613, 0.6845040321350098, 1.325722098350525, 1.8894292116165161, 0.6685600876808167, 2.096374273300171, 2.2162466049194336, 3.720276117324829, 5.5009565353393555, 4.5787506103515625, 4.917872905731201, 4.373119354248047, 4.059695243835449, 4.351207256317139, 1.6821980476379395, 0.9020841121673584, 0.19097267091274261, 0.24200740456581116, 1.5940083265304565, 0.8826533555984497, 1.0794776678085327, 1.503990650177002, 4.753701210021973, -0.08818529546260834, -0.3348117470741272, -0.050441958010196686, 0.6643867492675781, 0.6643527150154114, 0.3067054748535156, 0.3966580331325531, -0.08185584098100662, -0.7012156844139099, -0.4024305045604706, -0.10561704635620117, -0.43489551544189453, -0.4914375841617584, 0.020644158124923706, -0.9062742590904236, -1.1111881732940674, -0.6974398493766785, -0.2849176824092865, -0.2996698021888733, -0.37703943252563477, -0.5018993020057678, -0.799481213092804, -0.9352056384086609, -0.8379346132278442, 0.5611838102340698, 1.2172030210494995, -0.040556009858846664, 1.5037633180618286, 1.745084524154663, 0.5706435441970825, 0.7914255857467651, 0.1928270161151886, 0.4338776469230652, 0.8868443965911865, 0.2514212727546692, 0.6472102999687195, 0.35678261518478394, -0.22773118317127228, -0.49694570899009705, -0.4688878655433655, -0.3221171200275421, -0.09268547594547272}, {-0.01320825144648552, -0.010966245085000992, -0.021828584372997284, 0.00748000293970108, 0.004800558090209961, -0.02093733847141266, -0.024713654071092606, -0.002111569046974182, -0.0403849333524704, 0.02325967699289322, -0.06488840281963348, -0.06534980237483978, -0.024911105632781982, -0.03513350337743759, -0.05513466149568558, 0.05357253551483154, 0.04641004651784897, 0.015615992248058319, -0.03738441318273544, 0.0565103217959404, 0.06716344505548477, -0.06637229025363922, 0.037897638976573944, 0.0024031102657318115, -0.03229692950844765, 0.03655874729156494, -0.03464201092720032, 0.016886882483959198, -0.028234228491783142, 0.03815753012895584, 0.04023067653179169, 0.009126760065555573, 0.04138507694005966, -0.05545172095298767, -0.03265448287129402, -0.0294036865234375, 0.035062290728092194, -0.007920175790786743, 0.034535206854343414, -0.061361655592918396, 0.03581799566745758, -0.004138298332691193, -0.008277274668216705, 0.046559132635593414, -0.039897769689559937, 0.006687745451927185, -0.06292573362588882, -0.06477271020412445, -0.051903605461120605, -0.06603843718767166, 0.0029601305723190308, -0.042727138847112656, -0.049868710339069366, 0.014348335564136505, -0.036639273166656494, -0.06845858693122864, 0.029142461717128754, -0.06162885203957558, -0.055698804557323456, -0.020908746868371964, 0.06432271748781204, 0.04727112501859665, -0.06199636682868004, -0.03366958349943161, 0.041211262345314026, 0.05839210003614426, 0.03343126177787781, 0.008362337946891785, 0.04853592813014984, -0.0155445896089077, 0.047999486327171326, 0.027532704174518585, 0.05304470658302307, -0.04012603312730789, 0.021812476217746735, -0.0070519037544727325, 0.023394234478473663, -0.001207686960697174, 0.0010751709342002869, -0.028386659920215607, -0.0494026355445385, -0.03724094107747078, -0.028042837977409363, 0.04741678386926651, 0.06151800602674484, 0.014064937829971313, -0.0303603857755661, -0.02680634707212448, -0.05620308220386505, -0.011701580137014389, -0.012090779840946198, 0.05873759835958481, -0.02123875543475151, 0.06295991688966751, -0.06824944913387299, -0.029482312500476837, 0.010504230856895447, 0.014013208448886871, -0.038964562118053436, 0.021847084164619446, 0.01375490427017212, -0.05493862181901932, 0.024491392076015472, -0.0647987499833107, -0.017391741275787354, 0.0047171711921691895, -0.04552127420902252, 0.02335815131664276, -0.0486006960272789, -0.011081147938966751, -0.016443584114313126, 0.021923892199993134, -0.02723037451505661, -0.014558520168066025, 0.06085241585969925, -0.04356078431010246, 0.06409285217523575, -0.04200514033436775, 0.010836184024810791, 0.04273010790348053, -0.03987133130431175, 0.054784953594207764, -0.023105211555957794, 0.036957189440727234, 0.042946331202983856, 0.017956875264644623, 0.05157506465911865, -0.003152206540107727, -0.06772340089082718, 0.020529016852378845, 0.06009260565042496, -0.05570973828434944, 0.03841955214738846, -0.051565252244472504, -0.047719649970531464, -0.03470901399850845, -0.051697563380002975, -0.04540121182799339, -0.061460986733436584, 0.05410958081483841, -0.050660885870456696, -0.00591452419757843, 0.06031223386526108, 0.006778232753276825, 0.0373372957110405, 0.035657770931720734, 0.03873454034328461, 0.06029724329710007, 0.05470894277095795, -0.06888478994369507, 0.041817933320999146, -0.04478328302502632, 0.03471499681472778, 0.05542057752609253, 0.04712565243244171, -0.05270726606249809, 0.02765004336833954, 0.05696434527635574, 0.030231744050979614, -0.0011447593569755554, -0.017506740987300873, -0.05767937749624252, -0.05118150636553764, 0.019099876284599304, -0.027844592928886414, -0.04012376070022583, 0.012294895946979523, 0.02707381546497345, 0.05331692099571228, 0.042977385222911835, -0.021593883633613586, 0.002597399055957794, -0.007119022309780121, 0.02618059515953064, 0.05266289412975311, -0.021456070244312286, -0.0070863887667655945, 0.04302243888378143, 0.05558345466852188, -0.052960675209760666, 0.05637068301439285, 0.033859528601169586, -0.037896037101745605, -0.009674645960330963, 0.048283956944942474, 0.04208538681268692, -0.049377135932445526, -0.05012887716293335, 0.04959694296121597, 0.03602465242147446, 0.059198327362537384, -0.019553180783987045, -0.03843191638588905, 0.02407880872488022, 0.04883911460638046, -0.0020948797464370728, 0.0612245574593544, -0.030516009777784348, -0.061228685081005096, 0.04213758558034897, -0.0015722289681434631, -0.050828300416469574, 0.0011109858751296997, 0.05158484727144241, 0.021387577056884766, -0.005428828299045563, 0.0018981099128723145, 0.015248827636241913, 0.0604611411690712, -0.027101896703243256}, {3.22406005859375, 3.088167667388916, 2.340493679046631, 1.920459270477295, 0.6492387056350708, 1.162630558013916, 2.317274332046509, 2.98850417137146, 3.6328980922698975, 3.933072566986084, 4.540844440460205, 4.1010260581970215, 1.8304411172866821, 0.01960419863462448, 0.38261720538139343, -1.0435001850128174, -1.8757168054580688, -3.0316481590270996, -3.1849076747894287, -2.872844934463501, -3.53098201751709, -2.958998680114746, -2.097337484359741, -1.8909696340560913, -2.9463765621185303, -3.2606987953186035, -5.532134532928467, -4.766325950622559, -3.293916702270508, -2.480895519256592, -1.8171379566192627, -3.7038638591766357, -3.287285327911377, -1.3057756423950195, -1.4675381183624268, -1.733299732208252, -1.7723162174224854, -2.7909061908721924, -1.9787449836730957, -1.8382378816604614, -1.759494662284851, -1.8649324178695679, -5.974517345428467, -4.905172348022461, -2.9872918128967285, -0.05174550786614418, 0.05960169807076454, 0.21151764690876007, -0.45880556106567383, -0.5938317775726318, -0.7820615768432617, -0.17862549424171448, 0.9761834740638733, 1.527539849281311, 2.1318631172180176, 3.1519761085510254, 3.0249738693237305, 2.1073873043060303, 0.39113011956214905, -0.884440541267395, -2.8117198944091797, -5.391567230224609, -6.449583530426025, -8.546035766601562, -8.736614227294922, -6.553099155426025, -4.257328033447266, -1.2346253395080566, 0.756323516368866, 1.7964823246002197, 0.9401167035102844, 0.3042446970939636, 2.2526841163635254, 1.8756904602050781, 2.4100890159606934, 2.126667022705078, 1.1555205583572388, 0.026629626750946045, -1.1628572940826416, -1.5208834409713745, -2.335465431213379, -3.4489381313323975, -3.3073716163635254, -3.7389349937438965, 2.7037370204925537, 4.132760524749756, 3.5351812839508057, 2.4099080562591553, 0.8847800493240356, 0.09593040496110916, -1.0256978273391724, -1.4229947328567505, -1.1011903285980225, 0.06983204931020737, 0.48337632417678833, 1.7653974294662476, 2.398543357849121, 3.3554797172546387, 3.9835147857666016, 3.9240427017211914, 1.8761823177337646, -0.2909211218357086, -2.5584030151367188, -3.6100497245788574, -4.957348346710205, -6.202999114990234, -7.322474956512451, -4.102949142456055, -3.6005403995513916, -1.8219218254089355, -0.2911272346973419, 0.5519566535949707, 2.153233051300049, 1.8314265012741089, 2.709798812866211, 3.0645041465759277, 3.8078932762145996, 2.9080042839050293, 1.6780613660812378, 1.1066468954086304, 0.13945044577121735, -1.0005450248718262, -1.5186249017715454, -0.8699281215667725, 0.2177286297082901, 0.1243339404463768, -9.12002944946289, -8.468963623046875, -7.791764259338379, -5.546008586883545, -4.472911357879639, -3.6413986682891846, -5.630390644073486, -3.651071548461914, -3.394927501678467, -3.5066678524017334, -4.4758524894714355, -3.238650321960449, -3.4969968795776367, -2.5112361907958984, -3.3021857738494873, -1.21920907497406, 2.1071088314056396, 3.5971693992614746, 5.149717807769775, 3.6959688663482666, 6.1780548095703125, 7.4349446296691895, 7.793849468231201, 7.050266265869141, 5.512088775634766, 4.346588611602783, 3.1855244636535645, 3.779433488845825, 2.6618776321411133, 2.1692867279052734, 2.326375961303711, 3.3952364921569824, 3.0647029876708984, 0.20054228603839874, -0.7080734372138977, -1.3310558795928955, 0.8497827649116516, 2.2162911891937256, -0.025058701634407043, -1.1179865598678589, -2.740807294845581, -1.0291203260421753, -0.5771484971046448, 0.3812757432460785, -0.09051569551229477, 0.8724854588508606, 1.5428204536437988, 0.8069612979888916, 0.26702913641929626, 0.5429444909095764, -0.02982875145971775, -0.9220930933952332, -0.19365504384040833, -0.49452558159828186, -1.0628947019577026, -0.27333399653434753, -1.4548099040985107, -1.4450771808624268, -1.0353120565414429, -2.1194028854370117, -2.64115309715271, -1.5871742963790894, -1.2994651794433594, -2.1091089248657227, -1.607224702835083, -0.9356404542922974, 0.4005263149738312, 1.6321234703063965, -0.8727585077285767, 1.0624269247055054, 0.8964818120002747, 0.8221314549446106, 1.5062061548233032, 2.224074363708496, 2.37424373626709, 2.093606472015381, 1.389883279800415, 1.1165571212768555, 1.039683222770691, 0.5492870211601257, -0.17581701278686523, 0.2732903063297272, 0.13543473184108734, -0.5026482343673706}, {-7.488846302032471, -8.094622611999512, -6.957946300506592, -6.66618537902832, -6.46690034866333, -4.693424701690674, -3.365276575088501, -3.5542120933532715, -2.8842504024505615, -2.3084359169006348, -2.0944061279296875, -0.629734456539154, -1.1049261093139648, -1.2846025228500366, -0.7442888617515564, -2.0364832878112793, -3.3639628887176514, -3.7237565517425537, -4.2209153175354, -5.061735153198242, -6.718190670013428, -6.249059677124023, -5.3126349449157715, -4.642929553985596, -5.3286943435668945, -5.655193328857422, -5.954954147338867, -5.945590496063232, -5.355781078338623, -3.6834943294525146, -3.2729685306549072, -1.0363795757293701, -1.0180063247680664, 0.0928061306476593, 1.4783343076705933, -0.2673262059688568, -0.7903714179992676, -2.5824341773986816, -4.962092399597168, -5.972639560699463, -6.919146537780762, -6.22437047958374, 0.13237401843070984, -0.6005263328552246, -1.9482189416885376, -2.331674098968506, -1.5509276390075684, -0.7788593769073486, -0.7269589900970459, -0.39676809310913086, -0.6313248872756958, -0.13151295483112335, 0.22468802332878113, 0.3575989305973053, 0.1341533362865448, 0.23976926505565643, -1.9636938571929932, -2.6098835468292236, -2.6231133937835693, -1.7107232809066772, -1.5849696397781372, -2.1924946308135986, -3.5725297927856445, -3.8072898387908936, -3.3064558506011963, -1.8049829006195068, -2.459022283554077, -2.830343008041382, -3.3831982612609863, -1.5951018333435059, -1.0845566987991333, -2.4140427112579346, 2.3215384483337402, 1.8900198936462402, 1.713367223739624, -0.028639905154705048, -1.4168998003005981, -3.228982448577881, -4.021664619445801, -4.061967372894287, -1.308143973350525, 0.593774139881134, 2.4006056785583496, 2.690345525741577, -7.322385311126709, -6.256763458251953, -6.558740615844727, -8.056334495544434, -5.968811988830566, -1.8630555868148804, -0.14520758390426636, -0.33635711669921875, -0.03515683859586716, 1.2681399583816528, 1.2197414636611938, 2.204225778579712, 1.207136631011963, 0.10436271876096725, -1.8911601305007935, -3.941643238067627, -4.80946159362793, -7.217170715332031, -9.426977157592773, -11.892219543457031, -12.344883918762207, -11.064523696899414, -9.022271156311035, -8.21307373046875, -8.761924743652344, -8.981612205505371, -8.53602123260498, -6.29560661315918, -3.4828808307647705, -2.3636629581451416, 4.133577346801758, 2.3843021392822266, 2.89776611328125, 1.4791399240493774, -0.18823429942131042, -1.5467568635940552, -1.8299033641815186, -1.6183230876922607, 0.32264381647109985, 0.9864711165428162, -2.227038621902466, -5.165328502655029, 2.891569137573242, 2.4622416496276855, 0.8114056587219238, 1.1901017427444458, 1.0616122484207153, -0.3217475712299347, -1.5698844194412231, -1.5830086469650269, -1.3990962505340576, -0.8067723512649536, -1.994668960571289, -1.8507713079452515, -1.6923972368240356, -2.3727364540100098, -4.139871597290039, -4.112375736236572, -1.667978048324585, -0.1004459336400032, 0.2685182988643646, 0.3237645924091339, 0.33681532740592957, 0.3138761818408966, 0.3833775818347931, 1.0841310024261475, 1.7808618545532227, 1.6503605842590332, 1.1152710914611816, 3.0683157444000244, 2.340613842010498, 0.4663947820663452, 0.124979667365551, -3.2126617431640625, -3.0515851974487305, -4.258218288421631, -3.038377046585083, -1.1806811094284058, 1.4507060050964355, 1.4490933418273926, 2.3629167079925537, 1.2296534776687622, 1.6809788942337036, 2.406183958053589, -0.2001935988664627, -0.3086317181587219, -1.276643991470337, -1.499465823173523, -0.7129989862442017, -0.041290827095508575, 0.5789011716842651, 0.1252555251121521, -0.21169787645339966, -0.19184653460979462, 0.17359963059425354, 0.5632109642028809, 0.1803571730852127, 0.44904646277427673, -2.05820894241333, -2.8130385875701904, -1.9047735929489136, -1.2684884071350098, -1.1846487522125244, -0.567277193069458, -0.9019048810005188, -0.2998489439487457, -0.19194285571575165, 0.02509569376707077, -0.6300702095031738, -1.185778260231018, -1.4619967937469482, 0.27998918294906616, 0.3810155391693115, 0.6068452596664429, 2.2328951358795166, 2.1496498584747314, 1.4719258546829224, 0.7154482007026672, -0.6195653676986694, -0.43118804693222046, 0.2562873065471649, -0.0013617371441796422, 1.2741167545318604, 1.780063271522522, 0.4947352409362793, -0.7378019094467163}, {0.017451731488108635, 0.02941565401852131, 0.029187951236963272, -0.04505084082484245, -0.02401510439813137, -0.03638990595936775, -0.08636253327131271, 0.011383149772882462, -0.028479373082518578, 0.08371058106422424, 0.09951607137918472, 0.11514114588499069, 0.12192302197217941, -0.007048327941447496, 0.07203152030706406, 0.0963706448674202, 0.02884749323129654, 0.07502108067274094, -0.005973405204713345, 0.048357199877500534, 0.1026565432548523, -0.001542559009976685, 0.011483431793749332, 0.05490062013268471, -0.0012506560888141394, 0.11122902482748032, 0.04553672671318054, 0.03454955294728279, 0.06371045857667923, 0.09959639608860016, 0.12074363231658936, 0.09926728904247284, 0.058696068823337555, 0.06735586374998093, 0.055690210312604904, 0.11438543349504471, 0.026087498292326927, -0.05101406201720238, -0.10288272053003311, 0.09799489378929138, 0.058926861733198166, 0.02364429272711277, -0.011153115890920162, -0.06011783331632614, -0.048870187252759933, 0.05973898991942406, 0.028279516845941544, 0.003969250712543726, 0.1053638905286789, 0.04874497652053833, 0.07313784956932068, 0.014100680127739906, 0.011138055473566055, 0.04456358402967453, 0.025679925456643105, -0.004716841038316488, -0.0030763400718569756, -0.0018412487115710974, -0.06652038544416428, -0.04168079420924187, -0.05880935862660408, -0.07861575484275818, -0.00966180581599474, -0.030144385993480682, -0.04851984977722168, -0.04894275963306427, -0.07070981711149216, -0.09220436215400696, -0.01501675508916378, -0.05987027660012245, 0.013143590651452541, 0.06769438832998276, 0.09500416368246078, 0.05124268680810928, 0.03303030878305435, 0.11990481615066528, 0.04519824683666229, 0.0982823297381401, 0.10286933183670044, 0.07325124740600586, -0.01609199121594429, -0.020195700228214264, -0.020427575334906578, -0.035839397460222244, -0.07583227753639221, -0.019215434789657593, -0.06093614175915718, -0.06492659449577332, 0.04128167778253555, 0.12299168109893799, 0.11503098160028458, 0.03663437440991402, 0.0141192227602005, 0.08274202048778534, 0.011961004696786404, -4.8098747356561944e-05, 0.08673209697008133, -0.01405114121735096, -2.6486421120353043e-05, -0.09736859053373337, -0.025468282401561737, -0.015297888778150082, -0.11508530378341675, -0.0306144617497921, -0.025867849588394165, -0.027741214260458946, -0.1101633831858635, -0.09241309762001038, -0.05860147625207901, -0.01752813719213009, -0.04678643122315407, -0.02397647500038147, -0.06380325555801392, -0.009839754551649094, 0.11010818183422089, 0.08397674560546875, 0.017712632194161415, 0.10868922621011734, 0.000949132489040494, 0.047027211636304855, -0.08438468724489212, -0.11797212809324265, -0.07234453409910202, -0.09609875828027725, -0.028387364000082016, 1.15854209070676e-05, -0.06143882870674133, -0.03275347873568535, -0.09429097175598145, 0.09539526700973511, 0.12676101922988892, -0.004287314601242542, 0.11526161432266235, 0.11836803704500198, 0.004720866214483976, 0.08161267638206482, -0.05662951618432999, -0.009362935088574886, -0.05109850689768791, -0.042514901608228683, -0.025050150230526924, -0.11908965557813644, -0.06818161904811859, -0.03105386532843113, -0.11577711254358292, -0.03848370537161827, -0.10837230831384659, -0.0010761423036456108, -0.016605665907263756, -0.07849914580583572, -0.012090257368981838, -0.12132033705711365, -0.01070069894194603, -0.09542648494243622, -0.06605270504951477, -0.04102272540330887, -0.049364425241947174, -0.03417326137423515, -0.12598547339439392, -0.11963623762130737, -0.11128896474838257, -0.025571824982762337, -0.12070588022470474, -0.01948791928589344, 0.12383605539798737, -0.014160789549350739, -0.10081254690885544, -0.10681601613759995, 0.12732526659965515, 0.00855359248816967, 0.10152577608823776, 0.060365065932273865, -0.006616225931793451, 0.007766732480376959, 0.013277706690132618, 0.00170819740742445, 0.08102109283208847, 0.06499133259057999, 0.015935009345412254, 0.0741666704416275, 0.034850507974624634, 0.028867222368717194, 0.04097575694322586, 0.04403874650597572, 0.11093518882989883, 0.09368176758289337, 0.047686945647001266, -0.006529819220304489, 0.09718593955039978, 0.0996260717511177, 0.10271238535642624, 0.038241442292928696, 0.03706314042210579, 0.10432816296815872, -0.004513634368777275, 0.033927276730537415, 0.08690483868122101, 0.041676297783851624, 0.005194142460823059, -0.0006774095818400383, 0.06603826582431793, 0.109792560338974, 0.07319553941488266, -0.0002353778254473582, 0.07109646499156952, 0.04023969918489456, 0.10096791386604309, 0.07773494720458984, 0.11475562304258347, 0.02794799394905567}, {-0.04467815160751343, 0.019389517605304718, 0.015743687748908997, 0.017437487840652466, -0.0015257149934768677, 0.03919258713722229, 0.06493034213781357, -0.009777728468179703, -0.024799972772598267, -0.013206105679273605, -0.010914478451013565, -0.05830705910921097, -0.009559866040945053, 0.06097846478223801, 0.05298224836587906, 0.0415511280298233, 0.000660233199596405, -0.028006430715322495, 0.013370931148529053, 0.02088574320077896, 0.025939524173736572, 0.016943469643592834, -0.06850101798772812, -0.06324038654565811, 0.06842920929193497, 0.03149542212486267, 0.05148585885763168, -0.041109707206487656, 0.05969367176294327, -0.015010032802820206, 0.024489782750606537, -0.05757792294025421, -0.050938595086336136, 0.06401773542165756, -0.009619522839784622, -0.06544755399227142, -0.03652883693575859, 0.03191261738538742, 0.04535885900259018, 0.053370401263237, -0.03944852948188782, -0.050623975694179535, 0.006582170724868774, -0.05168075114488602, -0.030174456536769867, -0.06005174294114113, 0.028446882963180542, -0.05093555897474289, 0.0010031461715698242, 0.04549361765384674, 0.0658978745341301, 0.029624253511428833, -0.029399044811725616, -0.03230384737253189, -0.02524706721305847, -0.0027611330151557922, -0.03648391366004944, -0.026285849511623383, -0.05743911862373352, 0.02089659869670868, -0.057368047535419464, -0.06635003536939621, -0.015596408396959305, -0.0625140443444252, 0.025120757520198822, -0.0036387965083122253, -0.0643761157989502, -0.025994203984737396, -0.022225163877010345, -0.05038844794034958, 0.004079572856426239, -0.05740290880203247, 0.04979201406240463, -0.025912467390298843, 0.019893229007720947, -0.06747365742921829, 0.04413151741027832, 0.01565811038017273, 0.04086314141750336, -0.0608951710164547, -0.027592264115810394, 0.06072733551263809, 0.0591929629445076, -0.0035003498196601868, -0.06394912302494049, 0.006062723696231842, -0.026776649057865143, -0.003762386739253998, -0.0012940764427185059, -0.025241199880838394, 0.05977896600961685, -0.06844767928123474, -0.047878943383693695, -0.05321446806192398, 0.04817602038383484, -0.06012990325689316, -0.02487129345536232, 0.014073476195335388, 0.04256729036569595, -0.05190355330705643, 0.06502004712820053, -0.0687144473195076, -0.03047853335738182, -0.05048476159572601, 0.05303274095058441, -0.04176390543580055, -0.01894863322377205, 0.06717301160097122, -0.05217868834733963, -0.019410215318202972, -0.05657883733510971, -0.009138181805610657, -0.033263199031353, -0.05882701650261879, 0.028562158346176147, -0.035124521702528, 0.003207683563232422, -0.01313633844256401, 0.06157388538122177, -0.06674368679523468, -0.04514147713780403, 0.06887415796518326, -0.018724076449871063, -0.012257218360900879, 0.012603729963302612, 0.03773418068885803, -0.005373015999794006, 0.03600218892097473, 0.008235611021518707, -0.05956833064556122, 0.039580509066581726, -0.030499443411827087, 0.027962572872638702, 0.016833938658237457, -0.030990350991487503, 0.0298590287566185, 0.05876675993204117, 0.004136525094509125, -0.05457362160086632, 0.012562014162540436, 0.0030440539121627808, -0.06607137620449066, -0.005444958806037903, 0.00930938869714737, -0.05488387495279312, 0.016631625592708588, -0.041355788707733154, 0.0647788718342781, 0.009099334478378296, -0.010540448129177094, -0.0006223246455192566, 0.0538238063454628, 0.06120007485151291, 0.03947833925485611, 0.023378431797027588, -0.01930903270840645, -0.06480520963668823, -0.04141858592629433, -0.06642942130565643, -0.013411104679107666, -0.06610670685768127, 0.05377352237701416, -0.008744262158870697, -0.015943322330713272, 0.06439877301454544, 0.010173782706260681, 0.0532669723033905, -0.02194392681121826, 0.01818215847015381, 0.05762379616498947, -0.047940924763679504, -0.039616845548152924, 0.008402019739151001, -0.04050971195101738, 0.06018394976854324, 0.03435707092285156, 0.008553043007850647, -0.02539089322090149, 0.04253797233104706, -0.007379002869129181, 0.0024509504437446594, -0.05026800185441971, 0.051394976675510406, 0.024460822343826294, 0.003400273621082306, -0.016995038837194443, -0.050331227481365204, 0.02294693887233734, -0.028541814535856247, -0.03979719430208206, -0.043860893696546555, -0.0369655005633831, 0.017679303884506226, -0.013016138225793839, -0.059544358402490616, -0.026674192398786545, -0.006638873368501663, 0.015335999429225922, -0.032087597995996475, 0.013696283102035522, 0.027452707290649414, -0.006758466362953186, -0.02118596062064171, 0.021379858255386353, 0.05095387250185013, 0.03115994483232498, 0.01658684015274048, -0.050596825778484344, 0.05801769345998764, -0.028928343206644058}, {-5.839451313018799, -5.378035545349121, -4.258183002471924, -3.248746395111084, -3.1357834339141846, -2.9553070068359375, -3.6087241172790527, -3.924395799636841, -3.524979591369629, -3.0250704288482666, -4.533088207244873, -4.882208824157715, -4.499092102050781, -5.7808613777160645, -4.654213905334473, -4.301121234893799, -4.596847057342529, -3.91813588142395, -3.4247334003448486, -2.4927802085876465, -2.514488458633423, -2.743561029434204, -3.4809892177581787, -3.3398420810699463, -3.832923412322998, -3.979034423828125, -4.173473834991455, -3.0628037452697754, -1.8613934516906738, -3.016199827194214, -1.6938421726226807, -2.7780206203460693, -3.3318686485290527, -2.5303595066070557, -1.9178178310394287, -3.2683327198028564, -3.9312705993652344, -4.767640113830566, -4.0992326736450195, -3.820493698120117, -4.833678245544434, -6.009603500366211, 4.81264066696167, 4.286716461181641, 3.144824981689453, 2.8558366298675537, 1.7472232580184937, -0.46941256523132324, -1.84113347530365, -2.295125961303711, -3.248868227005005, -4.515963554382324, -5.225945472717285, -5.047216415405273, -5.44695520401001, -5.282940864562988, -4.365321636199951, -4.0624895095825195, -3.5012502670288086, -2.6805784702301025, -2.538907766342163, -1.4473422765731812, -1.2940624952316284, -1.1129729747772217, -1.3202682733535767, -0.6236283779144287, -0.46256062388420105, -0.0147999357432127, -0.6854614019393921, -1.1976087093353271, -2.45696759223938, -5.247020721435547, -4.61332893371582, -6.735073566436768, -7.727507591247559, -7.489435195922852, -6.970828533172607, -7.051267623901367, -6.157261371612549, -4.847225189208984, -3.0060875415802, -1.1170654296875, 0.47346317768096924, 0.36370861530303955, -0.13652868568897247, -0.7365108132362366, -0.6384232044219971, 0.44469064474105835, 1.0530860424041748, 1.0698131322860718, 2.2853305339813232, 4.11602783203125, 4.683391094207764, 4.818308353424072, 3.4317197799682617, 3.344667911529541, 2.9089348316192627, 1.4935520887374878, 0.605407178401947, 0.27537083625793457, -0.37038958072662354, -0.4431871473789215, -1.7542788982391357, -2.167259693145752, -3.9793145656585693, -6.6504998207092285, -7.9891462326049805, -6.2652482986450195, -5.747603416442871, -4.4912428855896, -2.707620143890381, -1.2762329578399658, 0.7582545280456543, 0.34044981002807617, 0.7979958057403564, 1.251442790031433, 2.5725910663604736, 3.2294483184814453, 3.201749086380005, 2.6630194187164307, 2.268925428390503, 1.1994661092758179, 1.327831745147705, 1.054390549659729, -0.4896141588687897, -2.1935062408447266, 4.335930347442627, 2.847980260848999, 0.5661068558692932, -0.038073644042015076, 0.1402769684791565, -1.0820928812026978, -0.6093320250511169, -0.7800890803337097, -1.6688292026519775, -2.0109915733337402, -0.8247058391571045, -0.8808515071868896, -2.231719970703125, -0.6891415119171143, -2.117741823196411, -1.3835852146148682, -0.6693556904792786, -0.21307523548603058, -0.4176788926124573, -1.6496702432632446, -1.9612135887145996, -0.4678717851638794, -0.07162117958068848, -0.8084781765937805, -0.9634291529655457, -1.0817734003067017, -0.7968371510505676, -0.7145028710365295, -1.4520395994186401, 0.5530440211296082, -0.7430518865585327, -0.49998003244400024, 0.12394745647907257, 0.8152194023132324, 0.6920113563537598, 0.45125025510787964, 1.0548275709152222, 1.9703774452209473, 1.7614483833312988, 1.5339550971984863, 1.9156293869018555, 4.360311985015869, 2.7847115993499756, 2.1173293590545654, 1.526794672012329, 1.5020028352737427, 0.7557210922241211, 0.015163693577051163, -0.30830714106559753, -0.35878026485443115, -0.6957001090049744, -1.0651886463165283, -1.780510663986206, -1.774367094039917, -1.9758208990097046, -1.84921395778656, -1.6032147407531738, -1.8138525485992432, -0.9935557246208191, -0.8768038153648376, -0.7460926175117493, -0.113052599132061, -0.19121770560741425, -0.655024528503418, -0.1542736142873764, -0.08310168981552124, -0.03614009916782379, 0.3346750736236572, -0.018037615343928337, 0.4733390510082245, -0.03662421926856041, -1.1694973707199097, -1.6176989078521729, -2.06240177154541, -1.874204397201538, -1.7388265132904053, -1.6088465452194214, -0.8275430202484131, -0.3769324719905853, -0.6199001669883728, -0.5341278910636902, -0.17262820899486542, 0.3934614360332489, 1.016379952430725}, {-1.4890104532241821, -2.2335245609283447, -2.220928430557251, -0.996340811252594, -1.1008602380752563, -1.5334711074829102, -2.51922607421875, -3.0518033504486084, -2.1639490127563477, -1.5185530185699463, -0.5736256241798401, 1.2473152875900269, 0.8875439167022705, 0.6962838768959045, 2.2340056896209717, 0.9669622778892517, 0.9339720010757446, 0.9109280109405518, 0.9536705613136292, 0.4986838102340698, -0.5096808671951294, -2.094773054122925, -3.3354268074035645, -3.8202595710754395, -4.431682586669922, -4.488109111785889, -4.385236740112305, -4.3216142654418945, -4.2108941078186035, -2.962754726409912, -1.4121923446655273, -2.484449863433838, -4.168513774871826, -3.4563634395599365, -3.8724803924560547, -2.1665987968444824, -1.8320196866989136, -2.0170552730560303, -0.9006966352462769, -0.7286630868911743, 1.0146856307983398, 2.1769797801971436, 3.038102149963379, 1.8211318254470825, -0.5158634781837463, -2.4311952590942383, -4.920300483703613, -7.274355888366699, -8.446380615234375, -9.849559783935547, -9.961505889892578, -9.709668159484863, -8.00825023651123, -6.965025901794434, -5.359928131103516, -3.613802433013916, -1.1135694980621338, 0.9177050590515137, 2.3325541019439697, 2.882610321044922, 3.58113431930542, 3.3988099098205566, 3.50055193901062, 3.2276737689971924, 1.9928897619247437, 0.4393119513988495, -1.1606955528259277, -2.910616397857666, -5.854188442230225, -9.55768871307373, -11.141674041748047, -10.978590965270996, -7.981337070465088, -7.61863374710083, -6.52366828918457, -3.649223566055298, -1.4590096473693848, 1.1466127634048462, 1.9931869506835938, 2.613924980163574, 2.4268758296966553, 2.2087509632110596, 2.158816337585449, 1.0245009660720825, 3.216219663619995, 3.7584726810455322, 3.2379262447357178, 2.265784978866577, 0.842044472694397, -0.5726566910743713, -0.5830078125, -1.0876493453979492, -0.8186396360397339, 0.18381868302822113, 0.2615775763988495, 0.08620196580886841, -1.750076174736023, -1.5598368644714355, -0.7053602933883667, 0.3517642915248871, -1.0331813097000122, -1.7188383340835571, -2.0560078620910645, -2.134709596633911, -1.2347246408462524, 0.5367088913917542, 1.7756905555725098, 1.8653576374053955, 2.062906265258789, 1.71784508228302, 1.499130129814148, 2.107011556625366, 2.320631265640259, 4.074787616729736, 2.664285898208618, 3.0847103595733643, 2.621995687484741, 2.049401044845581, 2.0145514011383057, 1.506867527961731, 0.813123881816864, 0.5737420320510864, -1.4204095602035522, -1.355168104171753, -2.2317776679992676, -2.814624071121216, -0.9896062612533569, 0.1719018518924713, 1.0771691799163818, 0.10419416427612305, 1.2204413414001465, 1.9882807731628418, 1.4359287023544312, 1.087924599647522, -3.2483623027801514, -2.2006895542144775, -2.1134891510009766, -2.0498406887054443, -2.7621586322784424, -3.2690937519073486, -2.911081314086914, -1.772007703781128, -1.2086338996887207, -1.1263295412063599, -0.8935304284095764, -0.10777479410171509, 0.2833755910396576, 0.4110867381095886, 0.619439423084259, 0.845051646232605, 1.2431122064590454, 1.0586860179901123, -0.1779596507549286, -1.165148377418518, -1.1190776824951172, 0.2075045108795166, 1.3295150995254517, -0.15933498740196228, 0.49068742990493774, -1.602454423904419, -2.355958938598633, -2.4428250789642334, -1.5374451875686646, 0.8496026992797852, 0.5006723403930664, 0.8658769130706787, -0.6819520592689514, 0.30912479758262634, 0.44928857684135437, -0.16190184652805328, -1.4750689268112183, -1.3185011148452759, -2.0655128955841064, -2.3783462047576904, -2.023712396621704, -2.1220080852508545, -2.076054811477661, -1.3817331790924072, -1.1566189527511597, -1.3596129417419434, -1.0957016944885254, -0.5072435736656189, 1.0322221517562866, 3.1490249633789062, 4.800902843475342, 4.627099514007568, 5.417668342590332, 4.984185218811035, 3.911087989807129, 2.0657670497894287, 0.43678396940231323, -1.186525583267212, -2.396221876144409, -3.3351492881774902, -4.028327941894531, -2.7395970821380615, -1.965569019317627, -1.990502953529358, -0.02581697329878807, -0.39498069882392883, -0.944881021976471, 0.20665892958641052, -0.03195156529545784, 0.749902606010437, 0.6725690960884094, 1.1451947689056396, 1.1048338413238525, 1.5766953229904175, 2.125976324081421, 2.744128942489624}, {0.0005094930529594421, -0.0546453557908535, 0.06132448464632034, -0.04243769124150276, 0.06130567938089371, 0.02200350910425186, -0.026737064123153687, 0.06450634449720383, 0.05814235657453537, 0.03520753234624863, 0.0022749677300453186, -0.042688582092523575, -0.012006565928459167, 0.007663697004318237, 0.010429680347442627, 0.05264860391616821, -0.032406099140644073, 0.04433971643447876, 0.056854747235774994, -0.057749733328819275, -0.01883963868021965, -0.024790890514850616, 0.03819624334573746, -0.049498915672302246, -0.044989053159952164, -0.010873891413211823, 0.023734331130981445, -0.006858158856630325, -0.035506442189216614, -0.04495977610349655, -0.06417947262525558, -0.007654935121536255, 0.019637875258922577, 0.047045014798641205, -0.05112144723534584, -0.058512791991233826, -0.042548611760139465, -0.045599497854709625, -0.0505540668964386, 0.021704845130443573, 0.058866240084171295, -0.027179043740034103, -0.03549947217106819, -0.011550374329090118, 0.06229341775178909, 0.03841918706893921, 0.01500660926103592, -0.05947145074605942, 0.0137396901845932, -0.009215056896209717, -0.029409468173980713, 0.059752024710178375, -0.05341044440865517, -0.002805061638355255, -0.057682812213897705, 0.05354604125022888, -0.02635280042886734, 0.057487137615680695, 0.015006043016910553, 0.06364088505506516, -0.028252746909856796, -0.026065189391374588, 0.006178513169288635, 0.06054066866636276, 0.0363897830247879, 0.05283179134130478, 0.050718992948532104, 0.04653958976268768, 0.04790741205215454, 0.05887935310602188, 0.03688443452119827, 0.049417637288570404, -0.05598025023937225, -0.06808244436979294, -0.057408615946769714, 0.04595525562763214, 0.03932889550924301, -0.061697088181972504, -0.03682684153318405, 0.04241320490837097, -0.01805270090699196, -0.05319846421480179, 0.017722055315971375, -0.04752659797668457, 0.00233566015958786, -0.03041597083210945, 0.0263209268450737, 0.0029240772128105164, -0.03964350372552872, 0.024805136024951935, -0.002441778779029846, -0.06012573093175888, 0.02171918749809265, 0.02330511063337326, 0.024385958909988403, 0.012907542288303375, -0.02545097842812538, 0.04691781848669052, -0.046274714171886444, -0.034666914492845535, 0.023361988365650177, -0.022644750773906708, 0.032861024141311646, 0.05780618637800217, -0.017848961055278778, 0.05025063455104828, 0.026918724179267883, 0.019163981080055237, -0.04508025199174881, -0.06527821719646454, -0.06387492269277573, -0.03992307186126709, 0.017723582684993744, 0.04768984019756317, -0.009007129818201065, 0.05142154544591904, -0.03959208354353905, -0.05650889873504639, -0.008718438446521759, 0.0125826895236969, -0.047627195715904236, 0.01740884780883789, -0.05043264105916023, 0.052391767501831055, -0.014410711824893951, -0.04789755865931511, 0.03292097896337509, 0.01074693351984024, 0.03609959036111832, 0.026381954550743103, -0.0634794607758522, 0.02481837570667267, 0.05523800849914551, 0.014961302280426025, 0.05190308392047882, 0.02155013382434845, 0.062982477247715, 0.05490853637456894, -0.01254260167479515, 0.03794098645448685, 0.031737737357616425, 0.023383721709251404, 0.0026830434799194336, -0.0247361920773983, 0.03709012269973755, -0.037240248173475266, 0.03313270956277847, -0.014119453728199005, 0.021806277334690094, -0.015593018382787704, 0.06267677992582321, -0.04917693883180618, 0.05121726542711258, -0.06258174031972885, 0.006498798727989197, -0.06344125419855118, -0.04045114666223526, -0.00909775123000145, 0.014823339879512787, 0.010911151766777039, -0.012455809861421585, 0.026198022067546844, 0.04580354690551758, 0.04883602261543274, 0.0456036701798439, 0.062276698648929596, -0.006337553262710571, -0.05769424885511398, -0.02279810979962349, 0.017659902572631836, -0.060042958706617355, -0.05671767145395279, 0.00781676173210144, -0.057179056107997894, -0.05457346886396408, -0.041848741471767426, 0.06007158011198044, -0.03977176174521446, -0.042686477303504944, -0.006311550736427307, -0.05664001777768135, 0.01410764455795288, -0.02547435835003853, 0.027827128767967224, 0.03629576414823532, 0.04740028828382492, 0.06788421422243118, 0.018541552126407623, -0.05530685931444168, 0.05760859698057175, 0.058265216648578644, -0.015377581119537354, -0.02882600575685501, 0.007452771067619324, -0.023089222609996796, 0.0004812851548194885, 0.03066975623369217, 0.015612483024597168, -0.018090203404426575, -0.029117140918970108, -0.057371269911527634, -0.016446825116872787, -0.02547040954232216, -0.035041503608226776, -0.052231140434741974, -0.012416873127222061, -0.03101763129234314, -0.010514874011278152, -0.02279508486390114, -0.05236818641424179}, {7.247522354125977, 7.035454273223877, 4.360435485839844, 3.518948793411255, 6.164073944091797, 8.532227516174316, 8.298282623291016, 7.449183464050293, 5.371918678283691, 4.90620756149292, 4.217090606689453, 2.618818521499634, 2.8811020851135254, 1.1984175443649292, 1.7652922868728638, 0.5106666088104248, 0.12012216448783875, -0.6315118074417114, -0.02449067309498787, 1.319656491279602, 3.134075880050659, 3.5304434299468994, 3.5283491611480713, 2.379871368408203, 3.9389476776123047, 5.303114891052246, 6.816620826721191, 4.379699230194092, 3.170012950897217, 5.109151363372803, 3.502902030944824, 2.164975643157959, 0.32568562030792236, -0.002722411649301648, -0.40821993350982666, 0.5562518239021301, -1.1173979043960571, -1.8593698740005493, -0.08828803151845932, 0.933085024356842, 1.7071068286895752, 2.7131099700927734, 6.059727191925049, 4.325681686401367, 3.2498090267181396, 1.8552236557006836, 0.9792912006378174, 0.2661271393299103, 0.4329164922237396, 0.28373199701309204, -0.10107926279306412, -0.10716724395751953, -0.7555150389671326, -1.4913461208343506, -2.7797224521636963, -3.3468258380889893, -3.0293424129486084, -3.647841215133667, -2.7101221084594727, -2.935551404953003, -2.495525360107422, -2.844937562942505, -2.4991142749786377, -1.8508918285369873, -2.1649744510650635, -1.9203027486801147, -2.0525972843170166, -1.9315105676651, -2.330381393432617, -3.343097686767578, -4.51837682723999, -5.146989822387695, 0.8994473814964294, -0.4885636568069458, -3.326145648956299, -3.7637600898742676, -5.123125076293945, -4.243791103363037, -5.140929698944092, -4.337569236755371, -4.882512092590332, -5.125853538513184, -6.081341743469238, -7.590328693389893, -1.086228609085083, -3.415398597717285, -7.1148505210876465, -9.02173137664795, -8.344037055969238, -7.69945764541626, -7.6471781730651855, -6.198841094970703, -3.217796564102173, -1.1780973672866821, -1.4132492542266846, -0.15230581164360046, 1.046673059463501, 2.123805046081543, 4.223161697387695, 5.063588619232178, 3.6040732860565186, 2.464475154876709, 0.9137355089187622, 0.5619361400604248, -0.986877977848053, -2.68426251411438, -3.4118564128875732, -5.191804885864258, -4.474665641784668, -5.10265588760376, -5.508502006530762, -4.798426151275635, -5.093593597412109, -2.2159767150878906, -0.8972358703613281, 2.422067880630493, 2.8523268699645996, 2.897386074066162, 2.2140166759490967, 4.916856288909912, 5.657207489013672, 7.029707431793213, 6.681326866149902, 6.288331031799316, 4.34182596206665, 1.5829780101776123, -6.794381141662598, -3.980048894882202, 0.13552334904670715, 0.9084224700927734, 0.6055117845535278, -2.834505081176758, 0.5250466465950012, -0.3812940716743469, -0.5719774961471558, -1.4222911596298218, -1.2586435079574585, 0.15824542939662933, 0.3482460379600525, 1.9315249919891357, 2.53794002532959, 3.6818151473999023, 0.8758332133293152, 1.859918475151062, 0.7157661318778992, -0.2684876024723053, -2.035062313079834, -0.6661792397499084, -0.6239699125289917, 0.08890706300735474, 0.565224289894104, 1.2859910726547241, -0.6775444149971008, -2.6911962032318115, -1.7587155103683472, -1.9156439304351807, -0.35677409172058105, -1.6396812200546265, 0.2600392699241638, 2.143887519836426, 1.2205477952957153, 0.7997684478759766, 0.8345471620559692, 2.201603412628174, 3.241468906402588, 3.6717793941497803, 0.6194911003112793, -0.52220219373703, 6.265345573425293, 6.143080234527588, 6.301736354827881, 4.609907627105713, 3.333991527557373, 2.8401477336883545, 2.9667632579803467, 1.8526744842529297, 1.8068606853485107, 1.9185981750488281, 1.6203677654266357, 1.5358761548995972, 0.907792329788208, 0.1837952435016632, 0.7597830891609192, -0.536201536655426, -1.6447352170944214, -0.5944395065307617, 0.44052618741989136, -0.05693688243627548, 0.4285238981246948, 1.599326252937317, 1.2629139423370361, 0.84281986951828, -0.15716809034347534, 1.285264492034912, 2.041465997695923, 0.15715329349040985, 0.21697360277175903, -0.9883069396018982, -0.00974603183567524, -0.656811535358429, -0.40607377886772156, -1.571102261543274, -0.9363614916801453, -0.9361709356307983, -2.0603017807006836, -1.8697563409805298, -2.936257839202881, -3.2561545372009277, -3.7485013008117676, -6.189732551574707}, {0.0541280135512352, 0.03428810089826584, 0.0472690612077713, -0.0015355944633483887, -0.013667810708284378, -0.06797587126493454, 0.05722349137067795, 0.013961471617221832, -0.06657695025205612, 0.02551577240228653, 0.06795214861631393, -0.03953409940004349, -0.05748322978615761, -0.04886573553085327, -0.02767482027411461, 0.0011190176010131836, 0.004258729517459869, 0.025882795453071594, -0.0022597014904022217, 0.05270364135503769, -0.024963218718767166, -0.06410211324691772, 0.03399407118558884, -0.04525990039110184, -0.041047580540180206, -0.01972418650984764, -0.03940340131521225, -0.03775520250201225, -0.004706963896751404, 0.05155111849308014, 0.04960425943136215, -0.0530569963157177, 0.06322019547224045, 0.005136378109455109, -0.06659767776727676, -0.059655025601387024, 0.05613148957490921, -0.010748438537120819, -0.024599719792604446, -0.061305321753025055, 0.037067390978336334, 0.06025604158639908, -0.06563036143779755, -0.06240192800760269, 0.06898025423288345, -0.018724363297224045, 0.0679757371544838, -0.0552835613489151, 0.008717596530914307, -0.03209958225488663, 0.03086712956428528, -0.005406953394412994, 0.02129184454679489, -0.0508437380194664, -0.045825839042663574, -0.03853807598352432, -0.04426970332860947, 0.01861134171485901, -0.015392560511827469, -0.015989992767572403, -0.0223911851644516, -0.02512986585497856, -0.02566085383296013, 0.04198352247476578, 0.06014082580804825, 0.05620913952589035, 0.04138296842575073, 0.002232193946838379, 0.03840744495391846, -0.027418680489063263, -0.010730911046266556, 0.023440219461917877, -0.00023143738508224487, 0.046121664345264435, 0.006786048412322998, -0.01636863499879837, -0.04079890996217728, 0.056853316724300385, -0.045482225716114044, 0.0678773894906044, 0.03304242342710495, -0.030306290835142136, -0.0455663725733757, -0.04570759832859039, 0.007960878312587738, 0.018051788210868835, 0.032763704657554626, -0.06300405412912369, -0.051140278577804565, -0.035273514688014984, -0.024683166295289993, 0.048206135630607605, 0.012003704905509949, -0.02156882733106613, -0.021123211830854416, 0.02585206925868988, -0.01576823741197586, 0.01604107767343521, 0.033571064472198486, -0.04288097470998764, -0.03431659936904907, -0.022628650069236755, 0.0531700924038887, -0.05176953971385956, 0.033457063138484955, -0.004857651889324188, -0.048745591193437576, -0.04025311768054962, 0.0265330970287323, 0.015878140926361084, 0.05063873529434204, 0.05983542650938034, 0.024151869118213654, 0.009848929941654205, 0.029771119356155396, -0.057090528309345245, -0.05788606032729149, 0.004356466233730316, -0.06422244757413864, -0.017756514251232147, -0.02268439158797264, 0.06314583867788315, 0.052610598504543304, -0.06088460981845856, 0.004644505679607391, -0.015561725944280624, -0.05975979566574097, -0.05834700167179108, -0.02796998620033264, 0.01121397316455841, 0.047772981226444244, 0.041739560663700104, -0.03399396687746048, -0.019340332597494125, -0.05577634647488594, 0.007658712565898895, -0.05818860977888107, 0.05364663153886795, -0.0147361159324646, -0.042605482041835785, -0.00013287365436553955, 0.052022479474544525, 0.004436872899532318, -0.035306476056575775, 0.02491060644388199, 0.058220721781253815, -0.024228733032941818, -0.021774522960186005, -0.06747701019048691, -0.012193482369184494, -0.06284777075052261, 0.05551239848136902, -0.055204566568136215, 0.05608687549829483, -0.03576449677348137, -0.06840883940458298, -0.05203565955162048, -0.03940002620220184, -0.06026681140065193, -0.04933405667543411, 0.025331340730190277, 0.0010634586215019226, 0.03170982003211975, -0.03578953817486763, 0.0021477043628692627, -0.06722688674926758, 0.0011451616883277893, -0.025462396442890167, -0.034162022173404694, -0.06834343075752258, 0.020308800041675568, -0.0595548152923584, -0.05519680678844452, 0.05144234746694565, 0.03739345073699951, 0.010301291942596436, -0.02374599501490593, -0.06435208022594452, -0.05068277567625046, 0.06776744872331619, 0.0010318756103515625, -0.054717499762773514, 0.04952790588140488, 0.06669468432664871, 0.04409515857696533, -0.05324823781847954, -0.025288280099630356, 0.04154840111732483, 0.018245644867420197, -0.04439230635762215, 0.06536877900362015, 0.053977541625499725, 0.05976109951734543, -0.028628207743167877, -0.03699427470564842, -0.004594437777996063, -0.010632771998643875, 0.06283252686262131, 0.038714900612831116, 0.03955236077308655, 0.050640180706977844, 0.05203232169151306, -0.03282622992992401, -0.04127782583236694, -0.015170536935329437, 0.037141844630241394, -0.029551740735769272, 0.036272309720516205, 0.032715000212192535, -0.06689350306987762}, {-1.6028207540512085, -1.1148744821548462, -0.05874523147940636, -0.3004629611968994, -1.2034199237823486, -1.0555027723312378, -0.55718994140625, -0.44008225202560425, 0.08135241270065308, 0.03982161357998848, -0.48196887969970703, -2.1103084087371826, -2.665926218032837, -4.443592548370361, -4.311312675476074, -3.601707696914673, -2.9772090911865234, -1.6801542043685913, -1.1861810684204102, 0.005763028282672167, -0.5394991040229797, -2.2950758934020996, -2.34981107711792, -1.2502003908157349, -0.9525694251060486, -1.6364473104476929, -2.7656030654907227, -1.5203115940093994, -0.19847829639911652, -2.1213111877441406, -0.2504607141017914, -1.3457348346710205, -0.8445574641227722, 0.4940280318260193, 0.8353633284568787, -0.8698385953903198, -1.1424516439437866, -1.6281243562698364, -0.6301853060722351, 0.011047475039958954, -1.7438390254974365, -2.632138252258301, 3.6261842250823975, 2.0257110595703125, 1.185725212097168, 1.4970488548278809, 1.6313103437423706, 1.6466144323349, 0.8712982535362244, 0.9208512306213379, -0.04664973169565201, -0.23669050633907318, 0.30227580666542053, 0.5267795324325562, 0.7405056953430176, 0.9577428698539734, 0.14140728116035461, 0.43763303756713867, 0.458504319190979, 1.3601775169372559, 1.216710090637207, 1.2172483205795288, 0.8221787810325623, 0.38009876012802124, 0.5511571168899536, -0.6269676089286804, -0.5393789410591125, 0.024781685322523117, -0.17354655265808105, 1.1998851299285889, 1.6024991273880005, 0.9016152024269104, 2.6384172439575195, 1.3372341394424438, 0.9045898914337158, -0.004607827868312597, -0.305264949798584, -0.33972424268722534, -0.9692468643188477, -1.0024422407150269, -0.6409258246421814, -1.011915683746338, 0.23540045320987701, 1.5086883306503296, 3.732980251312256, 2.839597225189209, 2.1011245250701904, 2.965200424194336, 3.2310657501220703, 2.786914825439453, 2.760443687438965, 2.4019322395324707, 2.885195016860962, 2.9895482063293457, 3.227094888687134, 3.085543155670166, 3.312715768814087, 3.929957151412964, 4.164243221282959, 5.77446985244751, 6.565946578979492, 6.440182209014893, 5.823032855987549, 4.545939922332764, 3.0963144302368164, 1.1784659624099731, 0.5640849471092224, 0.7236129641532898, -0.18367570638656616, -0.22324278950691223, 0.12205339223146439, 0.7271813750267029, 1.6969020366668701, 0.6634940505027771, 1.4945192337036133, 2.785165786743164, 4.589755058288574, 4.345267295837402, 4.120847225189209, 2.373331069946289, 1.1160236597061157, 0.16633495688438416, 1.5517122745513916, 1.6044853925704956, 4.615545749664307, 6.198409557342529, -3.011906862258911, -2.908555030822754, -2.58437180519104, -2.152576446533203, -1.2874220609664917, -1.4983240365982056, -3.8440663814544678, -4.232690334320068, -4.923573017120361, -5.202214241027832, -4.173591613769531, -2.7013115882873535, -2.9835832118988037, -1.1319496631622314, -3.1742687225341797, -2.841740131378174, -2.9029061794281006, -2.538944959640503, -2.5662734508514404, -3.2421562671661377, -1.5683543682098389, 0.08232524245977402, 0.6027101278305054, -1.0711162090301514, -1.9799050092697144, -0.8501731157302856, -0.1450202316045761, 0.5798918604850769, 0.8443565964698792, 1.1281355619430542, -1.231766939163208, 0.760971188545227, -0.0678565725684166, -0.8302510380744934, 0.014853003434836864, 0.13571880757808685, -0.2022799700498581, 0.21583254635334015, -0.05232015997171402, -0.16212566196918488, 0.4021679162979126, 2.0150530338287354, 1.5885223150253296, 1.3816702365875244, 0.5603936314582825, 1.3445193767547607, 1.8320881128311157, 2.316931962966919, 1.8752895593643188, 1.700990080833435, 1.4638800621032715, 0.9970573782920837, 1.152848482131958, 0.31913644075393677, 0.12134301662445068, 0.28530600666999817, -0.7563456296920776, -0.4432165324687958, -0.05789712816476822, -0.7996498346328735, -0.7326248288154602, -0.9652026891708374, -0.9295982718467712, -0.47756892442703247, 0.0701274424791336, -0.32740822434425354, -0.1999698430299759, -0.5699889063835144, -1.4349511861801147, -0.43888914585113525, -0.7972507476806641, -1.4228692054748535, -0.49096471071243286, -0.45879390835762024, -0.28832709789276123, -0.32889828085899353, 0.3571013808250427, 1.1251206398010254, 0.5842445492744446, 0.42014172673225403, 0.11232364922761917, 1.1897789239883423, 1.1059600114822388, 2.1210713386535645}, {7.0086846351623535, 6.557572364807129, 4.33526611328125, 3.3571908473968506, 3.4629297256469727, 1.6337237358093262, 0.8087490797042847, 1.883629322052002, 1.3513991832733154, 1.0563451051712036, 0.9420119524002075, 0.04691989719867706, 0.7357578277587891, 0.7500367164611816, 0.9160541892051697, 2.762970447540283, 4.459195137023926, 3.8876430988311768, 3.4788875579833984, 3.931856393814087, 3.0028798580169678, 2.5715856552124023, 2.3861474990844727, 0.4863405227661133, 2.479771852493286, 4.725926876068115, 4.539577007293701, 4.921263217926025, 3.3043508529663086, 2.9965996742248535, 1.1107208728790283, 0.7394733428955078, 0.7910557985305786, 0.4562649428844452, 0.975155234336853, 1.0979050397872925, 0.6669508814811707, -0.03336827829480171, -1.3568546772003174, -1.5416605472564697, -0.2143377810716629, 0.25558146834373474, -11.488913536071777, -8.26519775390625, -4.252394199371338, -1.3786166906356812, 0.029693156480789185, 0.3413841724395752, 1.5535870790481567, 1.4596374034881592, 1.810182809829712, 1.4902061223983765, 1.4024653434753418, 1.4458284378051758, 1.8577030897140503, 2.258478879928589, 5.144749641418457, 4.362901210784912, 3.2361972332000732, 1.546473741531372, 0.35481104254722595, -0.24851208925247192, -0.5704872608184814, -2.482912540435791, -5.011709690093994, -5.627146244049072, -5.7117791175842285, -5.346438407897949, -2.9815850257873535, -3.3330299854278564, -1.939125895500183, -0.31242913007736206, -2.627915620803833, -2.6975393295288086, -3.6092185974121094, -2.6496646404266357, -1.9825007915496826, -0.4141877293586731, 0.8930908441543579, 2.280350685119629, 2.403677225112915, 2.7182092666625977, 2.225054979324341, 1.792985439300537, -4.408780574798584, -4.058382987976074, -1.3877530097961426, 2.2142553329467773, 3.1606602668762207, 3.6382622718811035, 5.0157036781311035, 6.995344161987305, 7.6339111328125, 7.958931922912598, 6.359991073608398, 3.160505771636963, 1.0635483264923096, 1.4625728130340576, 2.5602028369903564, 0.81785649061203, -2.1606481075286865, -4.018648624420166, -5.709597110748291, -5.99249792098999, -9.09163761138916, -10.317790985107422, -11.90542984008789, -10.942656517028809, -8.122328758239746, -5.279155254364014, -3.300330400466919, -2.342473268508911, -2.0653648376464844, 1.342997670173645, -1.8874590396881104, 0.43542104959487915, 1.5403814315795898, 5.0155205726623535, 5.584699630737305, 6.032793045043945, 5.565011501312256, 4.829583644866943, 2.8134007453918457, 2.081357717514038, 2.6794826984405518, 3.9213526248931885, -2.104078769683838, -2.2603158950805664, -2.057404041290283, -0.9237788915634155, -2.3407413959503174, -1.9918261766433716, -0.1081070527434349, 0.2599141001701355, 1.1715649366378784, 2.839789390563965, 4.668721675872803, 3.9319188594818115, 4.09480094909668, 3.4643478393554688, 4.239349365234375, 3.1182963848114014, 2.907710552215576, 2.664276599884033, 3.1795294284820557, 3.37372088432312, 3.472705841064453, 1.6528877019882202, -0.36155930161476135, 0.23323066532611847, -1.1766676902770996, -2.0539402961730957, -0.7720131874084473, -2.6677708625793457, -1.3885685205459595, -3.245457410812378, -0.8537298440933228, 1.0797474384307861, -0.14219965040683746, -1.0678001642227173, -2.5207207202911377, -1.9031060934066772, -0.6312647461891174, -0.02591458149254322, -0.49152469635009766, 1.2950360774993896, 1.975798487663269, 0.5591435432434082, -2.5426626205444336, -1.8284714221954346, -0.19482988119125366, 1.508243203163147, 0.9766113758087158, 0.2459995150566101, 0.6000201106071472, 0.5648165941238403, 0.14124345779418945, 0.43035888671875, 1.0418949127197266, 1.2882859706878662, 1.223988652229309, 0.3055543303489685, 1.980015516281128, 2.5438761711120605, 0.9501563310623169, -0.1542312502861023, -0.2860431671142578, -1.2037007808685303, -1.0658464431762695, -1.1129034757614136, -1.8192626237869263, -1.953943133354187, -1.6866779327392578, -1.074248194694519, 0.3159184157848358, -0.9842196702957153, -0.30420902371406555, 0.3567604422569275, -0.7510883212089539, 0.11573944985866547, 0.27983641624450684, 0.28829240798950195, 0.9286471009254456, 0.6852768659591675, 1.0087153911590576, 1.9362797737121582, 0.6686322093009949, 0.6168221235275269, 0.6973046064376831, 0.5411022305488586}, {0.037657685577869415, -0.016642700880765915, -0.028433017432689667, 0.06646593660116196, -0.00642877072095871, -0.0663815289735794, -0.012355513870716095, 0.01972891390323639, 0.06094346195459366, -0.022495798766613007, 0.017659232020378113, 0.06558167189359665, -0.02769206464290619, -0.009664494544267654, -0.0006052553653717041, -0.055061809718608856, -0.013086315244436264, 0.06630156189203262, 0.06718031316995621, 0.05998224765062332, -0.0060405731201171875, 0.04850248992443085, -0.042070142924785614, 0.012261763215065002, 0.05183154344558716, 0.052810899913311005, -0.06213707476854324, -0.012402642518281937, 0.012299194931983948, -0.03428000211715698, -0.008065398782491684, -0.03231622278690338, -0.008209146559238434, -0.05660468339920044, -0.05190448462963104, 0.032788053154945374, 0.0015349909663200378, 0.056678496301174164, -0.041051317006349564, -0.006045088171958923, 0.003825157880783081, -0.06234705075621605, 0.0677834078669548, 0.013733752071857452, 0.01835719496011734, -0.04725494980812073, 0.06067753583192825, -0.06091272458434105, -0.041149355471134186, -0.03706355020403862, -0.011648058891296387, -0.041196927428245544, -0.05946001410484314, -0.008560989052057266, 0.004690222442150116, -0.043860383331775665, -0.053053613752126694, 0.06300223618745804, 0.03227963298559189, 0.006955273449420929, -0.005328461527824402, 0.020707078278064728, 0.02372422069311142, -0.026165876537561417, -0.02977805957198143, -0.023060932755470276, -0.016925953328609467, -0.01548248901963234, 0.060318879783153534, 0.053497761487960815, 0.05056352913379669, -0.05741243436932564, -0.06688730418682098, -0.02840806543827057, -0.013717982918024063, 0.01680087298154831, -0.012921996414661407, 0.014720223844051361, -0.02308357134461403, 0.03916525840759277, 0.0015549585223197937, -0.042672522366046906, -0.015275213867425919, -0.04056305065751076, -0.040671803057193756, -0.020309414714574814, 0.003990694880485535, -0.03312757983803749, -0.0370790958404541, 0.021144792437553406, 0.06357230991125107, 0.007969513535499573, -0.049136556684970856, -0.011453483253717422, 0.06899819523096085, -0.041206128895282745, 0.02880898118019104, 0.05022810399532318, 0.043025702238082886, 0.050464630126953125, 0.0628805086016655, 0.017342060804367065, 0.051860012114048004, 0.04657619446516037, -0.009327616542577744, 0.037439391016960144, 0.06187459081411362, 0.03996569663286209, -0.023902736604213715, 0.020396538078784943, 0.04918711632490158, -0.06412044167518616, 0.0479017049074173, 0.009604237973690033, -0.030487146228551865, -0.04235377535223961, 0.05715782195329666, -0.024978864938020706, -0.04392983019351959, -0.02649042010307312, -0.05031178146600723, -0.04281308501958847, 0.015491761267185211, -0.03945113718509674, -0.021868664771318436, -0.04289409890770912, -0.0470280647277832, 0.0020394548773765564, 0.03299696743488312, -0.015589334070682526, 0.05745033174753189, 0.055280186235904694, -0.00465855747461319, 0.02029482275247574, 0.01169530302286148, 0.014363549649715424, 0.008150152862071991, -0.060721226036548615, -0.011657733470201492, -0.0673021748661995, 0.022919587790966034, 0.062371157109737396, 0.06661681085824966, 0.009288616478443146, -0.0021789297461509705, -0.05031363293528557, 0.06798259168863297, -0.06396472454071045, 0.006529606878757477, 0.027438238263130188, -0.06599915772676468, -0.02272733300924301, -0.05109426751732826, 0.058808423578739166, -0.015799470245838165, 0.05962526053190231, -0.027045566588640213, 0.028588324785232544, -0.04594987630844116, 0.015347935259342194, 0.006239414215087891, -0.029837291687726974, 0.0343298614025116, 0.03034372627735138, 0.059647493064403534, -0.014791075140237808, 0.0004503577947616577, 0.06496850401163101, 0.0456821471452713, -0.0013591200113296509, 0.05917627364397049, -0.011395398527383804, 0.0017397776246070862, 0.040589168667793274, 0.059314318001270294, -0.035085760056972504, 0.03551749140024185, -0.005974411964416504, -0.03030829131603241, 0.047134801745414734, 0.06176353245973587, -0.025950144976377487, -0.06694052368402481, -0.04850509762763977, 0.04095502942800522, -0.056176379323005676, 0.0399981290102005, -0.05590114742517471, 0.04046764224767685, -0.020686019212007523, 0.05406332015991211, 0.007982268929481506, -0.03602318838238716, 0.03501482307910919, 0.056556738913059235, -0.06886620819568634, -0.031095925718545914, -0.0352318175137043, 0.039401575922966, 0.029370345175266266, -0.01303156092762947, 0.060068078339099884, -0.03364545479416847, -0.03810524195432663, -0.007844984531402588, 0.06548049300909042, -0.020133212208747864, -0.05547779053449631, -0.04962100833654404, 0.004693023860454559}, {0.7487079501152039, 0.12365782260894775, 1.2825214862823486, 1.4763354063034058, 1.5597127676010132, 0.2489868551492691, -0.7961329221725464, -1.6215676069259644, -3.117344379425049, -5.272790431976318, -6.3638505935668945, -6.600208759307861, -5.442015171051025, -3.084097146987915, -0.09397119283676147, 2.962141990661621, 3.4447872638702393, 3.46789288520813, 0.02981788106262684, -3.7690234184265137, -8.082355499267578, -10.762107849121094, -9.999588966369629, -7.784618377685547, -4.031447410583496, 1.131760597229004, 4.987143516540527, 6.215865135192871, 4.024003982543945, 0.2741098701953888, -1.6122690439224243, -3.470144510269165, -2.659104824066162, -1.773781418800354, -1.0770788192749023, -1.391097068786621, -0.4283078610897064, 0.1965549886226654, 0.10766655206680298, 0.16357284784317017, 0.04837198182940483, 0.827633261680603, -1.0835909843444824, -0.24901722371578217, 0.22745929658412933, 0.5674183368682861, 1.3814359903335571, 0.5302255749702454, -0.25865989923477173, -0.5480354428291321, -1.5230677127838135, -1.6468336582183838, -1.1537410020828247, 0.1027451753616333, -0.23758046329021454, -1.0729999542236328, -2.0315136909484863, -2.547330141067505, -3.7030372619628906, -3.355339765548706, -2.1018261909484863, -1.3483917713165283, -0.8615051507949829, -0.4260866641998291, 0.34934380650520325, 1.9636479616165161, 2.4071717262268066, 2.215056896209717, 0.031369779258966446, -3.0580241680145264, -3.6163079738616943, -4.5435638427734375, -1.2014621496200562, -1.155135154724121, 0.30532601475715637, 0.9854109883308411, 2.4621529579162598, 2.7918806076049805, 3.3718175888061523, 3.2790350914001465, 2.7227084636688232, 1.6603440046310425, 1.290555477142334, 0.06953901052474976, 3.8091814517974854, 1.754356861114502, -1.3556671142578125, -3.5936834812164307, -5.134073734283447, -6.975705623626709, -8.524559020996094, -7.040135383605957, -5.432929992675781, -1.6108551025390625, 0.35805779695510864, 2.8403844833374023, 3.745299816131592, 4.53874397277832, 4.376086235046387, 1.0426900386810303, -3.806159734725952, -5.978907585144043, -8.153640747070312, -7.7216596603393555, -4.514988899230957, 1.465627670288086, 6.3336591720581055, 8.9661226272583, 9.310240745544434, 8.848917007446289, 4.573263645172119, -0.5032467246055603, -3.8761074542999268, -8.778820991516113, -8.957850456237793, -6.738696575164795, -1.8518400192260742, 1.9355775117874146, 1.5286462306976318, -0.822464644908905, -2.540408134460449, -1.6390334367752075, 0.09930285811424255, 1.309422492980957, 1.0224783420562744, 2.837717294692993, -0.48680683970451355, -1.6260673999786377, -3.6422080993652344, -2.358792781829834, -2.4166836738586426, -1.1970845460891724, -1.2892273664474487, -1.1029778718948364, 0.8536261916160583, 3.9014081954956055, 4.138618469238281, 5.322962284088135, 3.4645042419433594, 2.3873989582061768, 0.36601194739341736, -2.4148383140563965, -3.3552145957946777, -2.9108893871307373, -1.5037575960159302, 1.042426586151123, 4.731606483459473, 7.12189245223999, 6.0414299964904785, 4.63660192489624, 1.0132559537887573, -2.6169803142547607, -5.742021560668945, -5.964176654815674, -4.055533409118652, -1.5785962343215942, 2.0137627124786377, 3.413015604019165, 2.5509228706359863, 3.532641887664795, 4.115671634674072, 1.7290432453155518, 0.5457929372787476, -0.8390111923217773, -0.601665198802948, -2.6155920028686523, -2.457117795944214, -2.38399600982666, -1.6226893663406372, -1.6876150369644165, -0.6455929279327393, 0.40899816155433655, 0.6408187747001648, 0.5920370817184448, 1.0558141469955444, 1.0617637634277344, 1.6144599914550781, 1.2806169986724854, 0.9418734908103943, 0.17683833837509155, -0.5644167065620422, -0.7886034250259399, -0.8066257238388062, -0.3856542408466339, -0.8353566527366638, -0.12515166401863098, 0.3392040431499481, 0.6250927448272705, 0.9418985247612, 0.6742259860038757, 0.9771484732627869, 1.1236686706542969, 0.6838465332984924, 0.18165934085845947, 0.013264192268252373, -1.1465680599212646, -2.085393190383911, -1.8163005113601685, -0.3333890438079834, -0.17650887370109558, 0.38120153546333313, 0.9320563077926636, 1.669886827468872, 1.5148297548294067, 1.639427661895752, 1.6044508218765259, 1.3854085206985474, 0.06296878308057785, -0.7572885751724243, -0.31529760360717773}, {-4.331435680389404, -2.8363308906555176, -3.6638543605804443, -4.502908229827881, -3.8601489067077637, -2.6477456092834473, -2.2057583332061768, -2.953749418258667, -2.3417916297912598, -2.0057766437530518, -3.19848895072937, -5.109768867492676, -5.008451461791992, -5.634109973907471, -4.94351053237915, -4.914558410644531, -4.77765417098999, -3.9049794673919678, -4.316736698150635, -4.466928482055664, -3.4489049911499023, -3.412566661834717, -3.3663010597229004, -2.6375370025634766, -2.785796880722046, -2.7690272331237793, -2.6206858158111572, -2.1192800998687744, -2.379629611968994, -4.2799811363220215, -1.959525465965271, -2.5437283515930176, -2.3684589862823486, -2.3955237865448, -1.5062713623046875, -0.5090072751045227, -2.029792070388794, -2.878659725189209, -1.561208963394165, 0.12944833934307098, 0.09643770009279251, -1.4766709804534912, -0.9365503191947937, -0.10981341451406479, -0.2393890768289566, -0.36231502890586853, -0.4494089186191559, -0.10160987824201584, -0.4335153102874756, -0.3598129451274872, -1.6009585857391357, -2.3137929439544678, -2.7985551357269287, -2.386927604675293, -2.230767250061035, -1.8651739358901978, -1.1286156177520752, -0.9724346995353699, -1.901000738143921, -1.6504576206207275, -2.371128797531128, -2.0362632274627686, -1.9189549684524536, -0.5882609486579895, -0.19495542347431183, -0.33360233902931213, 0.2642463743686676, 0.4443047344684601, -0.06897237151861191, 0.5928480625152588, -0.11239832639694214, -0.9874534606933594, 1.7433236837387085, 0.7121421694755554, 0.38308632373809814, 0.4951457679271698, 0.4128285050392151, 0.02151731587946415, -0.562566339969635, -0.9137003421783447, -1.0152673721313477, -0.31448107957839966, 0.5743535757064819, 1.6384503841400146, 7.56687068939209, 4.599249839782715, 2.7820932865142822, 2.8024137020111084, 4.241206645965576, 5.498959541320801, 6.479028224945068, 7.016598224639893, 7.563648700714111, 6.9573893547058105, 5.089657306671143, 4.824726581573486, 5.192104816436768, 4.505404949188232, 5.243999004364014, 5.52877140045166, 5.713996887207031, 5.547118186950684, 6.169586658477783, 5.434413433074951, 5.028761386871338, 3.988053560256958, 3.6010172367095947, 3.7194204330444336, 3.44563889503479, 3.76265549659729, 4.6976189613342285, 3.697876453399658, 2.896836519241333, 3.223231315612793, 2.7253894805908203, 2.3988442420959473, 3.2294812202453613, 3.486907958984375, 3.612787961959839, 3.4941511154174805, 3.2459819316864014, 2.733363389968872, 4.304333209991455, 4.426715850830078, 4.1546783447265625, 4.597433090209961, -1.6282978057861328, -1.762426733970642, -0.10096867382526398, -0.8874900341033936, -0.7189676761627197, -2.2394943237304688, -1.989945411682129, -1.6896287202835083, -0.9927111268043518, -2.636500835418701, -1.626468539237976, -0.108576200902462, -1.7365245819091797, -2.7976322174072266, -4.563070774078369, -2.1526193618774414, -3.318629026412964, -4.080800533294678, -2.9541103839874268, -3.159891366958618, -3.7947089672088623, -2.236402750015259, -1.5528839826583862, -1.9889171123504639, -3.236802577972412, -3.6249914169311523, -3.2476296424865723, -4.65522575378418, -4.2370758056640625, -3.0118408203125, -3.0573291778564453, -2.2723660469055176, -2.0850183963775635, -3.018813133239746, -3.793193817138672, -4.672831058502197, -3.101008653640747, -2.8544092178344727, -2.261904239654541, -4.160637855529785, -4.045273780822754, -2.565180778503418, -1.7194328308105469, -1.8325053453445435, -1.9262547492980957, -2.3210577964782715, -1.1551717519760132, -0.2574792802333832, -0.506901204586029, -0.9718771576881409, -0.5548527836799622, -0.9749525189399719, -1.9142262935638428, -1.062371015548706, -0.9909194111824036, -1.3467049598693848, -0.9905982613563538, -1.1712714433670044, -1.5883212089538574, -2.0836756229400635, -2.7248473167419434, -1.5559748411178589, -0.8636080622673035, 0.17173324525356293, 0.9622095823287964, 1.0390548706054688, 0.05825364962220192, -0.39747199416160583, 0.38595443964004517, 0.3347042500972748, 0.4780838191509247, 0.3345678746700287, 1.1076751947402954, 0.42532914876937866, 1.1792824268341064, -0.01558617316186428, 0.6902246475219727, 0.7665088176727295, 0.42399510741233826, -0.5624779462814331, -0.7511616349220276, -0.5126869678497314, -0.18570634722709656, 0.8348223567008972}, {-0.008676756173372269, -0.002992503345012665, -0.02155366539955139, 0.05229588598012924, -0.002329617738723755, 0.02463623881340027, -0.05047221854329109, 0.034100085496902466, -0.03498654440045357, -0.0657651275396347, 0.0059264302253723145, -0.02800394594669342, 0.048104338347911835, -0.009925808757543564, -0.056642211973667145, -0.04780694842338562, 0.06059078127145767, 0.0058020055294036865, -0.0030675530433654785, 0.004104688763618469, 0.04832962900400162, -0.04317455738782883, -0.0005345642566680908, -0.02254633978009224, -0.06284117698669434, 0.012429051101207733, -0.0061417073011398315, -0.06347580254077911, 0.013753741979598999, -0.007770545780658722, -0.04288642108440399, -0.013423491269350052, 0.0585167333483696, 0.06771758943796158, 0.06653247028589249, -0.057764682918787, 0.013924218714237213, -0.010717269033193588, -0.06421364843845367, -0.021704204380512238, -0.021358653903007507, -0.012099392712116241, -0.036674801260232925, -0.06162485480308533, 0.020951151847839355, 0.0021059364080429077, 0.022619426250457764, -0.06367910653352737, 0.029253467917442322, -0.009578309953212738, -0.018532980233430862, -0.005402423441410065, 0.00779985636472702, 0.054510071873664856, 0.03011307120323181, -0.06218867003917694, 0.0427226722240448, -0.015607133507728577, 0.047881290316581726, -0.038647547364234924, 0.053863778710365295, -0.008345749229192734, -0.06045617163181305, 0.05901964753866196, -0.06116786226630211, -0.02558203786611557, -0.022351626306772232, -0.06196821480989456, 0.014482475817203522, -0.04024481028318405, 0.029647231101989746, -0.04818577319383621, -0.0185132697224617, 0.0017977431416511536, -0.005164690315723419, 0.04833337664604187, 0.06664860993623734, 0.020426973700523376, -0.054153285920619965, -0.003544062376022339, 0.028390519320964813, 0.05063917487859726, -0.01793917641043663, 0.04534051567316055, 0.061030395328998566, -0.06520174443721771, -0.003117308020591736, -0.04694247990846634, 0.01904825121164322, -0.05928473919630051, 0.0014838054776191711, 0.02906634658575058, 0.04377739131450653, -0.03601628541946411, 0.014415130019187927, 0.03509477525949478, -0.022463355213403702, 0.007753968238830566, -0.05719423294067383, 0.06695657223463058, 0.027489155530929565, -0.03616735339164734, -0.005148343741893768, -0.009425878524780273, 0.013232782483100891, 0.005129486322402954, -0.06109144911170006, 0.05370910465717316, -0.061929866671562195, 0.02101191133260727, -0.008376061916351318, -0.022111903876066208, -0.0251297764480114, -0.01230175793170929, -0.013850804418325424, 0.0007190778851509094, 0.002476915717124939, 0.042801231145858765, -0.01833494007587433, 0.03442637622356415, 0.010235011577606201, -0.0037043169140815735, 0.0018737763166427612, -0.04199899733066559, -0.01579396054148674, -0.04827943444252014, -0.04138660430908203, -0.0037888139486312866, -0.017116442322731018, -0.049685288220644, -0.017009597271680832, -0.040004126727581024, -0.03325367346405983, -0.028962399810552597, -0.03553861379623413, -0.009496811777353287, 0.050382331013679504, 0.06501948088407516, -0.057543158531188965, 0.016121171414852142, 0.00016985833644866943, 0.015666119754314423, -0.0385168194770813, 0.034372247755527496, 0.06507501751184464, -0.06343628466129303, 0.05580625683069229, -0.015728510916233063, 0.019809871912002563, 0.009935498237609863, 0.040947601199150085, -0.03757939115166664, -0.009351707994937897, 0.04160728305578232, -0.0013438686728477478, 0.016125820577144623, 0.03637613356113434, 0.02497389167547226, -0.007515713572502136, -0.06551812589168549, -0.0418703556060791, 0.0403350293636322, 0.017477311193943024, -0.002700909972190857, -0.022741984575986862, -0.03683670237660408, -0.05825382098555565, -0.01883237436413765, 0.04991964250802994, -0.0037089958786964417, 0.02976306527853012, -0.0021222159266471863, 0.03886570781469345, 0.0431603342294693, -0.019634027034044266, 0.05256125330924988, -0.03062685951590538, -0.055016957223415375, -0.0021182745695114136, -0.06326616555452347, 0.019287966191768646, 0.041768141090869904, 0.05239158123731613, -0.026514552533626556, 0.04015931487083435, -0.04613184183835983, -0.05164715275168419, 0.03704267740249634, -0.06753335148096085, 0.01731386035680771, 0.019520670175552368, -0.025994665920734406, 0.05878681689500809, -0.06852640956640244, 0.03650685399770737, 0.04565811902284622, 0.005217805504798889, -0.05211935192346573, -0.03693045675754547, -0.03337803855538368, -0.015272237360477448, 0.03758067637681961, -0.00018215924501419067, 0.062469907104969025, 0.0019390732049942017, 0.007566578686237335, 0.017260834574699402, 0.05722745507955551, 0.024180985987186432, -0.06742589920759201}, {-0.4396933615207672, -0.32206904888153076, -0.45378366112709045, -0.6267330646514893, -0.5896992683410645, -0.7114419341087341, -0.46870294213294983, -0.29865485429763794, -0.2912370264530182, -0.2826732397079468, -0.37521684169769287, -0.37219083309173584, 0.0007351424428634346, 0.2689376771450043, -1.1049654483795166, -1.4404056072235107, -2.151829719543457, -1.8665060997009277, -1.4681875705718994, -1.0918809175491333, -1.0986086130142212, -0.7552222013473511, -1.028228759765625, -0.7030850052833557, -0.16285495460033417, -0.5167452692985535, -0.4022868275642395, -0.48476386070251465, -0.28977179527282715, -0.7782559990882874, -0.028761785477399826, 0.662538468837738, 0.4977133274078369, -0.41633397340774536, -0.9279641509056091, -1.2686694860458374, -0.6072444319725037, -0.21618038415908813, 0.1396326720714569, 0.48433104157447815, 0.40765702724456787, 0.3552955389022827, 0.9723303914070129, 0.7882168889045715, -0.005226364824920893, -0.26007598638534546, 0.4739599823951721, 0.7219641208648682, 0.8914427757263184, 0.763742983341217, 0.7427836656570435, 0.4720025062561035, 0.017798902466893196, -0.09598277509212494, 0.2018413543701172, 0.5371735095977783, 0.7125339508056641, 1.090184211730957, 1.3144720792770386, 1.674820065498352, 1.4120855331420898, 1.4030452966690063, 0.9920751452445984, 1.0829657316207886, 0.9057215452194214, 1.270162582397461, 1.1023683547973633, 0.9931827187538147, 1.0507577657699585, 0.8868362903594971, 1.357926607131958, 1.9299390316009521, -0.7612273097038269, -0.0006882430170662701, 0.49762582778930664, -0.48492559790611267, -0.4408339858055115, -0.5844235420227051, -0.8198716640472412, -1.5131326913833618, -1.6498472690582275, -1.5154390335083008, -1.0294941663742065, -0.030501341447234154, 2.5234084129333496, 0.7943698763847351, -0.05994376167654991, 0.5526267886161804, 1.2018545866012573, 1.5490190982818604, 1.508737564086914, 1.0828343629837036, 0.8490885496139526, 0.37488535046577454, 1.561565637588501, 1.948501467704773, 3.2714831829071045, 3.143751621246338, 2.588226795196533, 1.3609858751296997, 1.6182001829147339, 1.6360973119735718, 2.003448486328125, 1.459901213645935, 1.838090181350708, 1.4422765970230103, 1.8372734785079956, 1.5520087480545044, 0.870421290397644, 0.7685170769691467, 0.0882999375462532, -0.33841001987457275, 0.12569975852966309, 0.7676827311515808, 0.4610181450843811, -0.1833440214395523, -0.5930769443511963, -0.20392562448978424, 0.3564333915710449, 0.6057242751121521, 0.6341866254806519, 0.4272511899471283, 1.2312766313552856, 0.9804092645645142, 1.8416833877563477, 2.821512222290039, -0.014110412448644638, 0.007418516092002392, 0.49082425236701965, -0.4521295428276062, -1.0973269939422607, -1.0399945974349976, -1.8741568326950073, -1.4381797313690186, 0.2659868001937866, -0.4377043843269348, -0.7137858271598816, -1.058579683303833, -0.7625774145126343, -0.890167236328125, -0.15856516361236572, 0.18049591779708862, 0.8580959439277649, 0.11969321966171265, 0.10287224501371384, -0.397577166557312, -0.5561004281044006, -0.9856986999511719, 0.21318024396896362, 0.9164215326309204, -0.2711007595062256, -0.5068345069885254, -1.038440465927124, -0.920356035232544, -0.5030701160430908, -0.3577168583869934, -0.6250877380371094, -0.4052915573120117, 0.11372111737728119, 0.10063403844833374, 0.3905006945133209, -0.21415723860263824, -0.8930326700210571, -0.8223716020584106, -1.4424818754196167, -2.2411136627197266, -1.2879594564437866, -2.0732219219207764, 0.7515552639961243, 0.3452197313308716, 0.7853193879127502, 0.32457807660102844, 0.6701653003692627, 0.9856573343276978, 0.47990894317626953, 0.3402844965457916, 0.6620734333992004, 0.18661490082740784, -0.2554159164428711, 0.3162194490432739, 0.588728129863739, 0.25156065821647644, 0.15441836416721344, 0.2504693567752838, 0.41992905735969543, 0.6981610655784607, -0.42811039090156555, 0.3296997845172882, 0.9873992204666138, 0.9205551743507385, 1.426027774810791, 1.4234358072280884, 0.7533960938453674, 0.02254859358072281, 0.6296807527542114, -0.058080337941646576, 0.4524506628513336, 1.4050204753875732, 0.18419434130191803, 0.40619173645973206, 0.6924204230308533, 0.06765810400247574, 0.4451521635055542, 0.39234042167663574, 0.25976797938346863, -0.2788662910461426, 0.3330272138118744, -0.37298399209976196, -0.3475295305252075, 0.8783203363418579}, {-0.004564173519611359, -0.05713906139135361, 0.0355982705950737, 0.015417136251926422, -0.054401375353336334, 0.016721211373806, 0.06719834357500076, -0.023108642548322678, -0.026570197194814682, 0.006022416055202484, 0.046088941395282745, 0.053886137902736664, -0.05028131231665611, -0.014756452292203903, 0.04535416513681412, -0.06729313731193542, -0.028496209532022476, 0.011316843330860138, -0.020824015140533447, 0.04849628359079361, -0.05403706058859825, 0.02902805060148239, -0.011901482939720154, 0.026831187307834625, 0.038224197924137115, -0.043046653270721436, -0.028585176914930344, 0.030782483518123627, 0.006607659161090851, -0.03124042972922325, 0.008871294558048248, 0.05946917086839676, -0.04255785048007965, 0.0233321413397789, -0.021816615015268326, 0.05083216726779938, -0.014315854758024216, 0.025099843740463257, -0.060261718928813934, -0.05703974515199661, 0.06495048850774765, 0.030934147536754608, -0.028569620102643967, 0.04709213972091675, -0.04270947724580765, 0.03453661501407623, 0.05784658342599869, -0.034659091383218765, -0.04985808953642845, 0.027941331267356873, -0.020203381776809692, 0.06531413644552231, 0.039669692516326904, -0.009826648980379105, 0.011597387492656708, 0.010432340204715729, 0.037409745156764984, 0.010674931108951569, -0.03518650680780411, 0.05872113257646561, 0.036299869418144226, 0.03282251954078674, 0.04806283116340637, 0.037623628973960876, -0.007159732282161713, 0.05968352407217026, -0.0034658536314964294, 0.06222287565469742, 0.06645766645669937, 0.02399895340204239, -0.05581703409552574, -0.021337289363145828, 0.047200895845890045, 0.0057619065046310425, 0.06038980931043625, -0.05663566663861275, -0.057366993278265, -0.051319919526576996, -0.03610169142484665, -0.04351718723773956, 0.0037823840975761414, 0.0030143186450004578, 0.039896540343761444, -0.026176612824201584, 0.012413829565048218, -0.040146604180336, -0.032438330352306366, 0.04090862721204758, 0.0508745014667511, -0.038758017122745514, 0.02735617756843567, -0.06247584894299507, 0.04317465424537659, -0.04679331183433533, 0.0267757847905159, 0.05968388170003891, -0.02179240807890892, 0.043485842645168304, -0.004760362207889557, -0.03434907644987106, -0.04476930946111679, 0.03134048730134964, -0.022750645875930786, -0.05199810117483139, 0.005533643066883087, -0.05178175866603851, 0.03817489743232727, 0.06369336694478989, -0.0007122457027435303, 0.01185569167137146, -0.04544919729232788, -0.011603523045778275, -0.03782685101032257, -0.006416253745555878, 0.01661602407693863, -0.05288480967283249, 0.026844382286071777, -0.021812740713357925, -0.04063413292169571, -0.04622648283839226, 0.050647057592868805, 0.03785490244626999, 0.06243496388196945, 0.01371368020772934, -0.06069666147232056, -0.001812666654586792, -0.031046997755765915, 0.04760812222957611, -0.014941509813070297, -0.0424095019698143, -0.0034387633204460144, 0.03161339461803436, 0.0076268017292022705, 0.002081349492073059, -0.06289733201265335, -0.0209534652531147, 0.006925106048583984, -0.05857016146183014, -0.029268059879541397, 0.013052299618721008, 0.023412875831127167, 