#define SIZE_INPUT 561
#define SIZE_LAYER_1 80
#define SIZE_LAYER_2 40
#define SIZE_OUTPUT 12
#include "ap_fixed.h"

ap_fixed<24,8> weights_layer_1[SIZE_LAYER_1][SIZE_INPUT] = {{-0.027822425588965416, 0.04083167016506195, 0.05199456214904785, 0.08456379175186157, 0.027423197403550148, 0.0667419359087944, 0.07293801754713058, 0.01978217624127865, 0.0673222541809082, 0.04582197964191437, 0.09797246009111404, 0.06193527206778526, -0.02824554406106472, -0.04122346267104149, -0.04405869543552399, 0.020145732909440994, 0.09673558175563812, 0.025245727971196175, 0.0780978798866272, 0.07961539924144745, 0.05968369171023369, 0.0962052270770073, 0.04882282763719559, 0.0354146845638752, 0.07420307397842407, -0.07031964510679245, 0.02791900373995304, -0.0902460366487503, 0.03459518030285835, -0.04817802086472511, 0.030786750838160515, -0.04053732752799988, -0.012141134589910507, -0.07674682885408401, 0.08394452184438705, -0.058936964720487595, 0.08694295585155487, -0.06810610741376877, 0.032455846667289734, -0.026996644213795662, -0.08491198718547821, -0.050535649061203, -0.036302223801612854, 0.02904701791703701, 0.02121347188949585, 0.0831812396645546, 0.017880551517009735, 0.02808075025677681, 0.07788736373186111, -0.07288600504398346, -0.030590422451496124, -0.0694674476981163, -0.05228498578071594, -0.08364425599575043, -0.052045661956071854, 0.020640483126044273, -0.08919084072113037, 0.026795068755745888, 0.06420116126537323, 0.05209611728787422, 0.10161317884922028, 0.06116168200969696, 0.09647943079471588, 0.03428228944540024, 0.06976542621850967, 0.05203115567564964, -0.02097569964826107, 0.07327696681022644, -0.056110844016075134, 0.03250950947403908, -0.09502117335796356, 0.04559866338968277, -0.03724924847483635, 0.03725271299481392, -0.07763950526714325, 0.022816922515630722, -0.01982303149998188, 0.10030289739370346, 0.03618086501955986, -0.05691622570157051, -0.060583438724279404, -0.05754146724939346, 0.03195567429065704, 0.03412032872438431, 0.05414262413978577, 0.02781563065946102, 0.06517023593187332, 0.03882748633623123, 0.02693755179643631, 0.058301180601119995, 0.04234999790787697, 0.0775388851761818, -0.026051146909594536, -0.08502493053674698, -0.07343792915344238, 0.05300690606236458, 0.019170615822076797, 0.019151756539940834, 0.0768735408782959, 0.05770339071750641, 0.03872181475162506, 0.1005869060754776, 0.018467267975211143, 0.09788206964731216, 0.020421674475073814, -0.08563874661922455, -0.038285695016384125, -0.07054203748703003, -0.07258417457342148, -0.08929181098937988, 0.07295184582471848, -0.02583087794482708, -0.04569479450583458, -0.018444985151290894, -0.09263600409030914, -0.09436546266078949, -0.08508902788162231, -0.06638570129871368, -0.056934844702482224, 0.06080688163638115, 0.06220085918903351, 0.035526618361473083, 0.049154166132211685, 0.06373516470193863, 0.07231588661670685, 0.03158090263605118, 0.08898833394050598, 0.05700201541185379, 0.07569752633571625, 0.0980808436870575, 0.082496777176857, 0.07687854021787643, -0.07611408829689026, -0.08974865078926086, -0.045222215354442596, 0.09482704102993011, 0.08289942890405655, 0.06353867799043655, 0.09472457319498062, 0.04537872597575188, 0.043307628482580185, 0.041598524898290634, 0.03730758652091026, 0.058446045964956284, 0.01957615837454796, -0.02999279461801052, 0.01761741377413273, -0.07977406680583954, 0.0754600241780281, 0.058013640344142914, -0.07648374885320663, -0.098143070936203, -0.033997129648923874, -0.020046966150403023, 0.06337150931358337, -0.07680413872003555, -0.06793592870235443, 0.028027096763253212, -0.04849373176693916, 0.07743283361196518, 0.05123165249824524, 0.03829072415828705, 0.08031442761421204, 0.054941318929195404, 0.07591386884450912, 0.06862068921327591, 0.08903642743825912, 0.040371932089328766, 0.022485213354229927, 0.06318774819374084, 0.024787062779068947, 0.0207934882491827, -0.028975889086723328, -0.06361078470945358, -0.031483203172683716, 0.07925243675708771, 0.09563843905925751, 0.06806174665689468, 0.09839120507240295, 0.04283876717090607, 0.03381988778710365, 0.05808144062757492, 0.05111433193087578, 0.08529181033372879, 0.055073320865631104, -0.05500049516558647, -0.07660628110170364, -0.0924466922879219, -0.04440588131546974, 0.03894102945923805, -0.019700948148965836, -0.02104625664651394, -0.09649208188056946, -0.07749434560537338, 0.033972714096307755, -0.0176058541983366, -0.08109204471111298, 0.09731578826904297, -0.02573305368423462, 0.05265756696462631, 0.047704067081213, 0.09115217626094818, 0.053503867238759995, 0.05429137870669365, 0.0673636868596077, 0.02086718939244747, 0.058308009058237076, 0.08197256922721863, 0.04364428296685219, -0.06409989297389984, 0.033833421766757965, -0.06570851802825928, 0.08055771142244339, 0.05798462778329849, 0.02941342629492283, 0.0693751722574234, 0.029055945575237274, 0.09689321368932724, 0.0769544169306755, 0.06367289274930954, 0.026963604614138603, 0.10201533883810043, -0.10080809891223907, 0.05817371606826782, -0.09443812072277069, 0.024619286879897118, 0.0712757408618927, 0.08898495882749557, 0.07556570321321487, 0.10024110227823257, 0.05669230967760086, 0.02979910746216774, 0.07000786811113358, 0.05666311830282211, 0.06648166477680206, -0.06378395855426788, 0.02167082391679287, 0.04480855539441109, -0.020006151869893074, 0.08500667661428452, 0.09541402012109756, 0.07174214720726013, 0.09618809074163437, 0.06754188984632492, 0.06471315026283264, 0.05476769432425499, 0.0429384671151638, -0.03722359985113144, -0.08729773014783859, 0.04727593809366226, -0.038568638265132904, 0.05512912943959236, 0.03438995033502579, 0.05279376357793808, 0.07746203243732452, 0.04581436142325401, 0.09007881581783295, 0.0268259234726429, 0.09461101144552231, 0.058782245963811874, 0.08874987810850143, -0.06999997049570084, 0.07815860211849213, 0.022542713209986687, -0.06981103867292404, 0.07037775218486786, 0.07740341871976852, 0.020635712891817093, 0.09385036677122116, 0.07770722359418869, 0.07948493957519531, 0.039073243737220764, 0.0962824672460556, 0.04331760108470917, 0.0799114927649498, 0.025969499722123146, 0.05753004178404808, 0.07412947714328766, 0.018238555639982224, 0.04721513390541077, 0.04116560518741608, 0.06132902204990387, 0.0400439128279686, 0.06624102592468262, 0.08168086409568787, 0.07025455683469772, 0.02967238985002041, 0.04311195760965347, 0.06428149342536926, 0.08627098798751831, 0.02237539365887642, 0.020768944174051285, 0.02366049215197563, -0.07767199724912643, -0.042333729565143585, -0.031741268932819366, 0.08886841684579849, 0.08532314747571945, 0.055148135870695114, 0.05380222946405411, 0.09317623823881149, 0.03979738429188728, 0.07171627879142761, 0.06736908107995987, 0.039899058640003204, 0.04907965660095215, 0.036537494510412216, 0.09572196751832962, 0.09304264932870865, 0.09878966212272644, 0.07609690725803375, 0.043186720460653305, 0.0713806003332138, 0.021001221612095833, 0.09214992076158524, 0.07021846622228622, 0.09399671852588654, 0.08594298362731934, 0.09135299175977707, 0.05264823138713837, 0.05731680244207382, 0.06352780014276505, 0.03971441090106964, 0.08060131222009659, 0.028605084866285324, 0.08390170335769653, 0.021385936066508293, 0.07978862524032593, 0.09561970084905624, 0.03994603827595711, 0.03663060814142227, 0.02322058007121086, 0.063514344394207, 0.07025697082281113, 0.08920182287693024, 0.06665849685668945, 0.023329434916377068, 0.01924430951476097, 0.022685818374156952, 0.025112537667155266, 0.03452107310295105, 0.0180119127035141, 0.02798827551305294, 0.04035000503063202, 0.06210969761013985, 0.08847609162330627, 0.06865707784891129, 0.06995537877082825, 0.027288248762488365, 0.08039823174476624, 0.06882325559854507, 0.028421882539987564, 0.04286632686853409, 0.022340478375554085, 0.03560411185026169, 0.07768287509679794, 0.06566476821899414, 0.019377363845705986, 0.09039050340652466, 0.04782683402299881, 0.07280389964580536, 0.0962269976735115, 0.03682342916727066, 0.08485326915979385, 0.05081119015812874, 0.07614289224147797, 0.09275184571743011, 0.04589425027370453, 0.04124842584133148, 0.022403141483664513, 0.040769580751657486, 0.050556425005197525, -0.08977256715297699, -0.07303223758935928, -0.05963177606463432, 0.09714420884847641, 0.020569639280438423, 0.060967981815338135, 0.03103971667587757, 0.08460980653762817, 0.06821703910827637, 0.044879499822854996, 0.04712885990738869, 0.0943560004234314, 0.05959595739841461, 0.06519534438848495, 0.08317799866199493, 0.09982668608427048, 0.05012950301170349, 0.06951656192541122, 0.033859748393297195, 0.023777330294251442, 0.06776610016822815, 0.06226072087883949, 0.08129829913377762, 0.035623371601104736, 0.08703126013278961, 0.07538612931966782, 0.04428286477923393, 0.07232186198234558, 0.06984216719865799, 0.07344460487365723, 0.05668134242296219, 0.062191177159547806, 0.06692712754011154, 0.0645735114812851, 0.09653390944004059, 0.06468213349580765, 0.041793983429670334, 0.03466447815299034, 0.050722673535346985, 0.0417822003364563, 0.09566432982683182, 0.03262355178594589, 0.04017127677798271, 0.018532468006014824, 0.06757918745279312, 0.05662363022565842, 0.0699334442615509, 0.028235308825969696, 0.07184936106204987, 0.090987429022789, 0.07631639391183853, 0.07480723410844803, 0.047961462289094925, 0.06141624227166176, 0.026119861751794815, 0.09381673485040665, 0.07769644260406494, 0.08019395172595978, 0.0691867470741272, 0.05695965886116028, 0.07783743739128113, 0.03210043907165527, 0.061800118535757065, 0.07915893942117691, 0.018287520855665207, 0.04931610822677612, 0.09255316108465195, 0.0697922632098198, 0.07113449275493622, 0.04319613799452782, 0.06091691553592682, 0.07819486409425735, 0.09594547748565674, 0.09382503479719162, 0.0593641921877861, 0.06447261571884155, 0.021370764821767807, 0.017455045133829117, 0.07959051430225372, -0.08671558648347855, 0.07119207084178925, -0.06103656068444252, 0.05576924607157707, 0.07993820309638977, 0.09242933243513107, 0.06078517436981201, 0.09700504690408707, 0.06201928108930588, 0.05929131805896759, 0.024026036262512207, 0.04310324043035507, 0.025205694139003754, 0.09920459985733032, 0.02899445779621601, 0.06170054152607918, 0.0601055808365345, 0.04670356586575508, 0.039001528173685074, 0.08909181505441666, 0.03751760348677635, 0.03194454312324524, 0.04168365150690079, 0.06638357043266296, 0.08553013205528259, 0.07553267478942871, 0.06690751016139984, 0.026648202911019325, 0.10209961235523224, 0.08992398530244827, 0.08085303753614426, 0.0368218757212162, 0.08672835677862167, 0.022288767620921135, 0.027713989838957787, 0.03986220061779022, 0.07911580801010132, 0.0677085667848587, 0.07267546653747559, 0.07768936455249786, 0.09979603439569473, 0.05933116748929024, 0.06628753989934921, 0.07183285802602768, 0.049831047654151917, 0.02506120316684246, 0.022226544097065926, 0.07396184653043747, 0.06590291112661362, 0.06643815338611603, 0.04832889139652252, 0.0759091004729271, 0.06092558801174164, 0.07771971076726913, 0.08582331985235214, 0.06779706478118896, 0.06152822822332382, 0.021842237561941147, 0.04030396416783333, 0.0529053658246994, 0.02567027509212494, -0.04879079386591911, 0.03123113326728344, 0.025786545127630234, 0.05408591404557228, 0.0911654457449913, 0.08757726103067398, 0.08746197819709778, 0.06486130505800247, 0.08679161220788956, 0.09382826834917068, 0.04586261138319969, 0.026921061798930168, 0.09910320490598679, -0.03806053847074509, 0.05304652452468872, 0.0401013046503067, 0.08406464755535126, 0.08923766762018204, 0.05680285021662712, 0.09508202970027924, 0.09454105794429779, 0.05129220709204674, 0.04939289763569832, 0.07715108245611191, 0.1026642844080925, 0.02973618172109127, -0.035057682543992996, 0.0888119786977768, 0.09874743223190308, 0.08863592147827148, 0.09648387134075165, 0.08669344335794449, 0.06491315364837646, 0.06518515944480896, 0.07754021883010864, 0.05937832221388817, 0.036588817834854126, 0.03488384187221527, 0.022357022389769554, -0.0874045342206955, 0.044440336525440216, 0.028840666636824608, 0.01750994846224785, -0.05251147598028183, -0.07051961123943329, 0.04567847400903702, 0.0889134630560875, 0.04187875986099243, 0.0950489342212677}, {-0.11438339948654175, 0.08676282316446304, 0.13618391752243042, 0.03148490563035011, 0.033215586096048355, 0.058201029896736145, 0.03099816106259823, 0.08361510932445526, 0.08514054864645004, -0.0012694874312728643, 0.0825662836432457, 0.03441686928272247, -0.08407345414161682, -0.02454287000000477, -0.08908264338970184, 0.046222034841775894, 0.10809529572725296, 0.06729130446910858, 0.10548505187034607, 0.08668980002403259, 0.07070719450712204, 0.05896570533514023, -0.006322257686406374, -0.044998034834861755, 0.018711457028985023, 0.11541429907083511, -0.08345862478017807, 0.1287410706281662, -0.13332980871200562, 0.04724104702472687, -0.10051125288009644, -0.0997459888458252, -0.03552044555544853, -0.02312471531331539, -0.06666656583547592, -0.05100502818822861, 0.15024591982364655, -0.01286883745342493, 0.029809357598423958, -0.013127132318913937, -0.07973866164684296, 0.0787685289978981, -0.03844829648733139, 0.09646032005548477, 0.036151375621557236, 0.04203762114048004, 0.08069261908531189, 0.04503059759736061, 0.03228180855512619, -0.022678235545754433, 0.06277436017990112, -0.034582652151584625, -0.046034906059503555, 0.0695008635520935, 0.051285333931446075, 0.004468913190066814, -0.003518109442666173, 0.029789507389068604, 0.04880277067422867, 0.03513619676232338, 0.06252405792474747, 0.09943950921297073, 0.10906900465488434, 0.08388888835906982, 0.038884714245796204, 0.10512001812458038, -0.0844481885433197, 0.0309981107711792, -0.06269922852516174, 0.030216095969080925, -0.013896698132157326, 0.04349524900317192, -0.07586353272199631, 0.08607030659914017, -0.07892259210348129, 0.08127866685390472, -0.03655736520886421, -0.11895892769098282, -0.08292786031961441, 0.11790753155946732, -0.06738000363111496, -0.011548873968422413, 0.07945875078439713, 0.07268698513507843, 0.06844674050807953, 0.07445432245731354, 0.05462637171149254, 0.055310409516096115, 0.09011667221784592, 0.03315996751189232, 0.09942927956581116, 0.10566641390323639, -0.038112230598926544, -0.07117397338151932, -0.02734522894024849, 0.09989866614341736, 0.09965721517801285, 0.029780255630612373, 0.07592814415693283, 0.0716344490647316, 0.09969376772642136, 0.08945368230342865, -0.09203436225652695, -0.04851631075143814, -0.09620323032140732, 0.11366822570562363, -0.06481751054525375, -0.08330217748880386, -0.051699623465538025, 0.05440033599734306, 0.04261523485183716, -0.06611720472574234, -0.10229513049125671, 0.01695089600980282, -0.13157308101654053, -0.08577288687229156, -0.04916614294052124, 0.08340495079755783, 0.04439541697502136, -0.04318705573678017, -0.03734799474477768, 0.050039734691381454, 0.03621377795934677, 0.10180098563432693, 0.024447839707136154, 0.027912018820643425, 0.09470758587121964, 0.07850296050310135, 0.04938897490501404, 0.09804563224315643, 0.10491154342889786, 0.06696443259716034, -0.040580909699201584, -0.039676178246736526, -0.03258008882403374, 0.04205400496721268, 0.08826008439064026, 0.04444701969623566, 0.03180461749434471, 0.0374823734164238, 0.07754747569561005, 0.04209944233298302, -0.051213786005973816, -0.012918515130877495, -0.023417489603161812, 0.07561379671096802, -0.018564555794000626, -0.023571040481328964, 0.022159093990921974, 0.045016516000032425, -0.0868752971291542, 0.12289790064096451, -0.07088945806026459, 0.05243333429098129, -0.06761012226343155, 0.10533014684915543, -0.112439826130867, 0.1431954801082611, 0.09514463692903519, -0.05078757926821709, 0.08762621879577637, 0.10577665269374847, 0.07159510999917984, 0.05027325078845024, 0.05589013919234276, 0.106414794921875, 0.033414892852306366, 0.08473138511180878, 0.10643088817596436, 0.09717816859483719, 0.04674820229411125, 0.10388299822807312, -0.07023368030786514, -0.03276647627353668, -0.030620671808719635, 0.04206383228302002, 0.08397115767002106, 0.05462295934557915, 0.100979745388031, 0.049170054495334625, 0.04636397212743759, 0.08980725705623627, -0.09079362452030182, -0.12881740927696228, -0.12410237640142441, 0.0558982715010643, -0.11926263570785522, 0.04074428603053093, -0.08858966827392578, 0.048473700881004333, -0.0913555696606636, -0.07915829122066498, -0.10778291523456573, 0.09957104921340942, -0.006307663396000862, -0.028475068509578705, -0.044709451496601105, -0.09674310684204102, -0.022339556366205215, 0.10343824326992035, 0.04031534492969513, 0.03797314688563347, 0.062475722283124924, 0.02673276886343956, 0.09720945358276367, 0.05587959662079811, 0.10106811672449112, 0.06365904957056046, -0.12762588262557983, 0.04746053367853165, -0.0787830650806427, -0.06468158960342407, -0.04491504281759262, 0.0909338966012001, 0.04103277251124382, 0.08179088681936264, 0.034904468804597855, 0.029775917530059814, 0.04988430067896843, 0.07039817422628403, 0.08673050999641418, -0.07541797310113907, 0.02142670750617981, -0.04199353978037834, -0.032632697373628616, -0.012822759337723255, 0.09998010098934174, 0.0656229704618454, 0.031225092709064484, 0.09894980490207672, 0.07125953584909439, 0.08081047236919403, 0.07895874977111816, 0.092019222676754, -0.08153846114873886, -0.049751847982406616, -0.05417753756046295, 0.09887588769197464, -0.09337412565946579, 0.015516404062509537, 0.039745841175317764, 0.04489876329898834, 0.0697450041770935, 0.05810772627592087, 0.07221248000860214, 0.07126779109239578, 0.05150926858186722, -0.11840339004993439, 0.0812719464302063, 0.03210126981139183, -0.10548969358205795, 0.04441392421722412, 0.03236910328269005, 0.05063974857330322, 0.04224979132413864, 0.06224382296204567, 0.06169454753398895, 0.06958185136318207, 0.10400956869125366, 0.052089184522628784, -0.11656733602285385, -0.044919081032276154, 0.09173119068145752, 0.08210113644599915, 0.04445120692253113, 0.04950999468564987, 0.06751014292240143, 0.036652084439992905, 0.10114558041095734, 0.09778555482625961, 0.07412423938512802, 0.0436086505651474, 0.05342821404337883, 0.08208203315734863, 0.03112267516553402, 0.035394471138715744, 0.0746028870344162, 0.06183183193206787, 0.05660272017121315, 0.03535977005958557, 0.02292456664144993, 0.1125698909163475, 0.09506513923406601, 0.08841387927532196, 0.06022902950644493, 0.09370739758014679, 0.04557144269347191, -0.11328240483999252, -0.040415287017822266, -0.06544885784387589, 0.031970635056495667, 0.093950554728508, 0.05246247723698616, 0.08994287997484207, 0.07909894734621048, -0.009671391919255257, -0.06095356494188309, 0.049838583916425705, 0.11708242446184158, 0.0488036647439003, 0.10958655923604965, 0.07194853574037552, 0.10134034603834152, 0.06808745861053467, 0.06265950202941895, 0.048463474959135056, 0.05522812157869339, 0.0308282021433115, 0.0749991238117218, 0.03806283324956894, 0.04301444813609123, 0.08172883838415146, 0.08025592565536499, 0.1062016636133194, 0.03628779202699661, 0.06665678322315216, 0.029449230059981346, 0.027674078941345215, 0.04078610613942146, 0.04868454113602638, 0.06759990006685257, 0.03915746510028839, 0.07392283529043198, 0.09008624404668808, 0.043143220245838165, 0.08010738343000412, 0.08056913316249847, 0.09597647190093994, 0.07931399345397949, 0.030442891642451286, 0.04645202308893204, 0.0790000706911087, 0.0386570505797863, 0.0358576700091362, 0.05125701427459717, 0.11170252412557602, 0.055017564445734024, 0.03787145018577576, 0.08936020731925964, 0.06413957476615906, 0.0531674288213253, 0.038754742592573166, 0.09271515160799026, 0.11268490552902222, 0.061464257538318634, 0.043370991945266724, 0.02831694856286049, 0.06448395550251007, 0.020264357328414917, 0.09754028171300888, 0.0508868582546711, 0.0772649347782135, 0.04016793146729469, 0.07187400013208389, 0.0996561199426651, 0.09553389251232147, 0.04447630047798157, 0.11191534250974655, 0.08903390169143677, 0.05590122193098068, 0.10463743656873703, 0.03763807564973831, 0.05526234954595566, 0.0748562440276146, 0.06840579956769943, 0.08319446444511414, -0.0905541479587555, -0.08109607547521591, -0.024547381326556206, 0.07031004875898361, 0.08675956726074219, 0.04224521294236183, 0.090592160820961, 0.07081149518489838, 0.02770722098648548, 0.03648173063993454, 0.058840736746788025, 0.04230257868766785, 0.058433838188648224, 0.0635608360171318, 0.06071275845170021, 0.08472124487161636, 0.057462841272354126, 0.038441479206085205, 0.07676569372415543, 0.07671196758747101, 0.03400477021932602, 0.03550171107053757, 0.06706910580396652, 0.05588894337415695, 0.104530468583107, 0.06266782432794571, 0.057837653905153275, 0.11141352355480194, 0.10734304040670395, 0.09889719635248184, 0.08549737930297852, 0.06574441492557526, 0.10645332932472229, 0.07719448208808899, 0.06288708746433258, 0.10626236349344254, 0.03468459099531174, 0.05346797779202461, 0.046418000012636185, 0.07318221777677536, 0.07546699047088623, 0.047784190624952316, 0.10587876290082932, 0.0311075858771801, 0.061943598091602325, 0.08652282506227493, 0.03632345423102379, 0.10114366561174393, 0.08565042167901993, 0.06552543491125107, 0.031053327023983, 0.07423225790262222, 0.10192366689443588, 0.07543714344501495, 0.04511918127536774, 0.07788629829883575, 0.09346944093704224, 0.09132009744644165, 0.08542841672897339, 0.09839848428964615, 0.0807846412062645, 0.06750292330980301, 0.07917359471321106, 0.06500831246376038, 0.03441948816180229, 0.018834063783288002, 0.04639793932437897, 0.08202045410871506, 0.07459735125303268, 0.11182055622339249, 0.09073786437511444, 0.0382399782538414, 0.0576704703271389, 0.10857678949832916, 0.04997549206018448, 0.06449849158525467, 0.07830579578876495, 0.10034554451704025, 0.046491704881191254, -0.12316881865262985, -0.07267892360687256, -0.03488598018884659, 0.06704417616128922, 0.0667068138718605, 0.09428384155035019, 0.07091639935970306, 0.05561623349785805, 0.08588669449090958, 0.036686260253190994, 0.03829493373632431, 0.13226348161697388, 0.03354677930474281, 0.14525479078292847, 0.06693629175424576, 0.10016308724880219, 0.09627805650234222, 0.09624326229095459, 0.053652022033929825, 0.11030855029821396, 0.07824496924877167, 0.07947326451539993, 0.0675470158457756, 0.10015185177326202, 0.06315914541482925, 0.10279789566993713, 0.0965229794383049, 0.04781753942370415, 0.08261828869581223, 0.03454165160655975, 0.06311090290546417, 0.054146114736795425, 0.07738851755857468, 0.06964392215013504, 0.09317459166049957, 0.10594618320465088, 0.03727222606539726, 0.038552604615688324, 0.04266907274723053, 0.04661722481250763, 0.11087849736213684, 0.0346793457865715, 0.08882731199264526, 0.08560475707054138, 0.06322134286165237, 0.06423795223236084, 0.058165475726127625, 0.07618184387683868, 0.07443927228450775, 0.0586453415453434, 0.056570302695035934, 0.07019342482089996, 0.046070396900177, 0.08580797165632248, 0.0318589024245739, 0.0313945934176445, 0.05629698932170868, 0.03853357955813408, 0.03486745432019234, 0.09496399015188217, 0.09869059175252914, 0.08025946468114853, 0.03715641051530838, 0.1053672730922699, 0.10833927243947983, -0.10775686055421829, 0.09339574724435806, -0.09671991318464279, 0.07566428184509277, 0.09618167579174042, 0.038649339228868484, 0.07083883136510849, 0.04190429300069809, 0.08628188818693161, 0.09342185407876968, 0.06542826443910599, 0.09454089403152466, 0.03035278432071209, -0.05322415754199028, 0.05370716750621796, -0.042309295386075974, 0.04677288234233856, 0.08630829304456711, 0.026996014639735222, 0.08643418550491333, 0.06135892868041992, 0.06225673481822014, 0.09912949800491333, 0.040128178894519806, 0.07451529800891876, 0.027239922434091568, -0.12065670639276505, 0.037893880158662796, -0.0010837879963219166, 0.09993376582860947, 0.048823051154613495, 0.03698050603270531, 0.07608106732368469, 0.044661372900009155, 0.02546747773885727, 0.08775101602077484, 0.02978532947599888, 0.036886364221572876, 0.05459364876151085, -0.012562583200633526, 0.10063197463750839, -0.1091434434056282, 0.03921310603618622, 0.09214474260807037, -0.023525401949882507, -0.07868131250143051, 0.06902362406253815, -0.05653667449951172, 0.017471345141530037, -0.018556907773017883, 0.011321761645376682}, {-0.02635663002729416, -0.08468522876501083, 0.0743439570069313, 0.05314698815345764, 0.0734315738081932, 0.05866574868559837, 0.05819440260529518, 0.04205324500799179, 0.029861651360988617, 0.03439002484083176, 0.043120186775922775, 0.08807440102100372, -0.020780134946107864, -0.04913383722305298, -0.07582441717386246, 0.042367011308670044, 0.023899946361780167, 0.054321322590112686, 0.05438562110066414, 0.09380937367677689, 0.04739761725068092, 0.09947001934051514, 0.018509067595005035, 0.039518579840660095, 0.06516581773757935, 0.09895694255828857, -0.09999433159828186, 0.0799587294459343, -0.08554854243993759, -0.09353691339492798, 0.07588722556829453, -0.10319355875253677, -0.09154613316059113, -0.060967739671468735, 0.030993139371275902, -0.04557020589709282, 0.02510734088718891, 0.058117106556892395, 0.05870724469423294, 0.05854569002985954, -0.08109547197818756, -0.06773442029953003, -0.021486688405275345, 0.036084793508052826, 0.10244544595479965, 0.03758492320775986, 0.06938175857067108, 0.08935368806123734, 0.0388917550444603, -0.031503766775131226, -0.07284567505121231, -0.03614911064505577, -0.037794072180986404, -0.047799643129110336, -0.0270261000841856, -0.06017374247312546, -0.1163952425122261, 0.07716603577136993, 0.10206679254770279, 0.028717881068587303, 0.08664809912443161, 0.03173272684216499, 0.029262525960803032, 0.054976269602775574, 0.03401844948530197, 0.03474196791648865, -0.10060437023639679, 0.09658090770244598, -0.09493470191955566, 0.05710431560873985, -0.024565739557147026, 0.06640862673521042, -0.04025819152593613, 0.07927709072828293, -0.0348750501871109, 0.09651519358158112, -0.02713804878294468, 0.01675296388566494, -0.021773265674710274, 0.023154260590672493, -0.03683158755302429, 0.06069325655698776, 0.0751744881272316, 0.025250114500522614, 0.07522277534008026, 0.09205294400453568, 0.07579869031906128, 0.05720606446266174, 0.046321772038936615, 0.02353663556277752, 0.028161289170384407, 0.06926276534795761, -0.07513469457626343, -0.08453923463821411, -0.05112903565168381, 0.07361515611410141, 0.09039393067359924, 0.0854496881365776, 0.04400821402668953, 0.0590660460293293, 0.05382517725229263, 0.07323413342237473, 0.08982275426387787, 0.04518773406744003, 0.05326877534389496, 0.011334944516420364, -0.029072368517518044, -0.09102517366409302, -0.028689514845609665, -0.03741830959916115, 0.03970444202423096, -0.06723661720752716, -0.04249759018421173, -0.03645530343055725, -0.11055803298950195, -0.09323050826787949, -0.03438896685838699, 0.11429622769355774, -0.02024351991713047, 0.04280015081167221, 0.053398650139570236, 0.009362253360450268, 0.08251029253005981, 0.05786879360675812, 0.09446609020233154, 0.041044242680072784, 0.02158234268426895, 0.08270543813705444, 0.05878985673189163, 0.029684551060199738, 0.05913994461297989, 0.09046521037817001, -0.04615098983049393, -0.06293138116598129, -0.0578254796564579, 0.0663510411977768, 0.09743282943964005, 0.040413595736026764, 0.07945331186056137, 0.04154866561293602, 0.02850550413131714, 0.04292944073677063, 0.07536061108112335, 0.0607806071639061, 0.08184836804866791, -0.027976058423519135, 0.03257546201348305, -0.04345816746354103, 0.07635102421045303, 0.09129294753074646, -0.07702488452196121, -0.05619839206337929, -0.11167953163385391, -0.08483322709798813, 0.052291322499513626, -0.03146173432469368, 0.04676717892289162, -0.0009272883180528879, 0.02186533994972706, 0.012494945898652077, 0.043050169944763184, 0.04800288379192352, 0.03155945613980293, 0.06178261712193489, 0.07226651161909103, 0.05530504137277603, 0.04141821712255478, 0.04682440683245659, 0.01794152520596981, 0.042548272758722305, 0.0961606502532959, 0.07291825860738754, -0.07705239951610565, -0.09915625303983688, -0.028742143884301186, 0.0538371242582798, 0.0767168253660202, 0.07056308537721634, 0.04083176702260971, 0.09712055325508118, 0.027040012180805206, 0.04325925186276436, 0.02105289325118065, 0.0898420512676239, 0.05123147740960121, -0.09653677046298981, -0.06143975257873535, -0.05952432006597519, -0.09459748864173889, 0.06416928023099899, -0.10899478197097778, -0.025876129046082497, -0.030147496610879898, -0.09548346698284149, 0.02486424893140793, -0.0480395071208477, -0.09651175886392593, -0.005874685011804104, -0.06818214803934097, -0.01956011727452278, 0.0994095504283905, 0.025620296597480774, 0.034250687807798386, 0.03706753998994827, 0.03783336281776428, 0.05803338810801506, 0.062385983765125275, 0.03989686816930771, 0.01666857674717903, -0.04071590676903725, 0.07219763100147247, -0.0973532572388649, 0.061936113983392715, 0.05045923963189125, 0.02959197387099266, 0.08590351045131683, 0.09651735424995422, 0.08033745735883713, 0.08176437765359879, 0.062365733087062836, 0.07951594144105911, 0.04497849941253662, -0.09504954516887665, 0.07309114933013916, -0.10018276423215866, 0.033553268760442734, 0.06986797600984573, 0.0968066155910492, 0.025442393496632576, 0.07498408854007721, 0.07175354659557343, 0.03798430413007736, 0.07017124444246292, 0.04248416796326637, 0.04596938565373421, -0.09659883379936218, 0.020381039008498192, 0.045281436294317245, -0.03339318186044693, 0.021648231893777847, 0.017697326838970184, 0.07514441013336182, 0.0782594159245491, 0.021141309291124344, 0.016908226534724236, 0.09881702065467834, 0.0561424195766449, 0.061185967177152634, -0.013981391675770283, 0.04115041345357895, -0.1025860607624054, 0.11207868158817291, 0.05681758001446724, 0.08271060138940811, 0.03641205653548241, 0.023086080327630043, 0.06757377833127975, 0.06820742785930634, 0.07515456527471542, 0.021773532032966614, 0.07439234852790833, -0.08154251426458359, 0.10235973447561264, 0.021102383732795715, -0.07945221662521362, 0.02194644697010517, 0.07451203465461731, 0.029154304414987564, 0.04993121325969696, 0.0816996693611145, 0.059886910021305084, 0.04798523709177971, 0.05443189665675163, 0.01577690988779068, 0.0303410105407238, 0.10271399468183517, 0.08803940564393997, 0.06387292593717575, 0.08711843192577362, 0.07228557765483856, 0.06581809371709824, 0.028332583606243134, 0.02079462818801403, 0.07662748545408249, 0.06076713278889656, 0.05700638145208359, 0.03465423360466957, 0.0863388404250145, 0.044350530952215195, 0.05231887847185135, 0.08968129754066467, 0.04578976705670357, 0.07913172245025635, 0.04120562970638275, 0.06337204575538635, -0.07237572222948074, -0.028701335191726685, 0.0932554304599762, -0.040917206555604935, 0.06380289047956467, 0.08526097238063812, 0.06036587059497833, 0.021187519654631615, 0.06249479204416275, 0.045463927090168, 0.09720126539468765, 0.06327425688505173, 0.05980956181883812, 0.054152291268110275, 0.06961491703987122, 0.0930580273270607, 0.02671852707862854, 0.08169901371002197, 0.09847331792116165, 0.04451450705528259, 0.08876626938581467, 0.022471092641353607, 0.07110658288002014, 0.035117052495479584, 0.050789885222911835, 0.07086440175771713, 0.021553710103034973, 0.04062483087182045, 0.05213905870914459, 0.06783469021320343, 0.08036813884973526, 0.03449276462197304, 0.0983072891831398, 0.026843007653951645, 0.0389908142387867, 0.02484029531478882, 0.05383588373661041, 0.01805381290614605, 0.09718958288431168, 0.07174002379179001, 0.0677500069141388, 0.025876149535179138, 0.06653459370136261, 0.051008619368076324, 0.062379758805036545, 0.023351898416876793, 0.07188265025615692, 0.09524868428707123, 0.06354498118162155, 0.08665649592876434, 0.07629671692848206, 0.046953748911619186, 0.017104730010032654, 0.07857695966959, 0.08638367801904678, 0.04422079771757126, 0.07650408893823624, 0.0370466448366642, 0.03706471621990204, 0.05137219280004501, 0.037266068160533905, 0.10279429703950882, 0.08640407770872116, 0.05626220256090164, 0.06324852257966995, 0.09259055554866791, 0.09675737470388412, 0.061647895723581314, 0.05275677517056465, 0.05038772150874138, 0.040508005768060684, 0.07614082098007202, 0.05992196500301361, 0.046538982540369034, 0.04500429332256317, 0.04258865490555763, 0.03262375667691231, -0.013449445366859436, 0.07292438298463821, -0.0905751958489418, 0.09392685443162918, 0.07675062865018845, 0.07785020768642426, 0.0796583816409111, 0.08321273326873779, 0.09782864153385162, 0.08774270117282867, 0.025000691413879395, 0.051752299070358276, 0.03867453336715698, 0.023012781515717506, 0.0640125721693039, 0.024200472980737686, 0.07223039865493774, 0.09603477269411087, 0.04844965413212776, 0.08537939935922623, 0.0998205617070198, 0.0535275824368, 0.07603217661380768, 0.0525917187333107, 0.03613356128334999, 0.05411604791879654, 0.08212199807167053, 0.044985488057136536, 0.04076292738318443, 0.04785406216979027, 0.09847258776426315, 0.04745778068900108, 0.05747364088892937, 0.08791893720626831, 0.09045612812042236, 0.08889000862836838, 0.0188013706356287, 0.05917561799287796, 0.08310306072235107, 0.04025375470519066, 0.059661246836185455, 0.055062681436538696, 0.07553362101316452, 0.056087903678417206, 0.07145707309246063, 0.09761054813861847, 0.08753687888383865, 0.02835911326110363, 0.06841098517179489, 0.03736297786235809, 0.033891018480062485, 0.055179815739393234, 0.0191876832395792, 0.09530729800462723, 0.08194158971309662, 0.05066102743148804, 0.035754233598709106, 0.017901552841067314, 0.04772649705410004, 0.052764084190130234, 0.07478521764278412, 0.09636988490819931, 0.02492227777838707, 0.06297026574611664, 0.05796195566654205, 0.044229887425899506, 0.04074404761195183, 0.02195104956626892, 0.08211570978164673, 0.0942574292421341, 0.020892348140478134, 0.06848746538162231, 0.03591740131378174, 0.0811302587389946, 0.07479983568191528, 0.08548223227262497, 0.07448647171258926, 0.0817844495177269, 0.09708406031131744, -0.07457779347896576, 0.045807987451553345, 0.042583201080560684, 0.0505986250936985, 0.028423694893717766, 0.06491371989250183, 0.05461638793349266, 0.04204506799578667, 0.08461404591798782, 0.061416689306497574, 0.068093441426754, 0.06311637908220291, 0.08271275460720062, 0.09924930334091187, 0.026525892317295074, 0.08275056630373001, 0.10506217181682587, 0.048122916370630264, 0.026795489713549614, 0.017052331939339638, 0.07243376970291138, 0.037903666496276855, 0.07717292010784149, 0.06547323614358902, 0.05409210920333862, 0.049106355756521225, 0.01952051930129528, 0.08759824931621552, 0.04055222123861313, 0.039712920784950256, 0.050355084240436554, 0.0941505879163742, 0.029171360656619072, 0.08663565665483475, 0.08734681457281113, 0.061819061636924744, 0.04645955562591553, 0.0767412856221199, 0.028280645608901978, 0.07585446536540985, 0.09648113697767258, 0.09377206116914749, 0.09507737308740616, 0.09635017067193985, 0.0441746860742569, 0.03628043830394745, 0.032790735363960266, 0.09442054480314255, 0.09197914600372314, 0.07529789954423904, 0.026765279471874237, 0.07186808437108994, 0.04708579555153847, 0.07751590758562088, 0.02045721560716629, 0.040373750030994415, 0.02735958993434906, 0.04915977641940117, 0.07473510503768921, 0.07410722225904465, 0.046530693769454956, 0.04710165411233902, -0.016524065285921097, 0.11923927813768387, 0.08223585039377213, 0.039441972970962524, 0.09966979175806046, 0.07102798670530319, 0.06921955198049545, 0.06710342317819595, 0.06087840348482132, 0.06018359959125519, 0.0964803695678711, 0.07338334619998932, -0.06290959566831589, 0.048061568289995193, 0.09343958646059036, 0.08752840012311935, 0.03973468765616417, 0.01846497692167759, 0.02022656984627247, 0.040753960609436035, 0.062291547656059265, 0.07402335852384567, 0.09540209174156189, 0.03872719407081604, 0.029009472578763962, 0.0171583853662014, -0.04800741747021675, 0.09877461940050125, 0.06345850229263306, 0.0662933960556984, 0.040588196367025375, 0.05119532346725464, 0.04365720599889755, 0.05367802456021309, 0.08888345211744308, 0.06271222233772278, 0.08153805881738663, 0.10262350738048553, -0.049869511276483536, 0.1057327389717102, 0.10542438924312592, -0.10359083116054535, 0.06051640957593918, -0.10163954645395279, 0.04780810698866844, 0.04091371223330498, 0.03988099843263626, 0.04200385883450508}, {-0.03800052031874657, -0.5052154660224915, -0.20991140604019165, -0.022122254595160484, -0.02042882889509201, -0.024139966815710068, 0.016482731327414513, -0.03522133082151413, -0.005079085938632488, 0.01779659278690815, -0.1024591475725174, -0.013025138527154922, 0.02259155735373497, 0.024181196466088295, 0.04250716418027878, -0.10158766061067581, -0.031226305291056633, -0.016259975731372833, -0.07357999682426453, -0.05158451944589615, -0.057071901857852936, -0.07648006826639175, 0.10431048274040222, -0.04644053056836128, 0.07386419177055359, -0.23711363971233368, 0.11916549503803253, 0.09986130893230438, 0.28595632314682007, 0.03715531900525093, -0.021155890077352524, 0.07843780517578125, 0.3618915379047394, -0.03192136064171791, -0.07053081691265106, 0.2414458692073822, 0.3844614326953888, 0.16787876188755035, -0.05156814679503441, -0.20935188233852386, -0.3553107678890228, 0.5113943219184875, 0.205812007188797, -0.04490681365132332, -0.06177188828587532, 0.004962816834449768, -0.03247378021478653, -0.018747566267848015, -0.051510535180568695, -0.3864416778087616, 0.5110659003257751, 0.21670223772525787, -0.3207733631134033, 0.5325798392295837, 0.2275097817182541, 0.031808603554964066, -0.3866302967071533, 0.27905339002609253, 0.25741565227508545, 0.005961732007563114, -0.0065071480348706245, -0.018756244331598282, 0.07256406545639038, 0.14216941595077515, -0.149277463555336, -0.08229168504476547, 0.0954485535621643, -0.09878522902727127, 0.08120311796665192, 0.06495077908039093, -0.0363972932100296, 0.005469776690006256, 0.025506002828478813, 0.01619669608771801, 0.00397104024887085, 0.04532581940293312, 0.008056568913161755, 0.3073369264602661, 0.11267411708831787, -0.1567915678024292, -0.0013612161856144667, 0.6677327156066895, 0.02773662470281124, -0.017194826155900955, -0.05725821480154991, -0.03972416743636131, 0.02391020581126213, -0.01661691442131996, -0.04400308430194855, -0.04804379865527153, -0.025190481916069984, -0.054770149290561676, -0.03183501958847046, 0.053711164742708206, 0.05179145932197571, 0.005175648722797632, -0.032394763082265854, -0.003064575605094433, 0.006724206265062094, -0.045764531940221786, -0.023480702191591263, -0.008460375480353832, 0.036947332322597504, -0.13124720752239227, -0.006084847263991833, -0.2870107591152191, -0.44928598403930664, -0.15194576978683472, -0.010141801089048386, -0.03070085495710373, -0.18349739909172058, 0.09547561407089233, -0.06563133001327515, -0.198674738407135, -0.5108863711357117, -0.17791645228862762, 0.18343901634216309, 0.011367807164788246, 0.2333327829837799, 0.1446668803691864, -0.006525990087538958, -0.4351588189601898, 0.08946003764867783, -0.06723753362894058, -0.022616881877183914, -0.0746631920337677, -0.04321780055761337, -0.00043329858453944325, -0.08635038137435913, -0.007136533502489328, 0.010299915447831154, -0.0848492756485939, 0.06754577904939651, 0.0207191314548254, 0.1011747419834137, -0.0323290191590786, -0.01302194781601429, -0.002677943091839552, -0.06472835689783096, -0.06903194636106491, -0.02428850345313549, -0.0719296857714653, -0.3326614797115326, 0.0005620807642117143, 0.06860638409852982, 0.5391160249710083, -0.15907777845859528, -0.09435617923736572, -0.44952040910720825, -0.1821444183588028, 0.2101765125989914, 0.09685107320547104, -0.29713159799575806, 0.04368596896529198, 0.07079735398292542, -0.030984679237008095, -0.2669026553630829, -0.2545143663883209, 0.07318360358476639, 0.20465928316116333, -0.08707521855831146, -0.026693573221564293, -0.27067598700523376, -0.06812995672225952, -0.051693838089704514, 0.007199449464678764, -0.07420150935649872, 0.003211537143215537, -0.034392938017845154, -0.06824284791946411, -0.054600171744823456, -0.06563222408294678, 0.0006818611873313785, 0.031804148107767105, 0.02217191830277443, -0.057205334305763245, -0.01119156926870346, -0.03111245110630989, -0.03590838238596916, -0.04908206686377525, -0.032957956194877625, -0.00248539331369102, -0.23770754039287567, 0.107691690325737, -0.11859312653541565, 0.5849093198776245, 0.6021448969841003, 0.6536726951599121, 0.13129955530166626, -0.1705305427312851, 0.24236051738262177, 0.2833264470100403, -0.20601968467235565, 0.14813248813152313, 0.1252584308385849, 0.11265569180250168, -0.132530078291893, 0.36411088705062866, -0.035918399691581726, -0.0664205551147461, -0.10046446323394775, -0.01942792721092701, -0.04314529523253441, -0.0010802597971633077, -0.032015372067689896, -0.030095942318439484, -0.05812934786081314, -0.07031232863664627, 0.057830650359392166, -0.011413680389523506, -0.05112370848655701, 0.09940848499536514, 0.07357946038246155, -0.023922760039567947, -0.03223985433578491, -0.04628356173634529, -0.034274131059646606, -0.04959344118833542, -0.09932267665863037, -0.04443259537220001, -0.005668818950653076, 0.07838359475135803, 0.004375995136797428, -0.061388470232486725, 0.0832068994641304, 0.05778109282255173, -0.017137011513113976, -0.012126093730330467, -0.021505653858184814, -0.061944279819726944, -0.05607729032635689, 0.011951330117881298, 0.0034745773300528526, -0.005460490472614765, -0.04068654030561447, -0.02900615707039833, 0.10406675934791565, -0.03748749569058418, 0.023244846612215042, -0.07111631333827972, -0.008311116136610508, -0.06063711643218994, -0.06761668622493744, -0.02106800302863121, -0.02042575180530548, -0.0017606312176212668, -0.01732139103114605, 0.05188293755054474, 0.14114268124103546, -0.031414058059453964, -0.033000729978084564, -0.3127371370792389, -0.06669075042009354, -0.008902552537620068, -0.05792301520705223, -0.022836536169052124, 0.006470040883868933, 0.010368556715548038, 0.0013595303753390908, -0.04686575382947922, -0.055927958339452744, 0.08958031237125397, -0.15419335663318634, -0.12580068409442902, 0.2504311203956604, -0.03805704042315483, -0.06013040244579315, -0.06650009751319885, -0.04447075352072716, -0.06491686403751373, -0.0777958482503891, 0.012902644462883472, -0.07308720052242279, -0.07374778389930725, -0.01790170930325985, -0.05945936590433121, -0.07133182138204575, 0.006520301569253206, -0.06961958855390549, 0.016234474256634712, -0.04710011184215546, 0.011645163409411907, -0.07866449654102325, -0.004469986539334059, -0.002554780337959528, -0.017791371792554855, -0.06401730328798294, -0.008898144587874413, -0.07536942511796951, 0.016712211072444916, -0.000518913846462965, 0.0228546354919672, 0.03941204398870468, -0.25290408730506897, 0.12229381501674652, -0.0056328726932406425, 0.3075231611728668, 0.22662802040576935, -0.1381884217262268, -0.06799377501010895, -0.22619615495204926, -0.09740526974201202, -0.03520317003130913, -0.022847365587949753, -0.004534535575658083, 0.01230567041784525, -0.041814934462308884, 0.03389786556363106, -0.05472945421934128, -0.028672795742750168, -0.0300509724766016, 0.01998770609498024, -0.03404831886291504, -0.023387465626001358, 0.04088960960507393, -0.04216500744223595, -0.04515950009226799, -0.06411388516426086, -0.025521893054246902, -0.05019023269414902, -0.06650453060865402, -0.010526271536946297, -0.05459143966436386, -0.032061271369457245, -0.0445156954228878, 0.01402935292571783, -0.07200095057487488, -0.061672985553741455, 0.0053341141901910305, -0.04237755015492439, -0.037995219230651855, -0.009934769943356514, 7.435149746015668e-05, -0.02304821088910103, 0.0019249458564445376, -0.012092681601643562, -0.05318669229745865, 0.008155055344104767, -0.04930207505822182, -0.004703947808593512, -0.009206945076584816, -0.035450831055641174, -0.013031593523919582, 0.016266345977783203, -0.011744261719286442, -0.0823577493429184, -0.02228420414030552, -0.016099683940410614, -0.09010180830955505, -0.033452536910772324, -0.011977548711001873, -0.0812070220708847, -0.020721562206745148, -0.04182550683617592, -0.004772994201630354, -0.02273583970963955, -0.025321053341031075, -0.02235719934105873, 0.01564769446849823, 0.005764248315244913, 0.015188782475888729, -0.009423932991921902, -0.03205818682909012, -0.055339787155389786, -0.06476492434740067, -0.06926911324262619, -0.07778937369585037, -0.14058533310890198, -0.002543059177696705, -0.27314144372940063, -0.10011571645736694, -0.22716648876667023, -0.23390212655067444, -0.09353334456682205, -0.29012051224708557, 0.09572486579418182, 0.048924919217824936, -0.02565617673099041, -0.041247300803661346, 0.04670531675219536, -0.017316928133368492, 0.03010142780840397, 0.00889717135578394, -0.0082410778850317, -0.029737554490566254, 0.014188159257173538, -0.01141972653567791, -0.013166206888854504, -0.04586638882756233, 0.022309301421046257, 0.0023633919190615416, -0.00718114385381341, -0.02456139214336872, -0.039757635444402695, 0.005069485865533352, -0.021729962900280952, -0.04891081899404526, -0.04773038998246193, -0.051073670387268066, -0.012562360614538193, -0.028560247272253036, -0.05771316587924957, -0.03337603807449341, -0.024980254471302032, -0.01599595695734024, -0.043277449905872345, -0.012351791374385357, -0.004755691159516573, -0.030925903469324112, -0.02995006926357746, -0.005578501615673304, 0.009153787046670914, -0.0010309404460713267, -0.009746580384671688, -0.04755328968167305, 0.018349310383200645, -0.03371674567461014, -0.030898749828338623, 0.0037480087485164404, -0.0422317236661911, -0.015557955950498581, -0.0030623632483184338, -0.004921951796859503, -0.027239779010415077, 0.007998187094926834, -0.08180047571659088, -0.0960722491145134, -0.02236679196357727, -0.03468974679708481, -0.07557065784931183, -0.028915777802467346, -0.07296083867549896, -0.05511009320616722, -0.06958958506584167, -0.08440981060266495, -0.06396076083183289, -0.003221972147002816, -0.060010891407728195, -0.016117705032229424, -0.009602004662156105, -0.039575111120939255, -0.06360320746898651, -0.00012380351836327463, 0.016915926709771156, -0.05913395434617996, -0.23063932359218597, 0.038082305341959, -0.09605220705270767, -0.012972824275493622, -0.013701445423066616, -0.028714152052998543, 0.6420598030090332, -0.07575532048940659, 0.1799234300851822, -0.16362254321575165, 0.023284289985895157, 0.2847341299057007, 0.13432709872722626, -0.025162572041153908, 0.0021412717178463936, -0.004738843999803066, -0.003477715887129307, 0.017400402575731277, -0.05470239371061325, -0.0008506015292368829, 0.013356187380850315, -0.021356578916311264, -0.02930896170437336, -0.05378126725554466, -0.032780446112155914, -0.060139250010252, -0.038325585424900055, -0.04132826253771782, -0.0465351827442646, -0.02079184725880623, -0.03410009294748306, 0.017892874777317047, -0.0412573367357254, -0.045231908559799194, -0.04167575761675835, -0.034379251301288605, -0.008853713050484657, -0.0037833021488040686, -0.0379500538110733, -0.02053823508322239, -0.05003482475876808, -0.03884732723236084, -0.02146514505147934, -0.039957839995622635, -0.008855790831148624, -0.0031992290169000626, -0.04276559501886368, -0.05521983653306961, -0.04892236739397049, 0.007816535420715809, -0.043079521507024765, -0.042855698615312576, -0.01187252625823021, 0.02064375765621662, -0.04443871229887009, -0.06068585440516472, -0.05545772984623909, -0.02978215366601944, 0.004905117675662041, -0.035481877624988556, -0.03134870529174805, -0.03683540225028992, -0.048965610563755035, -0.046318043023347855, -0.00835033692419529, 0.022347867488861084, 0.004162308294326067, 0.07658069580793381, 0.007618440315127373, 0.006524364463984966, -0.03244275972247124, -0.048731639981269836, -0.023543378338217735, -0.0677703395485878, 0.006215416826307774, -0.02678774669766426, -0.038888804614543915, -0.02212897315621376, -0.10123924165964127, -0.03573191538453102, -0.0006904546171426773, -0.11140795797109604, -0.04199942573904991, -0.057029105722904205, -0.01731828786432743, -0.046943116933107376, -0.05842748284339905, -0.0026670994702726603, -0.06586596369743347, -0.003597587812691927, -0.01887892372906208, -0.05864911898970604, -0.05445059388875961, 0.14601923525333405, -0.03649025410413742, 0.009800578467547894, -0.0408574715256691, -0.06959199160337448, -0.019118715077638626, 0.0006831114878877997, 0.004830780904740095, -0.010774824768304825, -0.012237373739480972, -0.025143036618828773, -0.08904257416725159, -0.026836641132831573, 0.016688013449311256, -0.09287159889936447, -0.06730632483959198, -0.14089128375053406, -0.3085748553276062, -0.08877818286418915, -0.10553284734487534, 0.3626525104045868, -0.5149728655815125, -0.18061277270317078}, {-0.19716495275497437, -0.1622280776500702, 0.2170989066362381, -0.018443627282977104, -0.031742338091135025, -0.07099119573831558, -0.056032147258520126, -0.040123116225004196, -0.05505363643169403, -0.12871286273002625, -0.037229426205158234, -0.008921205066144466, -0.0033264232333749533, 0.09266965091228485, 0.031718842685222626, -0.045598629862070084, -0.00738153699785471, -0.016162211075425148, 0.02017166279256344, -0.008752790279686451, -0.05204662308096886, -0.004244904033839703, -0.14076393842697144, -0.16695360839366913, 0.0030263361986726522, 0.08869083225727081, -0.14089129865169525, 0.13384130597114563, 0.04427251219749451, 0.07981977611780167, -0.19450245797634125, 0.04979703202843666, -0.18707510828971863, 0.15152812004089355, -0.21788473427295685, 0.21750690042972565, -0.1841418743133545, 0.3026496469974518, 0.1085849478840828, -0.19529792666435242, -0.3124901354312897, 0.04306858777999878, 0.04766807332634926, -0.023992860689759254, 0.02530146948993206, -0.01519669871777296, 0.018718315288424492, -0.033646952360868454, -0.012117092497646809, -0.28419655561447144, 0.029544752091169357, 0.021403249353170395, -0.2501533031463623, 0.06366950273513794, -0.0046408227644860744, -0.25961434841156006, -0.31888923048973083, 0.23780809342861176, 0.1972927302122116, 0.04414280876517296, 0.00557670509442687, 0.03595464676618576, -0.020009513944387436, -0.03676959127187729, 0.007421321235597134, 0.0303183626383543, -0.013815983198583126, 0.008290558122098446, 0.0049126786179840565, -0.006966146640479565, 0.020664863288402557, 0.00642266683280468, -0.016817305237054825, 0.05695235729217529, -0.03114561177790165, 0.06344782561063766, -0.013835450634360313, 0.266836553812027, 0.028188008815050125, -0.12890008091926575, 0.11247463524341583, -0.36788299679756165, -0.31628623604774475, -0.07025659084320068, -0.08348002284765244, -0.0033360032830387354, -0.029315950348973274, -0.08769864588975906, -0.056947141885757446, -0.05416962504386902, -0.009616253897547722, -0.029816091060638428, 0.05349975451827049, 0.06606877595186234, 0.04500249773263931, -0.08394291251897812, -0.045698799192905426, 0.010506312362849712, 0.0016338397981598973, -0.06197869032621384, -0.08056219667196274, -0.06437564641237259, -0.18396589159965515, -0.2090008407831192, -0.23996248841285706, 0.06532944738864899, -0.25418761372566223, -0.07397247850894928, 0.042263638228178024, 0.10604885220527649, -0.1437716782093048, 0.0024544047191739082, 0.15151260793209076, 0.19204667210578918, -0.15898118913173676, 0.09039666503667831, 0.13890241086483002, 0.09074056148529053, -0.08686850965023041, -0.27677488327026367, 0.5030254125595093, -0.17183490097522736, 0.1636764407157898, -0.013649233616888523, -0.07903950661420822, -0.10086731612682343, -0.05070158466696739, -0.1046178787946701, -0.1012893095612526, 0.033680498600006104, -0.0025815623812377453, -0.057924944907426834, 0.009310600347816944, 0.06170142814517021, 0.06664574146270752, -0.05004161596298218, -0.005257162265479565, -0.045244764536619186, -0.06220679357647896, -0.05904902517795563, -0.10408163070678711, -0.0732286274433136, 0.339659720659256, -0.2918103337287903, -0.30501869320869446, -0.3342495262622833, 0.06243154779076576, 0.06261745095252991, 0.21136227250099182, 0.20003633201122284, -0.16794033348560333, 0.22463591396808624, -0.0496966615319252, 0.23601201176643372, -0.28797316551208496, 0.33530232310295105, -0.04239920526742935, 0.04521387070417404, -0.2262536883354187, 0.1935318410396576, -0.008743724785745144, -0.09467098116874695, 0.02877131849527359, -0.02706214226782322, -0.03558769077062607, -0.05297940596938133, -0.02328963205218315, 0.005468199960887432, 0.012334140948951244, -0.03279435634613037, 0.004297435749322176, -0.031011711806058884, 0.04788990318775177, 0.0327189601957798, 0.04735838994383812, 0.0025022481568157673, -0.023822586983442307, -0.013110984116792679, 0.02210032194852829, -0.0039006874430924654, -0.04477733001112938, -0.0401315800845623, -0.06552451103925705, -0.25419047474861145, -0.23284848034381866, -0.3931140899658203, -0.37157678604125977, -0.44469359517097473, 0.03553139790892601, 0.18713609874248505, -0.060092661529779434, 0.06414853036403656, 0.37694400548934937, 0.13397236168384552, -0.15808337926864624, -0.04399930685758591, 0.30827149748802185, -0.09298423677682877, -0.21264643967151642, -0.19188697636127472, -0.08111707866191864, 0.008052809163928032, -0.003453881712630391, -0.08685482293367386, -0.05830958113074303, -0.039816852658987045, -0.021893076598644257, -0.016382193192839622, -0.11726173758506775, -0.02780955284833908, -0.003194121178239584, -0.05502834543585777, 0.12593044340610504, -0.06690415740013123, -0.06009215861558914, -0.016544802114367485, -0.028847672045230865, -0.005190927069634199, -0.10328876972198486, -0.009418421424925327, -0.05208800360560417, -0.163270503282547, -0.05283181369304657, 0.02486909180879593, -0.07245965301990509, 0.07427448034286499, -0.036080263555049896, -0.02278110943734646, -0.0175949539989233, -0.04720112308859825, -0.0020786402747035027, -0.030174924060702324, -0.00916074588894844, -0.04053294658660889, -0.23456722497940063, -0.010683923028409481, -0.06350944936275482, 0.05342377722263336, -0.2942376434803009, -0.07497261464595795, 0.006079936865717173, -0.07334563881158829, -0.05442182347178459, 0.017467346042394638, -0.12408255785703659, -0.026242442429065704, -0.056402359157800674, -0.04723334312438965, -0.1481068730354309, 0.01710747927427292, 0.042222071439027786, -0.05292240157723427, 0.02152332477271557, 0.02116493508219719, -0.016584498807787895, 0.013542503118515015, 0.0019289746414870024, -0.03602444753050804, 0.008618286810815334, -0.0039901104755699635, -0.16050267219543457, -0.07391691207885742, 0.17934343218803406, 0.07824268937110901, -0.03858982026576996, -0.009378249756991863, -0.0745527520775795, -0.08014000207185745, -0.08670179545879364, -0.055338792502880096, -0.03310206159949303, -0.07817599922418594, -0.07854603976011276, -0.07624346762895584, -0.07623898983001709, -0.053689368069171906, -0.02444072812795639, -0.027930185198783875, 0.0374334454536438, -0.026910146698355675, -0.02917330153286457, 0.0038568584714084864, -0.02901993691921234, 0.029461519792675972, -0.005616029724478722, -0.02157680131494999, -0.023969821631908417, -0.17634309828281403, -0.1683741956949234, -0.17723321914672852, -0.004332147538661957, 0.03906110301613808, -0.017426660284399986, 0.08228155970573425, -0.023338092491030693, 0.06924789398908615, -0.025197304785251617, 0.009623394347727299, 0.11195383220911026, 0.02903737686574459, -0.018544485792517662, 0.007289031054824591, 0.0032655743416398764, -0.006146589759737253, -0.027448028326034546, -0.030982596799731255, -0.03944879770278931, -0.004649729002267122, 0.01420629769563675, 0.03319811448454857, -0.041420385241508484, -0.042845986783504486, -0.02613365277647972, -0.024959789589047432, -0.04073834791779518, 0.009511880576610565, 0.02740766853094101, -0.02045757882297039, -0.028607573360204697, -0.012784795835614204, 0.033478520810604095, 0.014870003797113895, 0.004511113278567791, -0.03957483917474747, -0.0026168597396463156, -0.015864672139286995, -0.02547118254005909, 0.03216465562582016, -0.04483328387141228, -0.008610731922090054, -0.04309229180216789, 0.03141642361879349, -0.01577817089855671, 0.037628985941410065, 0.011586295440793037, 0.038512274622917175, -0.01701035536825657, -0.016955101862549782, -0.005254185292869806, 0.038164179772138596, 0.02370576746761799, 0.03199312835931778, 0.021353704854846, 0.03064299374818802, -0.011817136779427528, -0.010561258532106876, -0.0025648486334830523, -0.010040435940027237, -0.08087996393442154, -0.06091826409101486, -0.08839435130357742, -0.017031220719218254, 0.002742346143350005, -0.06695689260959625, -0.055791761726140976, 0.009147890843451023, -0.01606679894030094, -0.03979019820690155, 0.0026304980274289846, -0.0778827965259552, -0.004785315599292517, -0.02706107683479786, 0.01672416739165783, -0.04433460161089897, -0.05365116894245148, -0.005249862093478441, -0.17846189439296722, -0.2050369679927826, -0.13463780283927917, 0.011921132914721966, -0.007200464140623808, 0.003069416619837284, 0.05997340381145477, 0.07476669549942017, 0.16127876937389374, -0.06272157281637192, 0.009854626841843128, -0.026465022936463356, 0.01596902310848236, 0.0049387686885893345, -0.0202318262308836, 0.026870664209127426, 0.01404119934886694, 0.006971429102122784, -0.03122611902654171, -0.040158189833164215, -0.04103560000658035, -0.02295966073870659, 0.015500931069254875, 0.025318274274468422, -0.012488242238759995, 0.030005695298314095, -0.02288779243826866, -0.04077795147895813, -0.011720978654921055, 0.0004239012487232685, -0.03133690729737282, 0.0017834700411185622, -0.03560742735862732, 0.031200284138321877, -0.01527944765985012, -0.028355590999126434, 0.023741232231259346, 0.0019170052837580442, 0.01192244328558445, 0.011185276322066784, -0.037545181810855865, 0.006592739373445511, 0.028812168166041374, 0.004619833547621965, 0.030966848134994507, 0.014226635918021202, 0.041193265467882156, 0.036948759108781815, -0.006083116866648197, 0.025521403178572655, 0.023133130744099617, 0.010664156638085842, 0.00348330638371408, -0.012465430423617363, 0.024944160133600235, -0.024429170414805412, 0.02293410897254944, -0.02915026806294918, -0.02485995553433895, -0.07680755108594894, 0.019399035722017288, -0.10252014547586441, -0.032263536006212234, -0.05383922532200813, -0.03862321749329567, -0.11317239701747894, -0.046233881264925, -0.07410389184951782, -0.054086893796920776, 0.012184121645987034, -0.015814388170838356, 0.00626196525990963, -0.0147119564935565, 0.027816670015454292, 0.014851322397589684, 0.020884182304143906, -0.020894857123494148, -0.05333031713962555, -0.046570390462875366, 0.02245204523205757, -0.26512444019317627, -0.25565633177757263, 0.0033781719394028187, -0.0166085883975029, -0.008521963842213154, -0.44901248812675476, 0.32017430663108826, 0.2188243269920349, 0.16788330674171448, 0.05252130329608917, -0.35749921202659607, -0.08360524475574493, -0.3772934377193451, -0.14800408482551575, 0.020800115540623665, 0.029868312180042267, 0.041462935507297516, 0.01347396057099104, -0.03167574852705002, 0.03725659102201462, 0.03831886872649193, -0.006035821512341499, -0.01936996914446354, 0.004129225853830576, -0.012388201430439949, 0.0032769504468888044, 0.016827674582600594, 0.011529533192515373, -0.02781912498176098, -0.014213957823812962, -0.031828176230192184, -0.006570939905941486, -0.011305337771773338, -0.018697811290621758, -0.02966010943055153, -0.004188275896012783, -0.033968113362789154, -0.003676175605505705, -0.009994756430387497, -0.02972351759672165, 0.003203427419066429, 0.004203775431960821, -0.03078516758978367, 0.028394779190421104, 0.03733523190021515, -0.005118114408105612, 0.015631651505827904, -0.003835442243143916, 0.017175452783703804, -0.01724223420023918, 0.014166572131216526, 0.023172110319137573, 0.008190294727683067, -0.03964933007955551, 0.022500015795230865, 0.0009536267025396228, -0.035387903451919556, -0.017283253371715546, -0.001771335257217288, -0.0467626117169857, 0.05418834090232849, -0.05376714840531349, 0.0025912325363606215, -0.03497441112995148, -0.14818954467773438, -0.025916751474142075, -0.05769309774041176, 0.10261031985282898, 0.07483810186386108, -0.04591456428170204, -0.028558731079101562, -0.019103586673736572, -0.012857941910624504, -0.056843552738428116, -0.05194094777107239, -0.022653156891465187, -0.04385286197066307, -0.1706179976463318, -0.006648056674748659, -0.026756837964057922, 0.020339511334896088, 0.03797845542430878, -0.0014870516024529934, -0.05164392292499542, 0.0018699849024415016, -0.003727653995156288, -0.01061093620955944, 0.01046525128185749, -0.037721872329711914, 0.012315159663558006, -0.15081092715263367, 0.041976574808359146, -0.09340447932481766, -0.0655890554189682, -0.02526143752038479, -0.03883207589387894, 0.03447740525007248, -0.05002642422914505, 0.004611587151885033, 0.00550060486420989, 0.020795131102204323, -0.0070589566603302956, 0.01293139811605215, -0.07765477150678635, -0.0319099985063076, -0.13615943491458893, -0.018276073038578033, -0.040359724313020706, -0.2972510755062103, -0.04881426692008972, 0.05748096480965614, 0.22060711681842804, 0.3454180061817169, -0.1336767077445984, -0.06209167093038559}, {0.0634693056344986, 0.6153928637504578, 0.4167057275772095, -0.0037426711060106754, 0.04994935914874077, 0.02316838689148426, 0.0037552067078649998, 0.0596562996506691, -0.007011106703430414, -0.005113949067890644, 0.07839742302894592, 0.037321485579013824, -0.0274306982755661, 0.040363844484090805, 0.029509378597140312, 0.1217268779873848, -0.008922122418880463, 0.026668855920433998, 0.03887614235281944, -0.04820680618286133, 0.04788704589009285, 0.056501563638448715, -0.029555844143033028, 0.26062336564064026, 0.16464480757713318, 0.06802639365196228, 0.10962658375501633, -0.2999306619167328, -0.044497400522232056, -0.189533531665802, 0.24953892827033997, -0.060554586350917816, 0.11154641956090927, -0.1642141193151474, 0.11128345876932144, -0.24137000739574432, 0.16429607570171356, -0.4147685170173645, -0.32816454768180847, 0.2933034300804138, 0.40538763999938965, 0.14540314674377441, -0.09936892241239548, 0.00012634390441235155, 0.09112729132175446, 0.0028335319366306067, 0.038590021431446075, 0.1272849142551422, 0.018274487927556038, 0.4457310140132904, 0.3069758117198944, 0.010715052485466003, 0.3402365744113922, 0.01927504502236843, -0.18600378930568695, 0.5471634268760681, 0.37646105885505676, -0.3472883403301239, -0.2899644076824188, 0.0289334487169981, 0.05565847456455231, 0.012647803872823715, 0.33923858404159546, 0.34258267283439636, -0.08522296696901321, -0.1825559139251709, 0.11892425268888474, -0.09038573503494263, 0.12142514437437057, -0.24892787635326385, 0.3032907247543335, -0.2458360642194748, 0.2891399562358856, -0.281358003616333, 0.30966249108314514, -0.2698987126350403, 0.2576073408126831, -0.340983122587204, 0.03464702516794205, 0.43705305457115173, -0.12770652770996094, -0.005347023252397776, 0.3049154281616211, -0.04907539114356041, -0.12455581873655319, -0.1080295518040657, -0.0495363250374794, -0.11727206408977509, -0.07310208678245544, -0.03664565458893776, -0.08154477179050446, -0.09989380091428757, 0.05126962065696716, 0.07114370912313461, 0.13494664430618286, -0.10382883995771408, -0.11188574880361557, -0.15179812908172607, -0.10394221544265747, -0.05188382789492607, -0.15967346727848053, -0.1347338706254959, -0.0212338138371706, 0.08257561922073364, 0.09480850398540497, 0.10721129924058914, 0.37946146726608276, 0.17418336868286133, -0.007860064506530762, -0.06427158415317535, 0.12119114398956299, 0.09528117626905441, -0.23884157836437225, -0.2232838124036789, -0.15315532684326172, -0.13618934154510498, -0.20787395536899567, -0.35554516315460205, -0.5249307155609131, 0.29800447821617126, -0.7544981837272644, 0.27308911085128784, -0.3007533848285675, -0.01891971006989479, -0.013809056021273136, 0.09177972376346588, -0.04746458679437637, -0.04162067919969559, 0.07688049226999283, -0.038009971380233765, -0.049318768084049225, 0.01358729787170887, -0.02482111193239689, -0.021528368815779686, -0.011138655245304108, 0.15050911903381348, 0.01666009984910488, -0.013174056075513363, 0.017996441572904587, -0.06184796243906021, -0.060523368418216705, 0.166316956281662, -0.6650954484939575, 0.4102834165096283, 0.16049565374851227, 0.6000040769577026, -0.10593950748443604, -0.46621939539909363, -0.01163925975561142, -0.38577908277511597, 0.32729780673980713, -0.3507111668586731, -0.12522470951080322, -0.3178352117538452, 0.41232600808143616, -0.5596282482147217, -0.2585561275482178, 0.18248161673545837, 0.13820092380046844, -0.6959933042526245, -0.15582381188869476, 0.17522387206554413, -0.04335469380021095, -0.12505383789539337, -0.051726385951042175, -0.0686335638165474, -0.16161441802978516, -0.04738877713680267, -0.1047503799200058, -0.11644091457128525, -0.12773774564266205, -0.048483408987522125, 0.08929800987243652, 0.050564736127853394, 0.01715301163494587, -0.0793478935956955, -0.058723241090774536, -0.12013223022222519, -0.12214891612529755, -0.08588925004005432, -0.1051485687494278, -0.07331059128046036, -0.36021482944488525, 0.2911073565483093, 0.21401815116405487, 0.630622386932373, 0.7124021649360657, 0.4190240204334259, -0.19065484404563904, -0.31318968534469604, 0.19820427894592285, -0.12850363552570343, -0.4565648138523102, 0.0315047986805439, 0.3709854483604431, 0.09713055938482285, -0.4976191818714142, -0.07316282391548157, -0.5231403708457947, -0.4057387411594391, 0.16217952966690063, 0.12469571828842163, 0.08694867044687271, 0.16295036673545837, -0.04221167042851448, 0.1212238073348999, 0.059624020010232925, 0.06645382195711136, 0.208854079246521, -0.09187169373035431, 0.13055920600891113, -0.12559691071510315, 0.028678979724645615, 0.09996204078197479, 0.1409057080745697, 0.10579919070005417, 0.12090961635112762, -0.05331490561366081, 0.09982416033744812, 0.05015335604548454, 0.07763998955488205, 0.20068132877349854, -0.1345711350440979, 0.10928498953580856, -0.12221633642911911, -0.021207213401794434, -0.07431644201278687, -0.07220133394002914, -0.11263983696699142, -0.05056346580386162, -0.07014559209346771, -0.11345763504505157, -0.08695511519908905, -0.09856998920440674, 0.08836756646633148, 0.12021812051534653, 0.06119104102253914, -0.2423902302980423, 0.1271049827337265, 0.12732133269309998, 0.03499745950102806, 0.0037499836180359125, 0.017525073140859604, 0.03606894612312317, 0.11656608432531357, 0.05947806313633919, 0.04205887392163277, -0.11201063543558121, 0.008246870711445808, 0.03256112337112427, -0.16990186274051666, 0.18109337985515594, -0.09791216999292374, -0.1193193793296814, -0.09558388590812683, -0.0840223878622055, -0.05059407651424408, -0.06838899850845337, -0.12093199044466019, -0.08669842779636383, 0.0579664446413517, 0.25182056427001953, -0.2468588501214981, -0.37815964221954346, 0.0185580812394619, 0.006650942377746105, 0.05236358195543289, -0.02552616596221924, -0.004418916068971157, 0.019481180235743523, 0.037771206349134445, -0.060691315680742264, 0.07576128840446472, 0.026244208216667175, -0.018176011741161346, 0.06837103515863419, 0.05675068497657776, -0.062371984124183655, -0.05873657763004303, -0.04066988453269005, 0.0483601838350296, -0.05296682193875313, -0.02041587606072426, -0.05157201737165451, -0.042258370667696, -0.08265457302331924, -0.02537177875638008, 0.011231321841478348, 0.09311988949775696, 0.10119561851024628, -0.06774184852838516, -0.17808541655540466, -0.12780223786830902, -0.11717182397842407, -0.2055254578590393, -0.28322887420654297, -0.015759048983454704, -0.03340126946568489, 0.08452704548835754, 0.0550333634018898, 0.05527416616678238, 0.04264390468597412, -0.03844171762466431, -0.09535305202007294, -0.1321566104888916, -0.04822463169693947, -0.09479577094316483, -0.08831585943698883, -0.0315377414226532, -0.03305402770638466, -0.02754269912838936, -0.09896339476108551, -0.09630089998245239, -0.09161552786827087, 0.003913820255547762, -0.05632281303405762, -0.025173544883728027, -0.12111964821815491, -0.05559822544455528, -0.04622063785791397, -0.1123257651925087, -0.07283031195402145, -0.029232457280158997, -0.013932364992797375, -0.03345440700650215, -0.05654939264059067, -0.03955952450633049, -0.004444967024028301, -0.02484186738729477, -0.09592365473508835, -0.010044216178357601, -0.07883376628160477, -0.06449534744024277, -0.05711428076028824, -0.05358590930700302, -0.04136350005865097, -0.02940569818019867, -0.057657431811094284, -0.03189782053232193, -0.1039658710360527, -0.054378803819417953, -0.07113369554281235, 0.012747104279696941, -0.05973108857870102, -0.10469982028007507, -0.10708453506231308, -0.06826845556497574, -0.0998435765504837, -0.18588733673095703, -0.11907095462083817, -0.09702497720718384, -0.11160361766815186, -0.06706640869379044, -0.10894621163606644, -0.18859240412712097, -0.07627999782562256, -0.07331826537847519, -0.057897403836250305, -0.02780364826321602, -0.08796484768390656, -0.0707428827881813, -0.15811455249786377, -0.06473582983016968, -0.07578901946544647, -0.08104182034730911, -0.059124596416950226, 0.022538600489497185, 0.013024993240833282, -0.02510211057960987, -0.030276162549853325, -0.06718645989894867, -0.1613367348909378, 0.09112130850553513, -0.11989365518093109, -0.3162957429885864, -0.13441577553749084, -0.1412794440984726, -0.190684512257576, -0.14198994636535645, -0.11026149988174438, -0.12509877979755402, -0.06946855783462524, -0.10904082655906677, -0.10167199373245239, -0.09291936457157135, -0.03758658096194267, -0.06474589556455612, -0.04519175738096237, -0.07130368053913116, -0.12198077142238617, -0.039947040379047394, -0.029345184564590454, -0.10472491383552551, -0.11968608945608139, -0.09354692697525024, -0.04892170801758766, -0.1320662498474121, -0.07230565696954727, -0.0866704136133194, -0.05861956253647804, -0.06834132969379425, -0.06956449151039124, -0.0567685030400753, -0.1725371778011322, -0.11083810776472092, -0.05463067442178726, -0.056083422154188156, -0.09136273711919785, -0.08640505373477936, -0.08709783107042313, -0.07102195918560028, -0.10266067832708359, -0.09104200452566147, -0.03899972885847092, -0.08475575596094131, -0.0538141205906868, -0.052080683410167694, -0.03970557451248169, -0.05252573639154434, -0.11266548186540604, -0.10206537693738937, -0.09626761823892593, -0.10722362995147705, -0.032280176877975464, -0.07195572555065155, 0.08295899629592896, 0.0021808294113725424, 0.010883036069571972, 0.07970765233039856, -0.00872105360031128, -0.02771526761353016, 0.006506307516247034, -0.007519783917814493, -0.022860750555992126, 0.054500170052051544, -0.026425696909427643, -0.08508571237325668, -0.059355877339839935, 0.006200149655342102, 0.0026828038971871138, -0.037560995668172836, -0.03038826584815979, -0.05648791417479515, -0.02031286247074604, -0.013558842241764069, -0.28701144456863403, 0.23279838263988495, 0.20619601011276245, -0.05461111664772034, -0.18570050597190857, -0.26639318466186523, 0.5748195648193359, -0.472817599773407, -0.4091339111328125, -0.45154568552970886, -0.1846969872713089, 0.13963602483272552, 0.017194263637065887, 0.5006797313690186, 0.2786400020122528, -0.029104193672537804, -0.08493680506944656, -0.06229045242071152, -0.09971651434898376, -0.08391743153333664, -0.07626288384199142, -0.07573189586400986, -0.08399143069982529, -0.03444031998515129, -0.08861832320690155, -0.041331641376018524, -0.09762173891067505, -0.022193873301148415, -0.10576455295085907, -0.06590307503938675, -0.09728868305683136, -0.06897220760583878, -0.033916130661964417, -0.04422736540436745, -0.024599174037575722, -0.030584784224629402, -0.08427084982395172, -0.00855659507215023, -0.054183680564165115, -0.04634639248251915, -0.05570380762219429, -0.037363674491643906, -0.04455532133579254, -0.024425001814961433, -0.06081921234726906, -0.052831511944532394, -0.0768674910068512, -0.05111844465136528, -0.05818859115242958, -0.04280334711074829, -0.0645797997713089, -0.03154521435499191, -0.09277698397636414, -0.03206298500299454, -0.041970252990722656, -0.008625502698123455, -0.09756704419851303, 0.09739235788583755, 0.08355074375867844, 0.0949764996767044, 0.08585099130868912, -0.045851945877075195, 0.06358344852924347, -0.006283208262175322, 0.008870798163115978, 0.1015831008553505, -0.11498547345399857, -0.21779586374759674, 0.12282977998256683, 0.07937144488096237, -0.08541933447122574, -0.07970211654901505, -0.07689737528562546, -0.14268386363983154, -0.07522378861904144, -0.034511517733335495, -0.08174630254507065, -0.10048418492078781, 0.05359726399183273, -0.08126329630613327, 0.012972313910722733, -0.3456347584724426, -0.27859267592430115, -0.039306893944740295, 0.04554600268602371, 0.014566456899046898, 0.014508862048387527, -0.07257972657680511, -0.03571470081806183, -0.0011656297137960792, -0.011813374236226082, 0.06885358691215515, -0.15647001564502716, -0.22381463646888733, 0.012038358487188816, -0.021481160074472427, -0.09427501261234283, -0.09746155887842178, -0.12570685148239136, -0.106169193983078, -0.0722869336605072, -0.07492516934871674, -0.05171032249927521, -0.0820169746875763, -0.03352798894047737, -0.0892929658293724, 0.15752266347408295, -0.10987738519906998, -0.09553728252649307, 0.4118514358997345, 0.30064254999160767, -0.014795230701565742, -0.031813547015190125, -0.40370994806289673, 0.018044209107756615, 0.15758159756660461}, {-0.04363517090678215, -0.08342960476875305, -0.06485293805599213, 0.08928395807743073, 0.08324878662824631, 0.057030532509088516, 0.020371006801724434, 0.06830082088708878, 0.09952415525913239, 0.027249593287706375, 0.0818529799580574, 0.04493001103401184, -0.07177575677633286, -0.04939475283026695, -0.05923127382993698, 0.08744577318429947, 0.09265989065170288, 0.08228882402181625, 0.0455988273024559, 0.07115515321493149, 0.021175282076001167, 0.06343063712120056, 0.04729720950126648, 0.0460861511528492, 0.04444358870387077, -0.06689749658107758, 0.04236878454685211, -0.050804249942302704, 0.04229547455906868, -0.09223546087741852, 0.09042205661535263, -0.032774701714515686, 0.05492735654115677, -0.04943700507283211, 0.09656013548374176, -0.021900326013565063, 0.07235854119062424, -0.07644791156053543, -0.08018089085817337, -0.017400000244379044, -0.046743545681238174, -0.058450859040021896, -0.02807243913412094, 0.06141785904765129, 0.0441083163022995, 0.04618975520133972, 0.07309333235025406, 0.021980656310915947, 0.05446629226207733, -0.053172819316387177, 0.049764085561037064, -0.03443734720349312, -0.08185892552137375, -0.05955048277974129, -0.08754195272922516, 0.01789706014096737, -0.02228616364300251, 0.03155389800667763, 0.07449247688055038, 0.07729735970497131, 0.02864677645266056, 0.016064302995800972, 0.08071881532669067, 0.028134437277913094, 0.0960368886590004, 0.03778214752674103, -0.009419049136340618, 0.05601980537176132, 0.005596885457634926, 0.05571356043219566, -0.027067789807915688, 0.05558020994067192, -0.0252949520945549, 0.06262333691120148, -0.02969484031200409, 0.09719686955213547, -0.06104409322142601, 0.03886474296450615, -0.013631791807711124, -0.047667961567640305, -0.0842064768075943, -0.09702913463115692, 0.09699639678001404, 0.06285940110683441, 0.04150274768471718, 0.06334540992975235, 0.04802463576197624, 0.020147191360592842, 0.10269341617822647, 0.09375900775194168, 0.030542287975549698, 0.06697455048561096, -0.04644262045621872, -0.09550070762634277, -0.05313858762383461, 0.08308995515108109, 0.033464401960372925, 0.09324819594621658, 0.03106394223868847, 0.07619243115186691, 0.05041474476456642, 0.059581391513347626, 0.07136207818984985, 0.08243687450885773, 0.05762895569205284, -0.10092120617628098, -0.041448503732681274, -0.06982441991567612, -0.021675052121281624, -0.032332561910152435, 0.04431487247347832, -0.04244944825768471, -0.05647263303399086, -0.027079928666353226, 0.03643495589494705, -0.035988811403512955, -0.016394997015595436, -0.032300762832164764, -0.0510309673845768, 0.05137104168534279, 0.044424112886190414, 0.042369723320007324, 0.04923855513334274, 0.03780485689640045, 0.07078710198402405, 0.026980051770806313, 0.042574193328619, 0.08491134643554688, 0.09320872277021408, 0.09898670762777328, 0.08321943879127502, 0.06873785704374313, -0.08081068843603134, -0.07674185931682587, -0.023514270782470703, 0.02637627348303795, 0.059280671179294586, 0.022865578532218933, 0.09290996193885803, 0.049987271428108215, 0.05298571661114693, 0.09893689304590225, 0.09653009474277496, 0.10112154483795166, 0.0783754214644432, -0.061717286705970764, 0.037466056644916534, -0.04341530427336693, -0.07860888540744781, -0.050890497863292694, 0.029741453006863594, -0.08979328721761703, -0.010979343205690384, -0.06352552771568298, 0.07983000576496124, -0.04310256987810135, 0.03673776984214783, -0.11149591952562332, -0.07907484471797943, 0.09101399779319763, 0.09531068056821823, 0.0015673545422032475, 0.0048219384625554085, 0.03258673846721649, 0.05364563688635826, 0.0937865823507309, 0.0824587270617485, 0.09519235789775848, 0.07150810211896896, 0.09009900689125061, 0.07161349058151245, 0.0971556156873703, -0.021704858168959618, -0.03606458008289337, -0.05172649398446083, 0.0553462952375412, 0.04533742368221283, 0.06576628237962723, 0.0546649731695652, 0.05188513174653053, 0.07545465230941772, 0.04309253767132759, 0.06741923838853836, 0.03161057457327843, 0.024522941559553146, -0.07205720245838165, 0.03550317510962486, -0.03579576686024666, -0.029817568138241768, -0.036470696330070496, 0.06165343150496483, -0.04794788360595703, -0.08426512777805328, -0.03700941428542137, 0.09592495858669281, -0.04539840295910835, -0.02665826492011547, 0.09039779007434845, -0.030121352523565292, 0.07595939189195633, 0.08191368728876114, 0.02764427289366722, 0.08215898275375366, 0.08087889850139618, 0.08150551468133926, 0.05055012181401253, 0.04256582632660866, 0.10050919651985168, 0.057527314871549606, -0.10030737519264221, 0.05208805948495865, -0.046580929309129715, 0.09591294825077057, 0.04696904495358467, 0.07130542397499084, 0.10041050612926483, 0.0442068912088871, 0.05255255475640297, 0.060362253338098526, 0.026273628696799278, 0.05183705687522888, 0.10202564299106598, -0.01859069988131523, 0.09634619951248169, -0.062347378581762314, 0.08830122649669647, 0.03565217927098274, 0.06890431046485901, 0.09307828545570374, 0.09360641241073608, 0.022456392645835876, 0.05380353704094887, 0.06895112991333008, 0.04017094522714615, 0.05643492564558983, -0.07908134907484055, 0.054024867713451385, 0.023717226460576057, 0.030026664957404137, 0.08145880699157715, 0.06188380718231201, 0.09579639881849289, 0.035820215940475464, 0.05567624792456627, 0.06373855471611023, 0.02329283207654953, 0.10259994864463806, 0.06442555040121078, 0.12593060731887817, 0.019463300704956055, -0.016733648255467415, -0.1148202046751976, 0.03611677139997482, 0.0387403666973114, 0.05402829498052597, 0.03625362738966942, 0.02433314360678196, 0.05605519190430641, 0.06376031041145325, 0.03410545736551285, 0.028211863711476326, -0.018761927261948586, 0.07393589615821838, 0.06516029685735703, 0.06156912073493004, 0.07395826280117035, 0.07551449537277222, 0.045107651501894, 0.04308966547250748, 0.045765213668346405, 0.0491858571767807, 0.05175834521651268, 0.09783995151519775, 0.09357917308807373, 0.09193703532218933, 0.02397758699953556, 0.017721060663461685, 0.04179110750555992, 0.05004681274294853, 0.06839214265346527, 0.05358382314443588, 0.07038071006536484, 0.04492238536477089, 0.08275195956230164, 0.06199124827980995, 0.034294914454221725, 0.0515904426574707, 0.03639424592256546, 0.036276672035455704, 0.04909105971455574, 0.05840011686086655, 0.03812253847718239, 0.03622564673423767, -0.047753315418958664, -0.018203163519501686, -0.050691138952970505, 0.030252892524003983, 0.05239049345254898, -0.025951074436306953, -0.06596852093935013, -0.07855258136987686, 0.06107659637928009, 0.08767952024936676, 0.0915113091468811, 0.09867232292890549, 0.0709570050239563, 0.09214138984680176, 0.0889325737953186, 0.054047245532274246, 0.08199814707040787, 0.09931034594774246, 0.0850951299071312, 0.04579666629433632, 0.07201479375362396, 0.09147196263074875, 0.02169310860335827, 0.08734256774187088, 0.06626582145690918, 0.0407603420317173, 0.032501209527254105, 0.09419964253902435, 0.04425445944070816, 0.03162502497434616, 0.04148765280842781, 0.02803044579923153, 0.03349722921848297, 0.06905455142259598, 0.03409559652209282, 0.04560922086238861, 0.03261922672390938, 0.02891767956316471, 0.06113210320472717, 0.08084101974964142, 0.050560157746076584, 0.09473451972007751, 0.09477831423282623, 0.05634937435388565, 0.06971239298582077, 0.0653320848941803, 0.06924520432949066, 0.06512976437807083, 0.021525993943214417, 0.05141258239746094, 0.018933970481157303, 0.07530858367681503, 0.09889976680278778, 0.10221204906702042, 0.06693146377801895, 0.05953144282102585, 0.030136922374367714, 0.10310330986976624, 0.02167447656393051, 0.06520932912826538, 0.07783094793558121, 0.01993408240377903, 0.046562712639570236, 0.02789572812616825, 0.09477940946817398, 0.048475589603185654, 0.09808707982301712, 0.044856104999780655, 0.07770101726055145, 0.032415419816970825, 0.0708845853805542, 0.0639808401465416, 0.04310472309589386, 0.08218101412057877, 0.07971231639385223, 0.09789041429758072, -0.07373213768005371, 0.04732157289981842, -0.021668385714292526, -0.033322859555482864, -0.0638476014137268, -0.02269742265343666, 0.05293966457247734, 0.059776607900857925, 0.08321545273065567, 0.09353566914796829, 0.03659781068563461, 0.07895966619253159, 0.057918790727853775, 0.04196999594569206, 0.08871421217918396, 0.09801862388849258, 0.04406553879380226, 0.019780557602643967, 0.030196668580174446, 0.08222024142742157, 0.02687700465321541, 0.08504553139209747, 0.02628447115421295, 0.08464768528938293, 0.048700954765081406, 0.09452692419290543, 0.06503219157457352, 0.037755414843559265, 0.08126531541347504, 0.09300722181797028, 0.016742974519729614, 0.040706973522901535, 0.03660242632031441, 0.08126308023929596, 0.07818231731653214, 0.05173945799469948, 0.09640650451183319, 0.03745673596858978, 0.037180595099925995, 0.054131269454956055, 0.0990714430809021, 0.04758588969707489, 0.02669147029519081, 0.02978651411831379, 0.062389519065618515, 0.09622888267040253, 0.0923224613070488, 0.05122070387005806, 0.08724471926689148, 0.021758534014225006, 0.05482734367251396, 0.041652828454971313, 0.07847729325294495, 0.06301357597112656, 0.09133762866258621, 0.06889542192220688, 0.020839571952819824, 0.02769414708018303, 0.023632435128092766, 0.0540410578250885, 0.09791295975446701, 0.03428713232278824, 0.09835966676473618, 0.037668850272893906, 0.03877510875463486, 0.08312010020017624, 0.056014008820056915, 0.0912143737077713, 0.09297475963830948, 0.09434401988983154, 0.03683297336101532, 0.09824097901582718, 0.04278508201241493, 0.04001475125551224, 0.05491555854678154, 0.04259040951728821, 0.047536324709653854, 0.07862405478954315, 0.06888967752456665, 0.01563580147922039, 0.02575601637363434, 0.08615255355834961, 0.05535946413874626, 0.10320891439914703, -0.0373639352619648, 0.08707492053508759, 0.09144554287195206, 0.07361412793397903, 0.05276605486869812, 0.06881412863731384, 0.0788799300789833, 0.03616020083427429, 0.057644668966531754, 0.07285431027412415, 0.06979287415742874, 0.05795056000351906, 0.08426231145858765, 0.08526359498500824, 0.05245564877986908, 0.08189321309328079, 0.023407619446516037, 0.02884856052696705, 0.03504893556237221, 0.04148335009813309, 0.06356301158666611, 0.07203412801027298, 0.03444753959774971, 0.03854180872440338, 0.08985035866498947, 0.02309414930641651, 0.05000648647546768, 0.06884368509054184, 0.09676630795001984, 0.039880648255348206, 0.08901838213205338, 0.08602830767631531, 0.10160846263170242, 0.08495309948921204, 0.024732021614909172, 0.08969862759113312, 0.030839703977108, 0.04061787202954292, 0.09810610115528107, 0.037572454661130905, 0.052756041288375854, 0.0491422675549984, 0.07466749101877213, 0.08934413641691208, 0.019576091319322586, 0.06190219521522522, 0.048701800405979156, 0.0693703219294548, 0.048392947763204575, 0.08080639690160751, 0.0840396136045456, 0.046337634325027466, 0.10094579309225082, 0.029818855226039886, 0.070159412920475, 0.0777282863855362, 0.09051252156496048, 0.030590932816267014, 0.040626220405101776, -0.033203162252902985, 0.04753991961479187, 0.042927201837301254, 0.06392140686511993, 0.027595441788434982, 0.05320722609758377, 0.07890867441892624, 0.08952222019433975, 0.032424893230199814, 0.020060725510120392, 0.06816790997982025, 0.026124833151698112, 0.04670606181025505, -0.09258216619491577, 0.08089492470026016, 0.08246870338916779, 0.04628746956586838, 0.03748584911227226, 0.054524015635252, 0.09372040629386902, 0.07872629165649414, 0.10239993035793304, 0.0501021184027195, 0.04552531614899635, 0.06086112558841705, 0.08783799409866333, 0.048408329486846924, -0.1329466849565506, 0.06448879092931747, 0.0599638856947422, 0.09292414039373398, 0.04664745554327965, 0.06374705582857132, 0.016927871853113174, 0.03962453827261925, 0.06602155417203903, 0.07505727559328079, 0.034290120005607605, 0.0913856253027916, -0.043835289776325226, 0.0745386928319931, 0.09126646816730499, -0.1267552673816681, -0.06326188892126083, -0.034220799803733826, -0.10681305080652237, 0.017470914870500565, -0.03647366538643837, 0.02655850350856781}, {0.22320976853370667, -0.7809049487113953, -0.4191977083683014, -0.11192894726991653, -0.04580648988485336, -0.06474505364894867, -0.10205185413360596, 0.0020901362877339125, -0.054512154310941696, -0.08866851776838303, -0.062424659729003906, -0.08020249754190445, 0.03558752313256264, -0.018888458609580994, 0.06901106983423233, -0.01227408368140459, -0.060698721557855606, -0.02819903939962387, -0.05006003752350807, -0.054141901433467865, -0.006208059377968311, 0.010049673728644848, 0.00584071921184659, -0.281456857919693, -0.2960106432437897, 0.06004513427615166, 0.0028818552382290363, 0.0919235497713089, -0.40658700466156006, 0.018304046243429184, -0.12732724845409393, -0.0031364622991532087, -0.42032691836357117, 0.1480272114276886, -0.21329981088638306, 0.1554402858018875, -0.10907331109046936, 0.35860684514045715, 0.17727315425872803, 0.0027720131911337376, -0.3488789200782776, -0.3768131732940674, -0.10481685400009155, 0.024330081418156624, -0.033631838858127594, -0.032269131392240524, -0.041813306510448456, 0.016549233347177505, -0.056039441376924515, -0.35487130284309387, -0.3960205614566803, -0.09686703979969025, -0.3224320113658905, -0.3921196162700653, -0.10726551711559296, 0.14074309170246124, -0.41630682349205017, 0.29008224606513977, 0.09153454750776291, -0.03241509944200516, -0.030164381489157677, -0.05280038341879845, 0.07653369754552841, -0.16021248698234558, -0.055066872388124466, -0.04337697848677635, -0.016216067597270012, -0.0210722703486681, 0.014118872582912445, -0.19610849022865295, 0.18245141208171844, -0.169593945145607, 0.07225155830383301, -0.07150838524103165, 0.011490953154861927, -0.02490156516432762, 0.005796605255454779, 0.3113805055618286, 0.22038841247558594, -0.08970227837562561, 0.06663825362920761, 0.3971869945526123, -0.2505090832710266, -0.036206021904945374, -0.0928424820303917, -0.04388197138905525, -0.0738992691040039, -0.08060986548662186, -0.0984896644949913, -0.07608401775360107, -0.030658500269055367, -0.05336175858974457, -0.06035567447543144, 0.0563473254442215, 0.032465919852256775, -0.022297602146863937, -0.03270892798900604, -0.04562242329120636, -0.06662055104970932, -0.03348979353904724, -0.02987559512257576, -0.07524649053812027, -0.0788484513759613, -0.10289984941482544, -0.1833842694759369, 0.10674601048231125, 0.34556978940963745, 0.13374491035938263, 0.08033178001642227, 0.1451929658651352, -0.04524701461195946, 0.03228049725294113, 0.05840069428086281, 0.13694052398204803, -0.17560657858848572, 0.08955717831850052, 0.11259710788726807, -0.06788966059684753, -0.24740387499332428, -0.04931233450770378, 0.29417338967323303, 0.19832047820091248, 0.24973641335964203, -0.02012701705098152, -0.006784884724766016, 0.024407649412751198, -0.09280740469694138, -0.06890343129634857, 0.009047133848071098, 0.02159522846341133, -0.030567219480872154, 0.05250655114650726, 0.09659907221794128, 0.041103534400463104, 0.03686172887682915, -0.09597750008106232, -0.027478083968162537, -0.03666787967085838, -0.04255048185586929, -0.05993718281388283, -0.05505013465881348, 0.012651512399315834, 0.2512594759464264, -0.1937471628189087, -0.23131337761878967, -0.3497726619243622, 0.015336557291448116, 0.060230743139982224, 0.2906215488910675, 0.22625528275966644, -0.17779025435447693, 0.2963230013847351, -0.10631171613931656, 0.2913926839828491, -0.2613062262535095, 0.21101069450378418, 0.006300510838627815, 0.2435358315706253, -0.4490182101726532, 0.2106415331363678, -0.08934551477432251, -0.22042599320411682, -0.19775408506393433, 0.004896126221865416, -0.02181585133075714, -0.013490790501236916, 0.031425368040800095, -0.013082104735076427, -0.05928652361035347, -0.043849337846040726, -0.014352569356560707, -0.07237132638692856, 0.04801296815276146, 0.05624594911932945, 0.02022968977689743, -0.021331120282411575, 0.008297431282699108, -0.036285996437072754, -0.04540293663740158, 0.013543977402150631, -0.013985538855195045, -0.07066542655229568, 0.08491462469100952, -0.2014155089855194, -0.08591849356889725, -0.4181188941001892, -0.37144529819488525, -0.4342770576477051, -0.04482423514127731, 0.3550349771976471, 0.0383475199341774, 0.07031811028718948, 0.522905170917511, 0.2303367555141449, -0.12323451042175293, -0.034435223788022995, 0.2363254725933075, -0.5485747456550598, -0.5562899708747864, -0.37758806347846985, -0.03705587983131409, -0.07096843421459198, -0.08469478785991669, -0.10628435760736465, 0.002948825480416417, -0.08199641853570938, -0.009208974428474903, -0.0017567367758601904, -0.16332513093948364, 0.11629818379878998, -0.11564207077026367, 0.11824067682027817, -0.0697469562292099, -0.019122565165162086, -0.06586813181638718, -0.07175785303115845, -0.12515944242477417, -0.006131734699010849, -0.05953604727983475, -0.015791701152920723, -0.058366939425468445, -0.09058909118175507, 0.14032405614852905, -0.16026604175567627, 0.0770459994673729, -0.08540375530719757, -0.08161070942878723, -0.10590773820877075, -0.07517499476671219, -0.05964922904968262, -0.03296284005045891, -0.07470335066318512, -0.0013299976708367467, -0.07763108611106873, -0.17932496964931488, 0.15348465740680695, -0.02457543835043907, -0.018823914229869843, -0.24146845936775208, -0.0687314048409462, -0.007926467806100845, -0.03699338063597679, -0.012286368757486343, -0.09561045467853546, -0.0643988847732544, -0.05248970165848732, -0.04978709667921066, -0.15931198000907898, -0.2739666700363159, 0.05147074535489082, 0.10472311824560165, -0.1109950989484787, -0.03581138327717781, -0.01957262121140957, -0.04217090085148811, -0.030375981703400612, -0.010852607898414135, -0.009504985995590687, 0.004452826920896769, -0.016782835125923157, -0.08137564361095428, 0.02945311926305294, -0.05175524204969406, 0.04769299179315567, -0.23529590666294098, -0.03748760744929314, -0.08357252180576324, -0.0933997631072998, -0.04431154951453209, 0.009610011242330074, -0.07206334918737411, -0.08752111345529556, -0.07878290861845016, -0.0677279531955719, -0.06352885067462921, -0.01579105854034424, 0.00252160825766623, -0.026728197932243347, -0.02174890972673893, -0.061150118708610535, -0.05283210799098015, -0.07528349757194519, -0.05081111937761307, -0.021350562572479248, -0.06695521622896194, -0.022687464952468872, -0.08403263986110687, -0.14070065319538116, -0.14337268471717834, -0.13535915315151215, -0.04420941695570946, -0.0753592848777771, -0.04245293140411377, 0.16179414093494415, -0.2907710373401642, 0.0057279388420283794, -0.08330988138914108, -0.05720468983054161, 0.32116082310676575, 0.1615292727947235, 0.05393889173865318, 0.04351034015417099, -0.06642213463783264, -0.059293147176504135, -0.03654490038752556, 0.008999001234769821, 0.0077152191661298275, 0.005438528954982758, -0.0674525573849678, -0.021407373249530792, -0.06331847608089447, -0.0679292231798172, -0.04757554829120636, -0.04444396495819092, -0.06206443905830383, -0.05356704443693161, -0.04633377492427826, -0.023701943457126617, -0.015913628041744232, -0.015094473026692867, -0.0671105608344078, -0.010301829315721989, -0.03691711276769638, -0.038798220455646515, -0.014318108558654785, -0.014065335504710674, 0.004650181159377098, -0.011327368207275867, -0.0484439954161644, -0.0030029641930013895, -0.028619157150387764, -0.01098466943949461, -0.06926903128623962, -0.0010241689160466194, -0.0387047715485096, -0.07359106093645096, 0.0021828871686011553, -0.06024728715419769, -0.037289511412382126, -0.05499792471528053, -0.07300044596195221, -0.02178145945072174, -0.04863939434289932, -0.0161544531583786, -0.08954481035470963, -0.063406802713871, -0.07665372639894485, -0.06126892566680908, -0.02205132134258747, -0.02483946457505226, -0.04967747628688812, -0.08507060259580612, -0.0751466229557991, -0.04234441742300987, -0.01598626933991909, -0.0676046833395958, -0.006797216832637787, 0.015266709960997105, -0.07961013168096542, -0.07461156696081161, -0.06741643697023392, -0.013142328709363937, -0.07620569318532944, -0.06169446185231209, -0.030134832486510277, -0.05027269944548607, -0.12806741893291473, -0.10593049228191376, -0.1332605630159378, 0.03901400417089462, -0.01106666587293148, -0.02849278226494789, 0.1934613585472107, 0.1514362096786499, 0.13618847727775574, -0.1283697932958603, -0.07222726196050644, -0.057864852249622345, -0.03641635179519653, -0.07371524721384048, 0.010169478133320808, -0.09759051352739334, -0.013672113418579102, -0.03305762633681297, -0.040869202464818954, -0.04731561616063118, -0.044937677681446075, -0.04178232327103615, -0.02198609709739685, -0.0400271862745285, -0.0025292146019637585, -0.04612502455711365, -0.011807209812104702, -0.033585578203201294, -0.03646831214427948, -0.008990011177957058, -0.055722907185554504, -0.02674679085612297, -0.05900614708662033, -0.05035654827952385, -0.030401859432458878, -0.04056086391210556, -0.05240260809659958, -0.03675353154540062, -0.04616039991378784, -0.04696749895811081, -0.046751365065574646, -0.04439987242221832, -0.03427768126130104, -0.0007404160569421947, 0.0008651523967273533, -0.07973234355449677, -0.024644270539283752, -0.03335133567452431, -0.027260107919573784, -0.06580888479948044, -0.011286904104053974, 6.018183194100857e-05, -0.07837168127298355, -0.0009887239430099726, -0.05192608758807182, -0.033233895897865295, -0.02867347188293934, -0.0034077090676873922, -0.07012012600898743, -0.042239829897880554, -0.03026231750845909, -0.041868820786476135, -0.002238254062831402, -0.020674560219049454, -0.030295180156826973, -0.041049934923648834, -0.10697630047798157, -0.04727692902088165, 0.03138488158583641, -0.013453008607029915, -0.0321994312107563, -0.04802512377500534, -0.06216711550951004, -0.07451169937849045, -0.028670011088252068, 0.026161080226302147, -0.0003764007124118507, -0.016018319875001907, -0.040691014379262924, 0.11497647315263748, -0.15780948102474213, -0.16033773124217987, -0.013248822651803493, -0.053271982818841934, -0.09295780956745148, -0.4957026243209839, 0.2419097125530243, 0.05240916088223457, 0.2288384586572647, 0.04139097407460213, -0.1130841076374054, 0.02225356549024582, -0.03232281282544136, -0.03733745217323303, -0.021089112386107445, -0.05177471786737442, 0.009495391510426998, -0.004924823064357042, -0.03186149150133133, 0.01870066113770008, -0.06104537099599838, -0.00011700261529767886, -0.012832986190915108, 0.0006274916231632233, -0.0475417785346508, -0.043197326362133026, -0.0596732459962368, -0.025784868746995926, 0.006288605742156506, -0.019220421090722084, 0.013518830761313438, -0.026831384748220444, -0.021491097286343575, -0.019560201093554497, 0.006936220917850733, -0.005350490100681782, -0.05562339350581169, -0.002834525890648365, -0.009059961885213852, -0.0159685667604208, -0.04333217442035675, -0.02040950022637844, 0.01345917023718357, -0.018191467970609665, -0.031625691801309586, -0.05155466869473457, 0.019423557445406914, -0.03607253357768059, -0.03908473253250122, -0.034724801778793335, 0.03561626747250557, 0.0070614563301205635, 0.009166380390524864, -0.04332415759563446, 0.020958498120307922, -0.030657336115837097, -0.06409221142530441, -0.09455735981464386, -0.10794895887374878, -0.053761184215545654, -0.07213618606328964, -0.060086533427238464, -0.01706499047577381, -0.05417297035455704, -0.14664551615715027, -0.014858447015285492, -0.041494306176900864, 0.20106855034828186, 0.11243534833192825, -0.0883224681019783, -0.0999554917216301, -0.08959852159023285, -0.10843192785978317, -0.02709273062646389, -0.03934191167354584, -0.08727535605430603, -0.042752016335725784, -0.1134195402264595, 0.012485245242714882, 0.18220236897468567, -0.20377081632614136, -0.15236341953277588, -0.028599029406905174, -0.06236526742577553, -0.06805707514286041, -0.06664430350065231, -0.04885696619749069, -0.07138366997241974, -0.030002282932400703, -0.03585515916347504, -0.08392592519521713, -0.013808374293148518, -0.29355576634407043, -0.09227397292852402, -0.08043660968542099, -0.07859508693218231, -0.05332624167203903, -0.028836872428655624, -0.013941551558673382, -0.019890056923031807, -0.047633443027734756, -0.05538300797343254, -0.009441693313419819, -0.12368130683898926, -0.008375409059226513, -0.00601850776001811, 0.009967890568077564, 0.003546970896422863, -0.0391400009393692, 0.010934192687273026, -0.04154175519943237, 0.1822953075170517, 0.36855897307395935, 0.32977205514907837, 0.056353431195020676}, {0.006446882616728544, -0.011106579564511776, 0.03292355686426163, 0.010905527509748936, 0.04240679368376732, 0.04604281112551689, 0.03187030553817749, 0.05056561529636383, 0.03742200881242752, 0.07385782897472382, 0.048660002648830414, 0.04286675527691841, -0.04526080563664436, -0.027411799877882004, -0.0008698403835296631, 0.03152649849653244, -0.005290542263537645, 0.10925836116075516, 0.06351616978645325, 0.0029306048527359962, 0.06582298874855042, 0.09988123923540115, 0.08730636537075043, -0.0015069249784573913, 0.019099216908216476, 0.015972333028912544, 0.0668782889842987, -0.03913528472185135, 0.02771487832069397, -0.01928020641207695, 0.042030710726976395, -0.03339334949851036, 0.002690933644771576, -0.05493289604783058, 0.012487468309700489, -0.0785643681883812, 0.0044610281474888325, 0.0014481578255072236, 0.11622598767280579, 0.04030134156346321, -0.03458866477012634, 0.009132240898907185, -0.03410416096448898, 0.0930442288517952, 0.0819273591041565, 0.09518644958734512, 0.09632409363985062, 0.10205867886543274, 0.08815164119005203, 0.0018226979300379753, -0.04514515772461891, -0.06080760434269905, -0.0180335845798254, -0.041019100695848465, -0.03306674212217331, 0.008853893727064133, 0.023623939603567123, -0.02797647751867771, 0.10764795541763306, 0.08739998191595078, 0.07952451705932617, 0.05996663495898247, 0.004944639280438423, 0.09024276584386826, 0.10963433980941772, 0.10441391170024872, -0.04536159709095955, 0.061409905552864075, -0.1109895333647728, 0.015062151476740837, 0.015168888494372368, 0.028438005596399307, -0.013766104355454445, 0.018062308430671692, -0.07675585150718689, 0.08017510175704956, -0.05875540152192116, -0.014308145269751549, 0.06808637827634811, -0.020786024630069733, -0.05746415629982948, -0.057116419076919556, 0.010299205780029297, 0.05292791873216629, 0.0007553998730145395, 0.027271952480077744, 0.01577385514974594, 0.00451370794326067, 0.005340025760233402, 0.05198835954070091, 0.06299461424350739, 0.05164400115609169, -0.008609426207840443, -0.09698079526424408, -0.0845939964056015, 0.01838725246489048, 0.05217921733856201, 0.07316338270902634, 0.03343481197953224, 0.019662730395793915, 0.026194099336862564, 0.03449499234557152, 0.014369266107678413, 0.0356694720685482, -0.00297836703248322, -0.06364946812391281, -0.003536100499331951, -0.054437220096588135, -0.09511527419090271, -0.02305697277188301, 0.0803258866071701, -0.04831112176179886, -0.04710090160369873, -0.06052478775382042, -0.05334475636482239, -0.0970710813999176, -0.10350411385297775, 0.025660641491413116, -0.05121418833732605, -0.0038747251965105534, 0.07003836333751678, -0.0020475860219448805, 0.04991023615002632, 0.04316321760416031, 0.04593362286686897, 0.062489356845617294, 0.07608667761087418, 0.008620484732091427, 0.04757426306605339, 0.11560547351837158, 0.014103478752076626, 0.023367900401353836, 